0.255756
0.121311
-0.767270
-0.158021
-0.522556
-0.647691
-0.736709
-0.412112
-0.625356
-0.879637
0.325642
-0.176064
-0.858598
0.947264
-0.494122
-0.913611
0.137698
-0.348450
-0.561001
0.057051
0.348411
0.738616
-0.384269
0.479189
-0.184258
0.896754
-0.130748
0.853984
-0.203810
-0.726651
-0.437495
-0.948032
0.394684
-0.204778
-0.105963
0.872183
0.147517
0.157278
-0.540029
0.522146
0.277673
0.785866
-0.653533
0.419372
0.733130
-0.148223
0.505261
-0.130365
0.502842
0.943909
0.927231
-0.147970
0.683014
-0.456558
-0.668694
-0.501277
-0.559867
0.200561
-0.647254
0.236647
0.474433
-0.084239
0.289427
-0.130686
0.710549
-0.817105
-0.257677
-0.138864
0.346577
0.212467
-0.604101
-0.364969
0.005383
-0.258070
-0.956007
-0.281459
0.573339
0.535586
0.584445
0.081203
0.487010
0.518660
0.934151
0.168690
-0.939178
-0.734568
0.667345
-0.500129
0.464495
-0.980226
0.737311
-0.061063
-0.068207
0.023679
0.814566
-0.334628
0.243606
-0.399369
0.565396
-0.387319
0.814369
0.933955
0.186342
-0.266363
-0.402761
0.190025
0.450823
-0.810669
-0.253038
0.048532
0.270647
-0.772848
-0.437462
0.204670
0.395401
-0.381794
0.459146
0.051716
0.113029
-0.076247
0.069014
-0.146698
0.889882
-0.935879
0.965403
0.789428
-0.218285
0.210263
-0.670368
-0.777671
0.640305
0.941521
-1.001054
-0.233985
-0.297710
-0.338193
-0.982553
-0.816851
-0.148752
-0.252295
0.219864
-0.878632
-0.026764
0.769656
0.298759
-0.662183
-0.624221
-0.232804
0.407503
0.523151
0.762935
-0.405247
-0.485803
0.765339
-0.296102
-0.583543
0.373600
0.208401
0.307443
0.403930
0.231313
-0.099309
0.441728
0.400206
0.835705
-0.754840
-0.915604
0.828122
-0.596374
-0.065790
-0.426304
0.600900
0.014275
0.506623
0.369440
-0.643807
0.912534
0.836284
0.248458
0.470549
0.499010
0.094266
1.051474
0.850755
-0.454195
-0.640356
-1.095367
0.655246
0.444577
0.243748
0.246448
-0.048495
-0.573124
-0.127508
-0.599299
-0.776552
0.074617
-0.517691
-0.952656
0.445071
0.362611
-0.422488
0.079909
-0.518321
-0.781555
-0.414695
-0.029818
-0.762941
-0.538202
-0.823659
0.585218
0.729924
-0.077618
0.266059
0.324386
0.395288
0.679751
0.351990
0.224649
0.328778
-0.173805
-0.362044
-0.674771
0.194090
0.451364
-0.277654
0.410095
-0.518047
0.145516
0.434356
-0.977950
-0.321261
-0.814197
0.225680
0.225514
-0.620707
0.683793
1.015955
-0.547954
0.973726
0.973757
0.844642
0.651970
0.016796
0.277283
0.090997
-0.573659
-0.099848
-0.581750
0.675489
-0.760339
0.187417
-0.747695
-0.438631
-0.626824
0.662014
0.241498
0.796971
-0.718724
-0.432475
0.371867
-0.650932
0.198042
0.389840
0.327537
-0.788892
0.686653
0.001343
-0.799730
-0.879059
0.045565
-0.682693
1.038003
-0.359365
0.121790
0.008675
0.475110
0.444132
0.892518
0.863369
0.067929
-0.871389
0.038988
0.275115
-0.349469
0.421348
0.047241
1.015641
0.289624
0.301502
-0.537166
-0.557266
0.415114
0.540635
0.886833
-0.131703
0.832905
0.627793
0.949570
1.101916
0.688264
-0.205989
-0.901423
0.360192
0.145823
0.110404
-0.640627
-0.384443
-0.490900
-0.752536
-0.546040
0.499415
-0.715587
0.438919
-0.175411
0.019817
-0.071804
0.863916
-0.048797
-0.917214
0.074527
0.437553
-0.341939
-0.357669
0.087037
-0.355092
0.630934
0.007533
-0.789454
0.356963
-0.217522
0.564763
0.933236
-0.166875
-0.061694
0.084097
0.893435
0.291368
0.649693
-0.744396
0.334583
-1.045240
0.780716
0.758917
0.577647
-0.266225
-0.169419
-0.487890
-0.362401
-1.150644
-0.313980
0.827372
0.455935
0.586098
-0.257338
-0.262899
-0.779088
-0.848282
0.408124
-0.862393
0.383273
-0.769911
0.753048
0.331276
0.007439
-0.315690
-0.651791
-0.316542
0.667491
-1.208115
0.025392
0.309790
-0.864162
0.123577
0.259887
-1.215382
-1.105023
-0.888814
-0.642341
-0.290681
-0.689575
0.516630
-0.010450
1.047893
0.110869
0.520506
-0.491446
0.151993
0.662909
-0.972865
0.380890
0.083852
-0.784425
0.128052
-0.655076
-0.008523
0.485787
-0.494282
-1.125808
0.626235
-0.167629
0.307720
0.142695
-0.016056
-0.618633
-0.612778
-0.109706
-0.397511
0.018821
0.859703
0.841102
0.644446
0.421963
-0.285548
0.571599
-0.507042
-0.731494
-0.835693
0.747093
-0.986721
-0.808743
0.124354
0.029906
-0.787113
-1.006581
0.276361
0.478996
-0.990079
-0.679503
0.693163
0.722612
0.040609
-0.145662
-0.149757
-0.762414
0.681823
0.818861
0.731974
-0.215488
0.152613
0.695628
-0.376214
-0.216538
0.088314
0.261107
-0.676700
0.671078
0.671328
-0.465213
0.417000
0.628307
-0.408864
-0.612709
-0.327774
0.113127
-0.137271
-0.633228
-0.242437
-0.257977
-0.605532
-0.773411
-0.509666
0.732400
0.571743
0.878968
-0.532324
0.645837
0.949160
-0.691946
-0.534318
0.075170
0.848923
-0.165300
0.719467
0.032492
-0.712955
-0.886866
-0.295210
0.932387
-0.406064
-0.910422
0.667733
0.463488
-0.214787
-0.503864
-0.534384
0.292809
-0.541275
0.019336
-0.833315
0.239496
0.733408
0.115458
0.356207
0.585939
0.152891
0.879879
0.230185
-0.027598
0.879910
0.322670
0.883399
0.855697
-0.638097
0.669071
-0.109669
-0.337858
0.811718
0.652359
-0.296649
-0.469695
0.766084
-0.793318
0.641568
-0.874497
-0.613519
-0.908353
0.740135
0.338242
0.595167
-0.682180
-0.092722
0.552729
0.519377
-0.743448
0.033878
-0.611800
0.697954
0.855529
0.234613
0.716239
0.344846
0.163772
0.575064
0.757303
-0.063043
-0.430113
-0.562802
-0.375408
-1.047607
-0.255372
-0.267986
0.425180
-0.099936
-0.347129
-0.905972
0.880832
0.207738
-0.845804
0.465416
-0.037405
-0.511025
-0.752339
-0.773089
0.552924
-0.987033
-0.063295
0.894005
0.823829
-0.120189
0.143393
0.542645
-0.711778
-0.564079
0.213304
0.953356
0.045992
0.346017
-1.043757
0.368008
0.258601
-0.039887
-0.354526
0.376860
-0.511586
0.703828
0.673091
-0.507975
-0.018408
0.772490
0.733813
0.563132
0.811525
0.634199
0.661638
0.412504
0.726324
-0.384501
0.298244
0.552294
0.556349
-0.443238
0.161771
0.696293
-0.388811
-1.040769
0.338648
0.558091
0.488483
0.739624
0.564683
0.419838
0.232761
-0.501187
-0.115123
0.722399
-0.837682
-0.553534
-1.001053
-0.140678
-1.028457
0.628250
-0.534048
0.872920
0.303026
-0.887680
0.272684
0.030686
-0.225313
-0.337710
-0.370738
-0.805497
-0.102597
0.487743
0.738456
0.577756
0.747951
0.549727
0.686726
0.727534
0.608982
0.359004
0.105365
-0.270636
0.717236
0.847198
-0.684942
0.777264
-0.732841
-0.621386
-0.253064
-0.686374
-0.984728
0.189752
-0.823576
0.319087
0.332408
0.516938
-0.601640
-0.981480
-1.056906
-0.181523
-0.839946
-0.011408
-0.377587
-0.712320
-0.078269
-0.406862
0.889131
-0.492046
-0.856027
0.302862
0.688846
0.129824
-1.005084
0.444526
0.068525
-0.574274
0.318309
0.376058
-0.203767
-0.956224
0.681601
-0.188206
0.247742
0.897037
-0.837319
-0.473779
0.256856
-0.588110
-0.477070
0.334479
0.463893
-0.083515
-0.533690
1.088040
0.078258
0.187677
-0.529506
-0.216746
0.566196
-0.440340
-0.889606
0.328861
0.776303
-0.819138
-0.180475
-0.146701
-0.407477
-0.879258
-0.776525
0.388812
-0.831354
0.915423
-0.792675
0.389851
0.744820
-0.692549
0.919067
0.071840
-0.177564
-0.475211
-0.574858
-0.768875
0.332430
-0.235399
-0.793709
-0.673237
0.905282
-0.330268
0.135605
0.509141
0.262641
0.268518
-0.152866
0.035544
0.440047
0.657310
0.885902
-0.967475
0.778179
-0.890382
0.421148
0.942052
-0.986232
0.619985
0.339931
0.777399
0.950430
0.274589
-0.151595
-0.243629
0.773666
0.245230
-0.035614
0.090938
-0.997705
0.171499
0.423315
0.913304
0.845194
-0.439143
0.422099
0.106229
0.827021
-0.733096
-0.858961
0.267052
0.924213
-0.973059
0.299566
0.702265
-0.863689
-0.279345
0.644833
-0.849261
-0.658370
-0.014547
0.928327
-0.708205
-0.740282
-0.223884
0.047719
-0.966879
-0.978693
-0.987763
0.124173
-0.976332
0.183732
-0.452503
0.936933
0.028915
0.108301
0.358981
-0.864866
-0.064677
0.625885
-0.723827
-0.797625
0.550098
-0.696887
0.501939
0.252362
-0.560568
-0.777389
-0.102801
-0.409796
-0.435759
0.882652
-0.481469
-0.143965
-0.857649
0.294630
0.903732
-0.824511
0.315954
0.915991
0.299664
0.339622
0.099723
0.847161
0.276555
-0.871361
-0.044538
-0.364470
-0.736271
0.890678
-0.738837
-0.460441
-0.907521
0.810971
-0.157459
0.594915
0.064162
0.282912
0.818090
0.961418
0.872961
-0.617929
0.843493
-0.609188
0.237609
0.985646
0.685572
0.141897
-0.838223
0.001817
0.057691
0.461260
-0.658549
-0.842543
0.308415
0.617462
-0.716702
-0.742908
-0.758115
-0.465004
-0.860031
-0.494495
0.087361
-0.747095
-0.661077
0.947916
0.858311
0.404592
0.229238
0.674296
0.364174
0.098286
-0.952874
0.192241
0.473287
0.277186
0.178952
0.162207
-0.578783
0.342837
-0.833004
0.480057
-0.195914
-0.494719
0.621944
-0.922988
-0.930291
0.863169
-0.668755
-0.638140
-0.516424
-0.436274
-0.057432
0.618599
-0.164087
0.274634
0.553714
-0.309681
-0.314367
-0.219595
-0.667419
0.987521
0.805713
-0.676162
0.154662
0.272129
0.603651
-0.660355
-0.555945
-0.971978
0.682512
-0.396721
0.469168
-0.599590
0.000548
0.038472
-0.467676
0.232728
0.104955
0.040168
0.700523
0.621090
0.585980
-0.396509
0.202203
-0.601843
0.862057
-0.285323
0.000369
-0.578360
0.352262
0.219071
-0.654906
0.126473
0.519928
0.476006
-0.607847
0.121110
0.815424
-0.178578
0.075114
0.346796
0.256574
-0.495160
0.908445
-0.424814
0.867107
-0.332514
0.889743
-0.053437
0.638870
0.529433
-0.473636
0.190996
1.077421
0.622359
0.441308
0.778936
-0.813898
-0.675622
-0.867018
0.497804
0.475310
-0.625497
-0.450278
-0.033433
0.849056
-0.081572
-1.026343
0.445916
0.530183
0.077778
0.121399
0.282183
0.998257
0.254989
0.884768
0.790329
0.840401
0.723702
-0.303847
0.419799
0.150005
0.063685
-0.559950
0.085462
-0.426334
0.777565
-0.208312
-0.283229
1.017547
-0.236962
-0.936595
0.425454
0.133934
-0.420893
-0.760779
-0.276708
0.305387
-0.637462
-0.330283
0.467112
0.903025
1.005365
-0.262988
0.782234
0.146155
-0.465126
0.476148
-0.153012
1.076595
0.961266
1.073666
0.083233
-0.076266
-0.614783
-0.958954
0.414414
-0.894742
-0.290544
0.990782
-0.964965
0.467119
-0.988955
0.279289
-0.669758
-0.569504
0.741281
0.625888
-0.585607
-0.381007
-0.453143
0.854811
-0.669667
-0.681931
-0.646123
0.862819
0.206255
-0.357504
0.103381
0.820652
-0.468105
-0.059633
0.743617
0.420688
0.691241
-0.936969
0.422955
0.066268
-0.902285
-0.873784
0.005552
-1.065599
0.305562
-0.161477
0.443592
-0.779331
0.957818
0.761499
1.165844
-0.613910
1.110461
-0.688354
0.781587
1.014478
-0.726027
0.855788
0.620378
0.189346
-0.726410
-0.362486
-0.067401
-0.419766
0.235605
-0.532975
0.974623
-0.002296
-0.494312
0.391917
-0.992454
-0.603207
0.194411
-0.188988
-0.412531
0.157337
-0.557797
-0.301289
0.750272
-0.569826
1.100691
0.341165
-0.826134
0.678979
0.263703
0.694415
0.456227
0.257181
0.385769
0.115758
-0.502904
0.439091
0.224988
0.005046
0.927407
-0.386511
0.506920
0.898562
0.562040
-1.187686
-0.040046
0.402233
-0.458585
-0.080232
0.063373
0.755851
1.375005
0.430439
0.967268
0.408775
0.109473
0.495137
-0.593112
0.104982
0.034359
0.509918
-0.217099
-0.359847
-0.136771
0.915915
0.157040
-0.146980
0.229256
-0.426480
0.931136
0.156459
0.162962
0.275072
-0.220892
-0.384404
0.452162
-0.497429
-0.247818
-0.533578
0.597047
0.648940
0.657803
0.160853
-0.732248
0.052456
-0.688457
0.327941
-0.435306
-0.279994
-0.479435
0.724613
-0.760067
0.015919
0.878686
-0.274445
-0.135332
0.211808
0.638056
-0.904715
0.798217
0.478595
0.058009
-0.148136
0.024042
-0.567086
0.980678
-0.222608
0.008966
-0.469048
-0.346413
0.765282
0.390666
0.834221
-0.163241
0.780367
0.038739
0.248837
0.199657
0.639269
0.900327
0.512291
0.149734
1.008135
-0.454261
0.124352
-0.262159
0.411414
-0.607156
-0.624969
0.378147
-0.979749
0.931731
-0.187396
0.220132
0.145989
0.228969
-0.046338
0.381828
0.583678
-0.041540
0.831292
0.481539
-0.373675
0.898461
-0.561747
-0.547319
-0.086585
0.617967
0.577456
-0.412212
0.571967
0.121566
0.690874
0.504724
0.667565
-0.104504
-0.687597
0.023448
0.090814
-0.386751
-0.401309
0.316763
-0.423699
0.242436
-0.755961
0.389155
-0.743470
0.131086
-0.110966
-0.875602
-0.563266
-0.033348
0.668911
-0.026866
-0.294588
-1.019902
0.430015
0.791424
0.717729
-0.020160
-0.815640
0.145290
-0.900474
0.957048
-0.242659
0.786730
-0.302345
-0.081134
-0.172687
0.766439
0.331617
0.161725
-0.076646
-1.031825
-0.332102
0.441189
0.606688
0.212193
-0.095377
-0.304303
0.254633
0.017712
0.290703
-0.260980
-0.905446
-0.714594
-0.151685
0.409858
0.778147
-0.599923
-0.612924
1.036641
0.674428
-0.412238
0.918463
-0.757189
-0.800354
-0.616011
-0.127666
-0.127096
-0.718734
-0.414329
-0.540515
0.484237
-0.259279
0.340305
0.171854
-0.578509
-0.700409
0.580991
-0.333110
0.438096
-0.158193
-0.689059
-0.732428
-0.254687
-0.724935
-0.025184
-0.846358
-0.885165
0.513959
-0.306163
-0.848825
-0.023542
-0.043212
0.726418
-0.002414
0.198380
-0.586662
-0.757976
-0.703409
-0.277717
-0.162000
-0.121829
-0.640374
0.542492
0.921745
0.110836
0.663203
-0.761351
-0.032996
-0.392424
0.692382
0.612876
-0.320833
0.873044
-0.643064
-0.004761
-0.015121
-0.318726
0.157569
-0.694149
0.031040
-0.017480
0.136357
-0.906000
-0.072790
-0.764557
0.170929
0.114367
-0.618461
0.598589
-0.960384
0.296425
-0.602579
-0.754040
-0.265107
-0.668399
0.456504
-0.516283
-0.456312
-0.669310
0.002199
-0.789387
0.943137
0.715117
-0.785990
-0.524376
-0.201049
0.041235
-0.157606
0.646401
0.153929
0.851902
-0.349166
-0.809532
0.682248
0.324813
-0.600827
0.102969
-0.220821
0.044404
-0.156532
-0.177066
-0.751903
0.101322
-0.012543
-0.019064
0.483856
-0.493256
0.505358
-0.958350
-0.163050
-0.480110
-0.667479
-0.100062
-0.688935
-0.581448
0.109565
-0.173674
0.265420
0.883698
-0.553964
-0.667773
0.572263
-0.019169
-0.396904
0.550608
-0.335899
0.283663
-0.199340
0.421503
-0.811840
0.482669
-0.803015
-0.472530
-0.238608
0.346152
0.600230
-0.729806
0.852290
0.095847
-0.693037
-0.308500
0.621174
-0.442247
0.454780
0.806511
-0.069809
-0.403881
-0.336591
-0.820457
-0.568343
0.095742
-0.406460
-0.837439
-0.766048
0.287625
0.709048
-0.195455
-0.537584
-0.530150
-0.688804
-0.160843
-0.833881
-0.329085
0.452343
-0.050439
-0.982967
0.037574
0.184318
0.816343
-0.900669
0.479122
-0.465696
0.782983
-0.852811
-0.893538
0.655381
0.081484
-0.327835
-0.711796
0.232906
0.048237
0.300714
0.717420
0.086375
0.427720
-0.033283
-0.148793
-0.620260
0.619255
0.490653
-0.191361
-0.480239
0.672205
0.479535
0.965946
-0.396775
0.462275
-0.022782
0.796258
0.338749
0.179071
0.396616
0.972483
0.011061
0.532985
1.029155
-0.409356
-0.488334
-0.438025
-0.273815
0.601040
0.494748
-1.038571
0.327360
-0.335752
0.520863
-0.571197
0.622437
0.970078
-0.915847
0.122039
-0.221110
-0.396272
-0.207559
-0.746848
-0.434815
0.403544
0.747289
0.595996
0.258233
0.129632
-0.205633
-0.355643
0.066273
0.749223
-0.892513
0.013551
-0.739098
-0.446195
0.532987
-0.025409
-0.821925
0.085855
0.008459
0.568970
0.795304
-0.442159
-0.987590
0.421278
-0.472018
-0.903356
-0.456694
0.306812
-0.299644
0.337321
0.565085
0.276178
-0.246622
0.320985
-0.122720
-0.988680
-0.555456
0.660724
-0.358608
0.495841
0.398047
-0.259244
-0.492419
0.663105
0.305015
-0.941800
-0.343843
0.496915
0.152792
0.670516
0.068799
-0.051184
-0.771631
0.081209
-0.629906
-0.243663
0.177772
-0.086590
-0.936868
0.878250
-0.749029
0.628470
0.154746
0.004540
-0.050525
-0.968063
0.015638
0.393834
0.692661
0.657381
-0.109770
0.091055
-0.601410
0.398466
-0.245346
0.703813
0.456743
0.410917
0.200783
-0.390454
0.081434
-0.730418
0.558362
0.309803
0.350789
0.928454
-0.933862
-0.471439
-0.158135
-0.870727
-0.593186
0.092837
0.757743
0.561560
-0.902651
-0.292893
0.593300
0.112901
-0.899074
0.286026
-0.229702
-0.008752
-0.622782
0.168985
-0.610246
0.131873
-0.127202
0.846497
-0.457210
-0.926421
-0.543955
0.624244
-0.656813
-0.985639
-0.066052
0.694088
0.943120
0.000416
-0.777414
-0.215026
0.129528
-0.370685
0.877478
-0.113711
-0.810998
0.973063
0.593362
0.783983
0.088009
0.695734
0.070811
0.858435
-0.313241
0.447765
0.027338
0.076495
-0.420366
0.900011
-0.077246
0.122216
0.973543
0.378094
-0.253871
-0.682193
0.397480
0.687704
-0.981189
0.343831
-0.313826
-0.763218
-0.879077
0.802385
-0.149368
0.982722
-0.317359
0.044720
0.973546
-0.703103
-0.157150
0.064102
0.987795
0.908525
-0.080151
-0.325941
0.356245
0.946657
0.749044
0.934545
0.847053
-0.324755
0.063928
0.834824
-0.923096
0.834269
-0.832950
0.469782
0.499261
-0.844992
-0.219914
-0.843335
-0.638292
-0.125612
0.944972
0.220924
-0.106204
-0.322580
-0.691109
-0.114700
-0.031424
0.136364
0.936989
-0.046578
0.044782
-0.143895
0.624819
-0.600755
-0.194278
0.385522
-0.644308
-0.313876
-0.900667
0.444792
-0.484576
-0.863026
0.214629
-0.393899
0.535967
-0.324673
-0.246376
-0.664665
-0.145679
0.144316
0.238303
-0.171661
-0.607591
-0.848770
0.507946
-0.315641
0.013316
-0.530476
0.820544
-0.052043
0.414328
-0.146302
0.798859
0.050566
0.282546
-0.355601
-0.524588
0.650240
0.297378
-0.502898
-0.007214
0.711770
-0.434600
-0.790222
-0.611580
-0.797930
-0.046506
0.161640
-0.487395
0.759860
-0.743132
0.717423
-0.426920
-0.368416
0.840600
-0.930115
0.315486
-0.151686
-0.483458
0.103635
0.771980
0.939548
-1.003115
0.627298
0.045922
0.300350
-0.760608
0.437113
-0.148114
0.470611
0.936579
0.935398
0.323711
-0.378521
-0.825311
0.647224
-0.292464
0.001026
-0.308165
0.127458
-0.299184
-0.084774
-0.190426
0.257700
0.545835
-0.360275
0.287770
-0.195228
0.447654
0.829955
0.987402
0.326389
0.865378
1.030314
-0.061365
-0.150510
0.270657
0.167017
-0.640739
-0.731522
-0.231324
-0.677263
-0.922317
0.870167
-0.274311
-0.900658
0.421184
0.371633
0.045121
-0.917468
-0.543151
0.723175
-0.003870
0.251646
-0.073987
-0.532059
0.858945
-0.703968
0.436559
0.492667
-0.734983
0.474447
-0.216817
-0.947631
0.455245
0.731007
-0.018741
-0.161667
-0.057734
0.219719
-0.193604
0.352348
0.264650
-0.227318
0.238480
-0.939053
-0.086877
-0.321060
0.395181
0.926702
-0.240963
0.834620
0.587923
0.687383
0.094386
-0.329243
-0.606666
0.152790
0.048483
0.780931
-0.485077
0.177810
0.187347
0.302261
0.290809
-0.300827
-0.021437
1.025125
0.142945
0.526029
-0.021403
0.882659
-0.025853
-0.572030
-0.178538
-0.690720
-0.523201
0.695169
-0.014982
0.852827
0.566940
0.699375
0.726300
0.345433
0.608052
-0.060989
0.966364
0.822242
0.887495
-0.122800
0.576196
-0.538176
1.145337
-0.182646
0.678516
0.161596
0.117744
-0.718688
-0.077406
-0.839510
0.874108
-0.890686
-0.707876
0.019930
-0.429400
0.073970
0.325416
0.032206
-0.272326
-0.721598
-0.062819
-0.529723
-0.866548
-0.319953
0.655645
0.528093
0.472849
0.592852
0.422045
0.488927
-0.398959
0.079514
0.889980
-0.492570
0.533383
0.186929
0.330995
-0.557487
0.447041
-0.560914
-0.117520
0.542926
-0.379662
0.143815
-0.440247
0.184183
-0.808001
0.855226
-0.750245
0.019242
-0.809186
0.089757
0.292049
-0.792754
0.815302
0.095263
0.882434
0.399879
-0.222075
0.378514
-0.125382
0.196947
-0.876800
-0.676830
0.249506
0.328713
0.422092
-0.239598
-0.919109
0.128671
0.296836
-0.057315
-0.330070
0.923721
-0.926144
0.192777
0.078234
-0.752412
-0.009436
0.175497
0.153515
0.274022
-0.435504
-0.237525
0.639534
-0.607362
0.845875
0.561795
0.799604
-0.520303
-0.391911
-0.830244
0.157252
-0.621127
-0.555800
-0.351226
-0.935796
-0.847991
0.520386
-0.865821
0.280331
-0.158346
0.079530
0.901181
-0.345399
0.016306
-0.044678
0.613167
0.313797
-0.732300
0.275484
-0.132558
0.674964
0.763406
0.538480
0.320004
1.156165
0.237313
-0.460691
0.452195
0.250816
-0.095131
0.701952
-0.259819
0.662753
-0.576854
0.487296
0.722287
-0.424045
0.039706
0.865298
0.792271
0.701756
-0.268796
0.542966
-0.671954
-1.048046
-0.040244
-0.508729
0.662683
0.342059
0.664133
-0.577239
-0.009061
0.382296
0.782473
-1.023323
0.116709
-0.296576
-0.548906
-0.201331
-0.661174
0.694038
-0.293326
0.125028
0.344164
0.131020
-0.353190
0.082988
0.641224
0.490619
-0.276491
0.321415
0.257231
0.737287
0.337937
-0.926702
1.039211
-0.579148
-0.507182
0.606421
0.695732
1.060591
0.835570
-0.607109
0.140408
0.466834
-0.543350
-0.436762
-0.473276
0.144207
0.437026
-0.176558
-0.199481
-0.856089
0.984266
-0.820252
0.243278
-0.525042
0.073833
-0.169787
-0.924877
-0.939018
-0.489999
0.673889
1.073161
0.984786
0.736055
1.038667
-0.696840
-0.917390
0.448228
0.752333
-1.051862
0.252351
-0.683039
0.380055
-0.032832
-0.139200
0.877743
0.373467
0.941401
0.313764
-0.772992
-0.212867
0.461457
-0.894330
-0.195276
-0.355498
-0.366031
-0.980907
0.645883
-0.106262
-0.718267
-0.707583
-0.412811
-0.711219
-0.836476
-0.844425
-0.861310
-0.723977
-0.860769
0.632477
-0.778320
-0.697800
0.004446
-0.513535
0.526066
0.819588
0.276406
0.401956
0.213468
0.252646
-0.275286
0.355689
0.883747
-0.916757
0.432387
-0.283502
-0.226750
-0.834273
-0.095566
-0.436007
0.107460
0.151488
-0.218812
0.579798
0.324491
-0.136201
0.757078
0.588031
0.322855
1.026854
0.240515
0.433774
-0.825615
-0.883993
0.864023
0.699132
0.954754
0.179588
0.122194
0.107860
-0.716806
0.693161
-0.640524
-0.872749
0.791839
-1.107666
0.021900
-0.257579
-0.817404
-0.990009
0.372349
0.334816
0.208041
-0.760052
0.070818
-0.276872
0.262621
-0.107761
-0.723286
-0.514729
-0.188409
0.434563
0.886195
-0.014274
0.578364
0.814934
-0.260238
0.500189
-0.169662
0.645346
-0.578925
0.031559
0.383380
-0.060345
0.384734
0.404177
0.037054
-0.388750
-0.643510
0.418133
-0.195117
0.912743
-0.056775
-0.827552
-0.759743
1.009602
-0.168196
0.415409
-0.178971
0.051288
0.881590
0.633324
-0.476284
0.854569
-0.304507
-0.931891
0.463719
0.167496
0.337161
-0.790043
-0.111156
-1.045730
0.485865
-0.480699
0.126880
0.111788
-0.824931
-0.582437
0.946806
-0.284306
0.975446
-0.165008
-0.352095
-0.117520
-0.055640
-0.188585
-0.179939
0.724563
-0.788815
0.642113
-0.186546
-0.822674
0.348274
0.289132
0.817664
0.788132
0.153309
0.222389
0.035121
-0.326632
0.652367
-0.844342
-0.138702
0.377909
-0.089313
-0.783145
-0.324924
0.215570
-0.293155
-0.351919
0.924063
-0.345152
0.440144
-0.486095
0.476368
-0.661646
0.311511
-0.703043
-0.911327
0.581964
0.993657
-0.136839
0.598211
0.157149
-0.980378
0.387213
0.011697
0.315835
-0.218258
-0.768711
-0.822017
-0.378520
-0.445752
0.176898
-0.912255
0.510455
0.409666
-0.235012
-0.277159
-0.890840
0.391079
-0.390105
-0.278123
-0.200006
0.114962
-0.801834
0.146099
-0.554207
-0.486679
0.211308
0.948912
-0.581636
-0.984738
0.540163
0.618210
-0.881142
0.022395
-0.273791
0.530614
0.892217
0.027929
0.757214
-0.465653
0.586369
-0.065444
-0.374575
0.102498
-0.654458
0.381364
0.808248
-0.564284
-0.240294
-0.585072
0.157496
0.559869
0.530326
0.356160
-0.301298
0.956716
0.848207
0.897749
0.904613
-0.720472
0.938672
0.469518
0.919945
-0.920560
-0.489552
-0.339992
0.618690
-0.594252
0.688831
0.377276
-0.056621
0.278997
-0.686759
0.566906
-0.622306
-0.344641
-0.053767
-0.814500
0.091069
0.705938
-0.399572
-0.751448
0.265638
-0.869697
0.603903
0.963650
-0.913369
0.453337
0.862998
0.992213
0.733453
0.802345
0.462387
0.653961
0.882198
0.973234
-0.685731
0.501150
-0.620644
-0.996563
-0.121494
0.322568
0.282253
0.191682
-0.110559
0.659942
0.847041
0.835674
0.845442
-0.061890
0.541612
-0.554130
0.186664
-0.192748
-0.423812
-0.209373
-0.229066
-0.337131
-0.756037
-0.366068
-0.344923
0.977395
-0.563771
-0.882544
0.631365
-0.681539
-0.909304
0.945643
0.819624
-0.529940
0.949084
-0.301870
0.792628
0.231336
0.889812
-0.317933
-0.108701
0.736952
-0.481975
-0.263009
-0.324603
-0.940263
0.182933
0.861450
-0.133661
0.758022
-0.348522
0.636953
-0.579517
-0.106071
-0.732569
0.071224
-0.132173
-0.295612
0.193028
-0.495625
0.025891
0.284885
-0.549309
-0.154149
0.754963
-0.600259
0.543974
0.547674
0.632030
0.437173
-0.762660
-0.467209
0.181731
-0.246532
0.257747
0.833332
-0.211509
-0.578254
0.690341
0.660569
-0.812872
-0.660476
0.277355
-0.424381
0.208754
0.558317
0.697233
-0.874539
-0.715239
-0.110063
-0.365781
0.316392
-0.822078
0.084996
-0.837788
0.933755
0.490544
0.723700
0.512617
0.150009
0.160242
0.703717
0.598056
-0.759189
-0.621309
-0.178122
-0.904142
0.221309
0.304949
0.830710
-0.113001
0.485527
-0.821420
-0.760055
-0.803682
0.503882
0.820675
0.842992
0.605371
-0.878894
-0.246721
-0.757719
0.437387
-0.066308
0.341900
0.636295
-0.080483
-0.147302
0.308854
-0.703385
0.823746
-0.696158
-1.091994
0.429100
-0.354618
-0.558386
-0.574624
-0.103981
0.753464
0.779403
-0.253281
-0.302266
0.379093
0.056504
-0.027577
0.483313
-0.525398
-0.206125
0.363205
-0.914588
-0.085246
-0.879012
-0.643427
-0.582179
0.125789
0.694253
0.928178
0.817652
-0.691120
0.068768
-0.926646
-0.777714
0.551903
-0.796029
0.905377
-0.546300
-0.155185
-0.558075
0.339974
-0.458693
-0.772492
-0.799950
0.331797
0.549660
0.144509
-0.722773
0.070647
0.624325
0.070448
-0.558922
0.757765
1.076897
-0.361102
-0.938534
-0.723069
0.453100
0.494526
-0.902193
0.346590
-0.991917
0.385126
0.611540
-0.534817
0.253795
-0.857985
-0.438593
0.654675
-0.218181
-0.122894
0.093486
0.512334
0.152621
0.234297
-0.184779
-0.267047
-0.623666
0.090949
0.816158
-0.932037
-0.735462
-0.695294
0.666494
-0.995952
-0.420780
0.522419
-0.689347
-0.724595
0.349325
-0.346173
0.753188
0.509836
-0.665145
0.747766
-0.786081
0.506786
0.596236
-0.418856
0.263387
-0.342577
0.618171
-0.620656
-0.858945
-0.226893
0.590196
-0.046139
0.520175
1.034111
-0.889291
0.292191
0.840630
-0.979327
0.346286
0.489294
-0.789100
-0.751035
0.374593
-0.209221
-0.335312
-0.178127
0.609054
-0.349012
-0.522116
0.840003
-0.875277
-0.492742
0.444062
-0.980636
0.312660
-0.193668
-0.342101
-0.104285
0.140037
-0.203970
0.685640
-0.216709
0.751778
0.086832
-0.428911
0.694674
-0.577797
-0.425362
-1.143345
-1.114027
-0.719280
-0.607558
-0.563708
0.782961
0.149466
0.048922
-0.406665
-0.299543
0.565133
-0.046602
-0.404901
0.925883
0.739613
-0.732511
1.000633
0.004758
0.010964
-0.344568
0.921674
-0.817881
0.421015
0.507733
-0.116981
0.293341
-0.165899
0.509270
-0.242759
-0.033237
-0.863630
0.079939
0.406642
-0.350798
0.296449
0.567235
-0.674073
-0.502856
-0.362293
-0.166664
0.140299
-0.697576
-0.901174
-0.876445
-0.597862
0.797785
-0.695141
-0.600827
-0.171801
0.345944
0.050057
-0.260598
0.619777
-0.269876
-0.597446
-0.750166
0.422020
-0.276603
0.839065
-0.157910
-0.534835
-0.712838
0.673338
0.477141
-0.241562
0.041344
0.088450
-0.038220
0.358747
0.691763
-0.919684
-0.026433
-0.732611
-0.834128
-0.000526
-0.334948
0.990647
0.337333
0.105221
-0.108210
-0.130210
-0.608680
0.598375
-0.979127
-0.581600
0.559011
-0.524418
-0.418927
0.054996
-0.467430
0.052201
0.004738
-0.459355
-0.280168
-0.515069
0.176788
0.561446
0.487259
-0.656458
0.369425
0.489960
-0.532472
-0.727943
0.753354
-0.343377
0.300692
-0.514464
-0.236601
-0.134177
0.765976
0.520524
0.222520
0.523622
-0.217529
0.434439
-0.462119
-0.106788
0.884993
-0.424635
0.336334
-0.914127
0.569206
-0.644106
-0.437164
-0.869789
-0.291628
0.813948
-0.965043
-0.513532
-0.728629
0.382142
0.973817
-0.243757
0.661252
0.777952
0.527133
0.217357
-0.557770
1.170881
0.611934
0.641125
0.346861
-0.125426
0.517832
-0.567088
1.099962
0.455663
-0.258034
0.707649
1.002852
-0.856461
0.777200
0.427628
-0.693218
-0.700805
0.773645
0.250328
-0.725155
0.833715
0.736803
-0.425862
0.214323
0.726337
0.393308
0.116249
0.708644
-0.156606
0.903519
0.615590
-0.362525
0.404421
0.396485
1.129857
1.065148
-0.576445
-0.891293
0.978689
0.897736
-0.044924
0.707678
0.774752
-0.122118
0.362967
0.292490
0.340331
0.838060
0.125748
-0.406692
-0.857019
-0.057716
-0.695225
-0.292661
-0.647796
-0.768156
1.065410
0.141387
0.530079
-0.381644
-0.116306
0.148334
0.335448
-0.807336
-0.766728
0.150334
-0.853342
-0.250958
0.447906
-0.771920
-0.434104
-0.847331
0.697235
-0.727619
0.109549
0.235432
0.637775
-0.546936
0.091944
-0.291825
-0.042825
0.168070
0.812916
0.460941
0.896211
0.988495
0.502128
0.819292
-0.060582
-0.094251
-0.540289
0.819222
0.897087
0.585449
0.960003
-0.683700
0.020020
-0.734126
-0.049797
-0.890496
-0.906743
0.304827
-0.705087
0.949411
0.645326
0.407586
0.193187
0.203504
0.723580
-0.812501
-0.930422
-0.078346
0.466959
0.889922
-0.566266
0.363483
0.657950
0.679209
0.128732
-0.352540
-0.449873
0.466876
-0.551964
-0.376219
0.303887
-0.472808
-0.245940
0.897377
-0.665273
0.467180
-0.981540
-0.457288
-0.184118
-0.683953
-0.500909
-0.619553
0.579950
0.579833
0.731448
0.583144
0.977873
0.973110
-0.280369
0.524564
0.602870
-0.228424
-0.289068
0.242916
-0.615764
0.681201
0.802870
0.015163
0.332963
-0.635845
0.527513
-0.670942
-0.451397
-0.900070
-0.788130
-0.067049
0.577368
-0.768171
0.479693
-0.672408
-0.560876
0.897435
-0.136073
-0.671505
0.785643
-0.116329
1.166775
0.797242
-0.504538
-0.620050
-0.015390
0.909336
-0.024384
0.502288
0.059790
0.437641
0.413379
0.102231
-0.458811
-0.367434
0.266337
0.925457
-0.084449
0.811459
-0.984294
0.127948
-0.258506
0.537491
0.293724
-0.802054
1.035530
1.029291
-0.578629
0.192022
-0.485012
1.064862
0.554941
-0.934055
0.415460
0.765052
-0.777541
-0.753133
0.673014
0.362278
-0.961865
0.028593
-0.046876
0.407409
0.990545
0.373360
0.986231
0.232087
0.285541
-0.097975
0.034861
0.250754
-1.010414
0.792941
-0.033640
0.522458
-0.773492
0.175818
0.571884
-0.602165
0.827005
0.494745
-0.969521
0.126480
0.405904
0.369687
-0.049645
0.813591
0.870977
-0.168462
0.249931
0.839848
0.744171
-0.884970
0.200850
0.704736
0.476728
0.186938
-0.079305
-0.297501
-0.961411
0.970398
-0.909330
-0.832934
0.870913
0.127057
0.681828
0.918233
0.930494
-0.165600
0.983539
0.552355
-0.768176
-1.005511
-0.250478
0.779716
0.520469
0.771307
0.563931
0.280598
-0.504942
-0.260958
0.072869
-0.791389
-0.155540
-0.726691
0.897145
-0.731853
0.402749
-0.195071
0.038253
0.494699
-0.183903
0.195198
0.742301
-0.327205
-0.838934
0.202202
-0.609855
0.944065
0.965206
-0.627840
0.556070
-0.719426
-0.585926
-0.730556
0.958733
0.806831
0.943339
0.456706
0.045957
-0.584080
-0.810446
-0.881356
-0.380935
0.014007
-0.636859
-0.498962
0.303273
0.786366
0.346052
-0.565557
0.415650
-0.764024
0.600333
0.077504
-0.175318
0.695956
-0.754404
0.212027
0.661944
-0.773984
0.562825
0.151521
-0.584301
0.892951
0.363123
-0.662872
0.678470
0.296166
0.791203
-0.275640
0.711961
0.980119
-0.158471
-0.665897
0.009906
0.228543
-0.130852
-0.631198
0.088315
-0.737206
-0.191026
-0.510067
-0.518524
-0.605130
0.557495
0.299387
-0.914065
0.793399
-0.508009
0.718897
0.988902
-0.968501
-0.144570
-0.604610
0.919785
-0.783597
-0.267993
0.598247
0.512568
-0.476789
-0.677388
0.224654
-0.496056
0.165593
0.561072
0.518652
-0.598964
-0.564232
0.888715
0.489121
-0.301685
-0.302651
0.978690
0.179454
0.091617
0.535324
-0.521945
0.176331
0.327641
-0.030668
-0.105216
0.316340
0.000761
0.750175
0.711716
-0.079454
0.966578
-0.556276
-0.481206
0.479153
-0.033060
-0.158593
-0.296197
0.470907
-0.992910
-0.734929
-0.010356
-0.591875
-0.299161
-0.121641
0.897246
0.399190
0.575713
0.875944
-0.421394
-0.332693
0.411258
0.056660
0.843656
-0.261101
-0.974008
-0.261561
-0.944761
0.026753
-0.511389
0.766952
0.947283
-0.544904
-0.789447
-0.534197
0.934182
0.177698
0.307779
-0.361644
-0.351256
0.314517
-0.097315
0.637374
0.722929
0.605521
-0.480587
0.623740
0.005977
-0.906809
0.496250
0.581799
-0.240466
-0.092928
-0.361530
-0.396793
0.646050
-0.335541
0.341404
0.700783
0.689817
0.827195
0.464761
0.635731
-0.715687
0.679306
-0.895201
-0.783909
-0.151547
0.397910
-0.163714
0.482284
-0.290080
0.758826
0.163093
-0.514444
0.396677
0.677459
-0.922106
-0.629694
0.750786
0.563285
0.950077
-0.488493
-0.527600
-0.411327
0.114005
-0.884854
0.245683
-0.556721
0.805431
-0.067341
-0.721400
0.280440
-0.432022
-0.455436
-0.074393
-0.369034
-0.279043
0.748490
-0.967799
0.612121
0.334399
-0.119468
0.477499
-0.480648
0.303225
-0.213982
-0.869668
0.340548
0.144196
0.883389
-0.089717
0.094699
-0.608128
0.370630
0.659770
0.477217
0.469468
-0.089855
0.944194
0.297671
0.848397
-0.798573
-0.466532
-0.630374
-0.277466
0.474994
0.053600
0.545586
0.378832
0.303831
0.354875
-0.199999
-0.876701
-0.300204
0.200296
0.344683
0.452818
0.330838
-0.302079
-0.402241
0.207120
0.581764
0.646082
0.555424
-0.057346
0.342951
0.098077
-0.524702
-0.708645
0.039660
0.736302
-0.904154
0.232750
-0.671455
-0.434897
-0.912508
0.977503
0.870337
0.884136
0.490712
0.123765
0.082010
-0.864915
0.129824
0.721292
0.323815
-0.510101
0.175254
-0.357538
0.143691
0.707197
0.805007
-0.246802
0.450923
0.487457
0.816996
-0.123514
-0.392548
-0.757217
0.073792
0.576852
-0.988373
0.289463
-0.025051
-0.474712
-0.896305
0.328160
-0.358398
0.900600
0.001704
0.914897
-0.135216
-0.997156
-0.967795
-0.988000
0.725670
0.338062
-0.548907
-0.155402
-1.020330
0.696677
-0.273132
0.973618
-0.400153
-0.765788
0.402568
-0.735217
-0.067094
0.874284
-0.519390
-0.896356
0.620954
-0.325944
0.604260
-0.162018
0.331014
0.610752
0.882809
0.653728
0.283102
-0.207417
0.575855
-0.816177
-0.202285
0.588035
-0.854802
-0.515431
-0.023337
-0.237531
0.526815
0.085630
-0.538625
-0.880876
-0.171170
-0.170025
-0.816131
-0.857946
0.068085
0.182435
-0.854668
0.708155
0.457152
0.978332
-0.470235
-0.007881
-0.483198
0.468297
-0.693873
-0.710745
0.165879
0.654147
0.084938
-0.283067
0.785059
0.861375
-0.608259
-0.893837
-0.540889
0.285751
-0.385097
0.676445
-0.855595
-0.003348
0.844125
0.078089
0.912934
-0.883318
0.299075
0.094033
0.433160
0.651938
0.008834
-0.071296
0.417745
0.165765
0.577641
0.776918
-0.325940
0.964696
-0.929935
0.815883
0.596970
0.193964
-0.338575
0.494956
-0.001219
-0.198602
0.309321
0.260096
-0.922040
-0.930456
0.180522
-0.519040
0.259448
0.126328
0.563085
0.229128
0.375439
0.121488
-0.377716
-0.027483
-0.318436
0.331145
0.537567
0.873598
-0.517161
0.187255
0.655562
0.165703
0.234740
0.882649
0.150378
-0.169898
-0.141605
0.518452
-0.829470
0.840403
-0.601345
0.578711
0.281103
-0.279437
0.853578
-0.475185
0.134761
0.164981
0.852109
0.043577
-0.257217
0.439018
1.146136
0.141207
-0.945986
-0.451004
-0.607595
0.639219
-0.570789
-0.048972
0.075983
-0.586379
-0.692119
1.138885
0.912776
0.152402
-0.118782
-0.249736
-0.414904
-0.104834
-0.440149
0.107081
-0.365841
0.867858
0.756430
-0.422426
-0.329173
0.255827
1.040907
-0.324434
-0.712404
-0.396016
0.769231
-0.875550
0.617198
0.855139
-0.317694
-0.850218
0.885518
0.567366
0.254648
-0.421620
0.412085
0.164411
-0.469594
0.125853
0.982197
0.010096
0.632029
-0.460926
-0.991794
-0.750957
0.641805
-0.252428
-0.640690
0.654922
0.481052
0.060082
-0.147020
0.344155
0.411175
-0.167748
0.803867
0.206711
-0.032755
0.603283
0.533921
1.151529
0.820478
-0.171468
-0.012457
-0.434827
0.079731
1.017117
0.229738
0.093541
-0.192177
0.107428
-0.811452
-0.422212
0.747514
-0.695023
-0.034008
0.500882
0.080027
0.287788
0.088601
-0.592354
-0.935325
0.651105
0.598585
0.487166
-0.506016
0.596653
0.175501
0.949593
0.170807
0.962756
0.239054
-0.614475
-0.629986
0.780963
-0.526789
0.031471
0.555608
0.647206
-0.717044
-0.368187
-0.016527
-0.380818
0.299414
-0.212985
-0.058038
-0.733014
-0.750997
0.879733
0.290038
0.061518
-0.863389
0.352969
-0.279114
0.898423
0.259697
0.641139
0.414642
0.646414
-0.337525
0.916707
0.191904
0.609019
-0.923479
0.405881
0.316202
-0.416894
-0.337396
0.223495
-0.452679
0.149438
0.989791
0.631933
0.832837
0.325323
-0.616194
-0.365320
0.345814
-0.604627
-0.603456
-0.361586
0.461890
-0.362719
1.284530
-0.504542
-0.557940
-0.175960
0.262296
0.290518
-0.709607
-1.025914
0.299516
0.527428
0.567102
0.397151
0.109578
0.203573
-0.684311
-0.951820
-0.348173
0.032535
0.292923
-0.338883
-0.399732
-0.011096
0.785774
-0.196693
0.535482
0.132081
0.200112
0.965369
0.923711
-0.166059
-0.460431
0.704339
-0.246459
-0.260166
-0.304288
-0.673676
-0.786828
-0.061099
-0.877486
0.363706
-0.531510
0.860028
0.030776
0.860211
0.301447
0.497548
0.963042
0.929041
-0.552537
0.142579
-0.543993
-0.065282
-0.928330
-0.766065
0.735709
0.583032
0.413879
0.028974
0.599021
0.158868
0.671054
-0.797369
0.168855
-0.328935
-0.104816
0.532345
-0.431805
-0.253309
-0.694969
-0.251685
-0.653929
0.073540
-0.142570
0.514549
-0.024744
-0.866113
-0.049987
-0.138192
0.987444
0.342213
0.977016
-0.562410
-0.727329
-0.999145
-0.335117
-0.927481
0.729899
-0.864726
0.125760
0.461840
0.449738
-0.241789
0.316650
-0.913218
-0.110730
0.792302
0.411814
0.483967
-0.232346
-0.983878
-0.531726
0.215545
0.088277
0.276795
-0.324837
-0.981043
0.378505
0.603021
-0.129309
0.359409
-0.060137
-0.224037
0.715820
0.198497
-0.085282
-0.470039
0.371035
-0.257318
-0.326560
-0.703481
0.791009
0.660480
-0.343222
-0.166051
0.626783
0.594132
-0.183932
0.279595
0.278651
0.676536
0.301814
0.719658
-0.121286
-0.593848
0.021788
0.569820
-0.572518
-0.608014
0.168007
0.214982
0.609556
-0.993910
-0.919670
0.531781
0.395633
0.147677
-0.897227
-0.375048
0.615784
-0.483919
-0.278704
0.281425
-0.872602
0.412678
-0.766789
0.917907
0.164224
0.144210
0.239182
-0.538670
-0.149093
-0.406757
-0.765443
0.768179
0.015761
0.255309
0.334814
0.370749
0.501407
-0.631082
-0.359241
0.352303
-0.349866
-0.055456
-0.016229
0.983351
0.940610
-0.035731
-0.483602
0.490888
0.440900
0.242451
-0.165260
0.672300
-0.233938
0.141113
0.627981
0.949428
-0.687991
-0.091662
-0.546646
0.197293
0.522405
-0.307631
-0.036468
-0.509491
0.844584
-0.798819
0.908130
0.569933
-0.155312
-0.235337
0.011387
0.444622
0.610476
0.935679
0.387949
0.518728
-0.122602
0.910178
0.053872
-0.609153
0.223417
0.929900
-0.920055
0.994987
0.080376
0.725348
0.963925
0.410271
-0.354174
-0.580363
-0.393099
-0.846887
0.078644
0.540571
-0.311379
0.063506
0.906468
-0.286429
-0.337136
-0.309450
0.410184
0.645421
-0.876741
0.013448
0.580614
0.522564
-0.439209
-0.503659
0.463620
0.626285
-0.112663
-0.317615
0.553294
-0.032849
-0.320165
-0.362427
-0.304988
-0.356380
-0.952222
0.340361
0.062334
-0.345811
0.508620
-0.823910
-0.768078
-0.782707
0.235509
-0.895032
-0.096713
0.889610
-0.205843
-0.686212
0.537774
-0.078007
0.335012
0.127296
-0.549750
0.895169
0.620982
0.910857
0.519298
-0.493603
-0.407198
0.073087
0.473800
0.272463
0.710655
-0.831188
0.916083
0.758463
0.509650
-0.020664
-0.586228
0.018723
0.154636
-0.357762
0.234186
-0.610453
-0.252938
-0.862542
-0.720849
0.541226
-0.548638
0.817077
-0.536777
0.786020
-0.055925
-0.086689
0.681115
-0.435101
-0.175868
0.200415
0.071291
0.416929
-0.726498
-0.454909
-0.310608
0.984158
-0.286080
-0.394508
0.742636
-0.776431
0.584826
-0.843567
0.242273
-0.260585
-0.201331
-0.523542
0.128962
0.545731
-0.386096
0.408120
0.086977
0.065274
0.225138
0.550180
-0.148704
-0.830735
-0.536510
-0.467588
-0.265836
0.287622
0.732827
0.805450
-0.295463
-0.993707
-0.649479
0.393912
0.990414
0.064454
0.999440
0.732970
0.287761
0.584100
0.889384
-0.469897
-0.676754
-0.313288
0.003745
0.448438
-0.769909
0.618706
-0.140005
0.320870
-0.313968
-0.914028
-0.128903
0.537222
-0.744824
0.334562
-0.930370
-0.010903
-0.378640
0.800669
-0.207444
0.325360
0.808446
0.144680
-0.280140
0.796746
-0.795364
-0.285414
0.526956
0.493568
-0.702499
0.404556
-1.004354
-0.417464
-0.938418
0.002467
-0.929448
-0.655475
-0.342296
-0.057993
0.665127
0.341372
0.027217
-0.463984
-0.121402
0.281739
0.867021
-0.058557
-0.736293
-0.515254
-0.256289
0.058695
0.808690
-0.456103
-0.808089
-0.479942
-0.658430
-0.593929
0.240047
0.858150
0.865486
0.492066
0.233073
0.885045
-0.832106
0.426160
-0.007753
-0.720544
0.768110
0.637811
0.214460
0.432154
-0.020906
-0.759526
0.961105
0.844997
0.507325
0.820134
-0.212658
0.770548
-0.708350
0.509687
-0.184644
-0.887824
-0.915021
0.048385
-0.332974
-0.552547
0.460817
0.909129
-0.687033
0.366967
0.503096
0.705253
0.395346
0.726747
0.105573
-0.654687
0.981765
-0.130627
0.982801
0.193980
-0.712872
-0.064020
0.407351
-0.755933
-0.209973
-0.094535
-0.974471
0.528190
-0.327948
-0.625188
0.136074
0.588943
-0.424856
0.296435
-0.292051
0.304768
0.788776
-0.794312
0.278697
-0.780391
0.679806
-0.212850
0.820500
-0.031839
-0.541764
-0.079785
0.313284
-0.563605
0.761950
0.244940
0.579178
-0.958172
-0.804388
-0.030454
-0.786154
-0.090398
-1.114682
-0.643661
-0.359197
-0.215610
-0.070845
0.928243
-0.512296
0.591657
0.269795
0.180342
-0.136199
0.059290
0.398317
-0.925448
0.096757
-0.096744
-0.234478
-0.086226
0.872181
0.219561
0.787866
0.093626
0.556882
0.525499
-0.623187
0.150768
0.515423
-0.493795
-0.859296
-1.114850
0.714228
-0.582155
-0.380529
-0.377392
0.332616
0.606294
-0.456190
0.708117
0.020069
0.663159
-0.168402
0.819715
-0.437358
-0.975099
0.752356
0.641599
-0.071192
-0.487565
-0.513371
-0.335889
0.595167
-0.718245
0.886999
0.267672
-1.180122
-0.784551
-0.559916
0.486028
0.063847
0.086787
0.911457
0.160832
0.652572
-0.471017
0.678758
-0.243927
0.829485
0.995063
-0.577306
-0.112430
0.589633
0.039801
-0.507528
-0.915379
0.062996
-0.768338
0.629724
0.820926
-0.376191
-0.762905
-0.210579
-0.557261
-0.482469
-0.438552
0.683803
-0.520772
0.109673
-0.382562
-0.474143
-0.396611
0.861124
-0.630223
0.551223
0.184246
-0.447633
0.055139
1.006180
-0.447164
0.067419
-0.806105
0.120429
-0.492478
0.227886
0.581774
-0.544772
-0.894514
0.763566
-0.624505
-0.629020
-0.407485
-0.545386
-0.101937
-0.014455
0.165405
0.772076
0.040875
1.065012
0.234713
0.775522
-0.556856
0.548789
0.317957
-0.408451
0.087718
-0.313041
0.368258
-0.835687
-0.588615
0.507957
0.012117
-0.404906
-0.430957
0.340628
0.638523
-0.793587
-0.782948
-0.801893
-0.954661
-0.727928
-0.729837
-0.306656
0.072771
0.500824
0.895868
-0.579021
0.432460
-0.056823
-0.728230
-0.579472
-0.440275
-0.300096
1.075184
1.045300
0.426021
0.109360
-0.595172
-0.653316
0.038610
-0.195547
0.760909
-1.166049
0.212756
-0.540529
0.651044
0.258633
-0.367823
0.514729
0.241615
-0.143571
-0.760638
0.853206
0.648081
0.266022
0.292755
0.415306
0.463453
-0.399253
-0.628853
0.827290
0.112510
-0.005001
-0.447764
0.051884
-0.329429
0.524520
0.930911
0.062602
0.754192
-0.269089
0.663997
0.679164
0.062409
0.267640
-0.877549
-0.532626
-0.555798
-0.024424
-0.617863
0.955234
0.875531
-0.475035
0.688089
0.355898
0.604305
-0.069392
-0.167828
0.125749
0.542539
0.180208
-0.096543
-0.566897
0.749988
-0.008549
0.258868
-0.592937
-0.603614
-0.057795
0.272269
-0.652018
-0.820604
0.328217
-0.949839
0.101141
-0.400322
-0.663907
0.800092
0.196278
0.376808
-0.782952
0.155730
0.150187
-0.432201
-0.247274
-0.516577
1.135413
0.618614
0.216891
0.113313
-0.145272
0.951476
0.596334
0.100987
0.688287
-0.539264
-0.869382
-1.059273
0.094281
0.555627
0.547786
0.434327
0.649198
-0.076207
0.587035
-0.141415
0.604345
1.053663
-0.130420
-0.062271
0.357332
-0.139989
0.899267
-0.630131
0.290950
-0.513822
-0.351110
0.193941
0.799689
0.501938
-0.988799
-0.468524
0.440907
0.455601
0.410894
0.044584
-0.750444
1.032066
0.242533
0.272229
0.512491
-0.185524
-0.265423
0.199886
0.849372
-0.418466
-0.619880
0.583172
-0.498270
-0.047431
-0.767150
0.603492
0.568152
0.873416
0.718687
-0.351288
-0.819742
-0.802739
0.714035
0.920347
0.689419
0.573213
-0.745188
0.101041
0.469427
-0.756738
-0.616420
0.566569
-0.918922
0.514062
-0.220341
0.624751
-0.507427
0.754562
0.015728
-0.679337
-0.849631
0.119348
0.612182
-0.647199
0.799985
0.606639
0.771155
0.250786
0.450604
0.523426
0.935446
0.642748
0.715729
0.525321
0.395771
0.407273
0.550451
-0.769058
-0.308794
-0.251323
-0.892222
-0.150878
-0.766743
-0.800995
-0.540649
0.103726
0.830569
-0.146587
-0.226667
-0.234531
0.049033
-0.257431
0.692319
-0.510473
-0.029884
0.424621
-0.872322
-0.148013
-0.214510
0.630158
-0.624605
-0.359833
0.143387
-0.896656
-0.475999
-0.012608
0.565246
0.737739
-0.130483
-0.881216
-0.524275
-0.044052
-0.047969
-0.286362
0.159412
0.399075
0.840952
0.037813
-0.748004
-0.484215
0.629231
0.106212
0.112071
0.240895
0.599163
-0.856949
-0.265216
0.764199
-0.004395
0.456991
0.260818
0.323571
-0.700674
-0.275593
0.478195
-0.388483
0.548495
0.047482
-0.617077
-0.643315
0.082565
-0.157059
0.362979
-0.903909
0.578897
-0.488116
0.439307
0.300719
0.380694
0.524908
0.701385
-0.059779
-0.402460
-0.199319
-0.811904
-0.787067
-0.055512
-0.107465
0.868613
0.840524
-0.594299
0.363747
0.315375
-0.295459
-0.909643
-0.168852
0.302696
0.532831
0.780927
0.666049
0.927656
-0.095877
-0.501077
0.238601
-0.073037
0.994134
0.665257
-0.702639
0.241767
-0.013561
0.755950
-0.112556
0.910975
-0.637528
0.689267
-0.905799
-0.490674
-0.458534
-0.050151
-0.491713
-0.448886
0.457702
0.927757
0.883820
-0.875700
0.936524
-0.327921
0.437774
0.499548
-0.522713
0.105431
0.420135
0.377225
0.596294
-0.359374
-0.725288
0.538163
-0.771495
-0.507640
-0.271946
0.208556
-0.743190
0.616222
0.119476
-0.420806
0.229537
0.133773
0.120530
0.878338
-0.801382
0.717127
-0.512613
0.678846
0.649489
-0.601853
0.845986
0.624427
0.094242
0.305553
0.158951
0.611546
-0.563699
-0.425782
-0.049450
0.965283
0.136216
0.165230
0.478984
0.370239
0.666471
-0.792541
-0.423371
0.898409
0.770655
0.626047
-0.531830
0.059610
-0.131499
0.710547
0.050460
0.147237
0.477907
0.580403
-0.134976
0.156523
0.993631
-0.274140
-0.194514
0.115273
-0.955735
0.948670
-0.317100
-0.581539
-0.534198
0.602644
-0.623291
0.608284
-0.226008
0.855945
-0.021939
-0.567648
-0.956245
0.526841
-0.674398
0.848570
0.230337
-0.105097
0.011137
-0.828678
-0.355867
-0.916998
0.332790
-0.870846
0.664618
-0.803712
0.287704
0.662831
-0.080811
-0.920655
-0.247219
-0.069327
-0.998390
0.424986
0.347954
-0.529878
0.029895
0.724728
-0.921620
0.803616
0.579888
0.055389
-0.758304
0.640775
-0.388006
-0.392611
0.530726
0.869924
0.514517
-0.454455
-0.957509
-0.841946
-0.373026
0.372567
-0.713909
-0.709138
0.565984
0.569933
0.947229
-0.522817
0.643268
-0.302337
0.407462
0.645299
-0.877037
-0.244588
-0.884579
0.152858
-0.519860
-0.806172
-0.043262
-0.939202
0.250739
0.201084
0.704909
0.865004
0.809189
0.235692
0.734895
0.323591
0.781193
0.777357
0.481550
-0.591838
0.149875
0.767539
-0.301258
-0.284427
0.337284
-0.354102
0.192731
-0.019463
0.343560
-0.399807
-0.374164
0.466523
0.355605
-0.258743
-0.380620
0.835744
-0.064916
0.576125
0.896570
-0.814158
-0.222779
0.601479
-0.949154
-0.413591
-0.162834
0.785318
0.909905
-0.381662
0.563096
0.391551
0.026521
-0.287033
0.159091
0.725263
0.428541
-0.503626
-0.628839
-0.378728
0.476911
0.714726
0.221446
-0.897304
0.181174
-0.423299
-0.156366
0.800051
-0.587886
0.778651
0.376550
-0.690709
0.964771
-0.846949
0.908925
-0.989157
-0.265278
-0.255862
0.799904
-0.350115
0.366273
0.364422
-0.958011
-0.607007
-0.922409
0.201027
-0.881816
0.506124
0.697401
-0.510552
-0.873068
0.172865
-0.798367
0.343556
0.269637
0.375876
0.916439
-0.886095
0.181315
-0.663433
0.898071
-0.443944
-0.368039
0.832953
-0.328151
-0.483686
0.856390
0.447116
0.302819
0.680731
-0.891555
-0.325543
0.047081
-0.850637
0.066352
0.124585
0.350423
0.183680
-0.373042
0.040414
0.664875
-0.256127
-0.797958
0.855067
-0.914037
0.483290
0.252033
-0.974371
0.615290
-0.561378
-0.653014
0.470033
-0.058996
-0.054665
0.329795
0.700558
0.567977
0.264310
0.187996
-0.112337
-0.051134
0.292996
0.559244
0.995647
0.441619
-0.377945
0.109945
-0.223728
0.792790
0.729409
0.813186
0.454273
-0.517188
-0.958825
0.345195
-0.395202
0.555954
-0.383541
-0.374366
0.134917
0.003376
-0.063643
-0.372870
-0.960329
-0.979738
-0.916632
0.817639
0.622221
0.354464
0.000366
-0.494896
-0.697065
-0.708413
-0.944326
-0.720981
0.709932
-0.333841
0.393674
-0.501001
-0.531181
0.144109
-0.652445
0.969357
0.672072
-0.567368
0.347641
-0.714301
0.962046
0.906916
-0.143992
0.089990
-0.013302
0.931529
0.863613
0.132288
-0.990548
0.966143
-0.053288
0.625142
0.320042
0.943455
-0.884970
0.596413
-0.789864
-0.829479
0.897233
0.947685
-0.139951
0.331143
-0.493359
0.398944
-0.472871
-0.108406
0.384399
-0.801136
0.291449
-0.339434
-0.598379
0.214358
-0.370646
0.397488
-0.545885
0.726267
0.400929
-0.647317
-0.136437
0.402099
-0.682041
0.804989
0.007135
0.607392
0.728206
0.138325
0.245830
0.985687
0.357088
0.215755
1.026798
-0.700888
-0.419021
-0.481844
0.642336
0.043955
0.335101
-0.064781
0.145311
-0.418212
0.663855
0.694995
0.942982
-0.615385
0.148215
-0.568942
-0.877681
-0.459784
-0.217258
-0.020364
0.918808
0.072168
-0.221374
-0.029137
-0.242845
-0.417279
-0.826442
-0.932704
-0.369415
0.563510
0.259379
-0.429435
0.720629
0.690274
-0.038657
0.270810
-0.331600
-0.698776
-0.684201
0.981326
0.014327
-0.977290
0.684011
-0.029891
-0.577746
-0.170825
0.400368
-0.462555
0.345704
-0.838146
0.529526
0.345442
0.340715
-0.622456
-0.682230
-0.953729
-0.097131
-0.549351
-0.918607
0.464571
0.874165
0.169547
0.903442
0.542165
-0.138756
-0.063244
-0.038448
0.698863
0.335081
0.263031
0.630758
-0.669964
0.298637
0.321812
0.299864
0.714527
-0.864114
-0.305631
-0.706807
0.582933
-0.049186
0.823336
-0.196642
-0.904846
-0.957706
0.079630
-0.780895
0.036330
0.521413
-0.802792
-0.590541
0.384708
0.412040
-0.593510
0.062947
-0.599088
0.390271
0.970434
-0.984787
-0.332006
0.219469
0.648190
-0.002044
-0.484223
-0.029917
-0.682579
-0.702499
0.201032
0.052363
-0.505241
-0.443348
0.748381
-0.831706
0.417313
-0.914468
-0.510149
-0.368949
-0.728404
0.444174
-0.882422
-0.523932
0.897598
0.582813
0.956505
-0.695526
-0.427555
-0.743329
0.602280
-0.517774
-0.749636
-0.730272
0.707683
0.919495
0.311867
-0.709086
-0.062480
0.591624
-0.583445
0.889372
-0.553872
-0.133312
-0.380803
-0.471201
0.376721
-0.805791
-0.437647
0.725373
-0.291123
-0.231878
0.163638
-0.126744
0.280130
0.028027
-0.639080
0.120104
0.222665
-0.153005
0.340106
-0.175441
0.347719
0.637906
0.161344
0.101641
0.538830
-0.628187
0.211329
-0.711783
0.861932
0.682425
-0.594377
-0.375201
-0.183469
0.081907
0.001924
0.965231
0.095563
0.468225
0.679689
0.845848
-0.753800
-0.231088
-0.411225
0.402863
0.707121
-0.109600
-0.501931
-0.069642
0.773640
0.923143
0.845649
0.136504
0.469097
-0.140388
-0.925623
-0.123835
0.179875
0.366171
0.368172
0.278080
0.192744
0.708684
0.673123
0.754381
-0.383283
-0.405959
0.708332
0.731045
-0.962678
0.287660
0.437625
-0.811827
-0.975015
-0.970381
0.591990
0.734069
-0.024854
-0.792771
-0.226643
-0.270674
0.971902
-0.563210
0.713816
0.328222
0.251040
0.858947
-0.623378
-0.393248
0.293120
0.632697
0.657344
-0.739910
0.189843
0.243364
0.973823
0.793299
0.798848
0.601083
0.422916
0.792174
-0.085193
-0.088212
-0.999573
-0.057351
0.005032
0.720779
-0.212959
0.926599
0.724175
0.358637
-0.485434
0.596782
0.769665
-0.681890
0.091428
0.148216
-0.818820
0.327922
0.537943
0.268597
-0.196311
0.084007
0.473257
0.986353
-0.682186
0.402370
0.711838
-0.902064
0.044795
0.192027
0.912263
0.962228
-0.841023
1.027126
0.007795
0.112582
0.555360
0.611171
-0.072198
0.217213
-0.022711
0.532600
-0.073279
-0.222349
0.770437
0.844951
0.720404
0.766418
0.028758
0.164080
0.004675
0.844379
-0.756538
-0.574722
0.756106
-0.469752
0.848916
0.500631
-0.362475
-0.104647
-0.273082
-0.366469
-0.053379
-0.118898
-0.454663
0.834120
0.911074
1.047153
0.436384
-0.133438
0.269762
-0.662849
-0.740898
1.020204
-0.058577
0.881880
0.754377
-0.407399
0.621986
-0.232257
0.703921
-0.462616
-0.475089
0.914960
-0.028922
-0.708756
-0.557349
-0.179422
0.806007
0.126495
0.788214
-0.418736
0.747522
-0.310329
0.389728
-0.800330
-0.560725
0.225466
-0.854980
0.723057
0.932336
0.265357
0.925478
-0.923555
0.195327
-0.200942
0.909029
-0.104118
0.313545
0.447825
0.609932
0.017692
-0.995852
-0.857418
-0.070739
-0.024594
-0.559102
0.398353
0.848571
-0.693535
-0.444912
0.606415
-0.213372
-0.848041
-0.846748
1.054527
-0.774387
-0.552350
0.155100
-0.734751
-0.932003
-0.010890
0.444762
0.926803
0.017223
-0.398965
-0.312581
-0.100056
0.500913
-0.966160
-0.620922
0.121699
0.051238
-0.616359
0.270821
1.000961
0.395612
0.747872
0.406289
0.186900
0.930869
0.809671
-0.317016
-0.342605
0.912993
-0.230073
-0.349879
-0.928902
0.130480
0.714278
-0.740921
0.154171
-0.306590
0.718259
0.101173
0.740845
-0.638634
0.835346
-0.328920
0.870032
0.868286
0.050477
-0.001306
-0.063273
0.458095
-0.717625
-0.083081
-0.219411
0.918836
-0.777524
0.937951
0.880396
-0.934237
-0.380227
-0.481113
0.939590
0.325506
0.098254
-1.044652
-0.560088
-0.160593
-0.729472
0.655567
0.593082
-0.953273
-0.197616
0.354897
-0.590973
-0.365560
-0.973848
-0.714710
-0.483372
0.092130
0.281251
0.417409
-0.522295
0.479619
-0.712848
0.288241
0.475430
-0.426269
0.247414
0.355360
-0.379438
0.831973
0.833092
-0.471984
0.156021
-0.027115
-0.444653
0.673661
0.882201
-0.118304
0.362740
0.485387
-0.074927
-0.838543
-0.159784
0.337158
-0.197117
-0.127122
0.612664
0.284711
0.907138
-0.160122
-0.309446
-0.559404
-0.594301
0.041694
0.752679
0.888738
0.610061
-0.014941
0.223742
-0.784173
-0.178662
0.096895
-0.189438
-0.951874
-0.871236
0.405543
0.740417
-0.985919
-0.716078
0.100825
0.499404
0.209769
0.264010
-0.660023
-0.460223
-0.951839
0.183930
-0.870896
0.338654
0.141427
0.036895
-0.923356
0.598186
0.449133
0.117328
0.346185
0.331412
-0.274699
-0.659760
-0.415000
-0.015872
0.204216
0.714186
0.812888
0.259876
0.843992
0.216948
-0.000490
0.858041
0.500881
-0.899680
0.357249
-0.290408
0.361457
0.694781
0.249664
0.418876
-0.097973
0.408555
-0.222625
-0.949772
-0.550964
-0.145090
0.649339
0.899646
0.975372
0.002530
0.242711
-0.285390
0.355516
0.836177
0.702893
-0.438444
0.550724
0.515627
0.821359
0.394716
-0.267425
-0.179131
0.252757
-0.766556
-0.078823
-0.389936
-0.056842
-0.716285
-0.692885
-0.803732
0.704614
0.209718
0.605482
-0.517791
0.260222
-0.945098
0.337476
-0.089579
0.955276
0.313560
0.913487
0.198300
-0.971691
0.269052
0.034488
0.731203
0.830609
-0.414788
0.246830
0.651967
0.979929
0.979407
-0.527161
0.232689
-0.787149
0.394043
0.842855
0.156157
0.677860
-0.850031
0.352425
0.382437
0.359543
-0.042241
0.864559
-0.380250
0.012635
0.201980
0.530284
-0.031909
-0.484281
0.443823
-0.833609
-0.455972
-0.287125
0.200879
-0.724771
-0.456541
0.786053
0.522025
-0.804682
0.765844
0.501301
-0.331824
-0.001593
0.713912
-0.937838
-0.158601
-0.129936
0.738966
-0.010854
-0.781316
0.117401
-0.653013
0.178505
-0.013424
-0.028888
-0.806174
-0.810351
-0.498522
0.161700
-0.294777
0.945284
0.328084
0.248692
-0.343596
-0.473989
0.520778
0.197325
-0.689348
0.042557
0.394605
-0.920685
-0.454473
-0.935896
0.080058
-0.738679
-0.878867
0.903932
0.097253
0.820479
-0.132184
0.330246
-0.015127
0.268170
-0.457626
0.980858
-0.764796
-0.269940
-0.832594
-0.263322
0.891755
-0.129521
-0.326222
0.205005
-0.896820
0.321862
0.731842
0.633469
-0.467458
-0.941721
-0.310065
0.939500
-0.844818
0.256672
-0.975157
0.241156
0.491923
-0.907200
0.094166
-0.393192
1.015206
-0.898264
1.032435
0.014024
0.327522
-0.471788
-0.031688
0.558318
0.258206
0.130642
-0.726379
0.112344
-1.031977
-0.056261
-0.653850
-0.888005
-0.701002
-0.892788
0.770984
-0.135744
-0.788749
-0.472036
-0.112654
-0.577491
0.778929
-0.176684
0.540778
0.211812
-0.017478
-0.204578
0.945945
-0.002048
-0.224861
0.841692
0.924165
-0.919263
-0.630766
-0.119254
0.592600
0.557841
-1.031908
0.900052
-0.233635
-0.975173
-0.107837
0.128419
-0.845856
0.230059
0.303764
1.027412
-0.783539
0.587828
-0.468004
-0.046545
0.793063
-0.874737
0.739343
0.450541
0.477279
-0.271459
-0.936221
0.187620
0.554259
-0.214225
0.027330
0.458892
-0.207007
0.301527
-0.688928
-0.501613
0.040483
-0.603380
-0.589417
0.759839
-0.602425
0.331384
-0.034996
-0.341148
-0.322306
-0.665721
-0.340747
-0.250296
0.704475
-0.023600
0.604969
0.566897
0.235031
0.358809
-0.187844
-0.580187
0.857404
-0.198654
0.604564
0.385812
0.493048
-0.474046
-0.151549
-0.521999
-0.936895
0.258336
-0.077836
0.000277
0.599080
0.332814
-0.188483
-0.912745
-0.229382
0.850805
-0.238596
0.411245
-0.884972
0.327022
1.091776
0.821142
-0.668470
0.634778
0.163863
0.285165
-0.218982
0.910293
0.702426
-0.389317
-0.387501
0.208134
-0.973968
-0.665823
0.967433
-0.064218
-0.265273
0.934975
-0.870772
0.599781
-0.089182
0.772870
0.042686
0.861408
1.006423
0.982226
0.850793
-0.177430
0.363271
0.874069
1.006756
0.244520
0.435484
-0.897719
-0.274047
-0.447623
0.385022
0.476615
-0.630113
-0.002861
-0.880777
0.206758
-0.561910
-0.781678
0.482727
-0.685448
0.055143
-0.912818
-0.844515
0.202567
0.839055
0.327533
0.300450
0.223290
0.409847
0.338249
0.108822
0.109202
0.950694
-0.819452
-0.320974
0.710771
0.277190
-0.944404
0.809584
-1.031238
-0.489821
0.097028
0.476214
0.120863
-0.632282
0.710876
-0.736481
-0.363107
0.741523
0.559569
-0.150635
-0.160117
0.847908
0.343244
-0.551870
1.049176
-0.177917
0.678040
0.129992
1.124543
-0.108190
0.966985
-0.137501
-0.511218
0.930717
0.449733
-0.805468
0.165693
0.391266
-1.103736
0.192271
-0.799175
0.303634
-0.234541
0.155138
0.392936
-0.747591
0.288086
-0.985413
-0.912410
0.058050
0.203926
0.324510
0.240240
-0.314286
0.727227
0.201328
0.467849
0.321213
1.053558
0.133393
0.737486
0.734349
0.888443
-0.779410
0.607701
0.205688
-0.687895
-0.113170
-0.055945
-0.497160
-0.917170
-0.120157
0.512329
-0.315392
-1.006978
-0.072456
0.000279
0.461743
0.297060
0.534711
-0.096809
-0.295360
-0.124035
1.066519
0.274006
-0.591098
-0.089233
-0.777408
0.221667
-0.323086
0.260068
-0.045947
-0.652476
0.019920
0.083608
-0.890466
-0.422962
0.639767
-0.075883
0.262449
-1.068116
-0.096850
-0.907344
0.401486
0.639643
-0.646788
-0.180693
0.180254
1.215761
-0.700699
-0.315452
-0.046946
-0.256320
0.218982
-0.414184
0.523043
0.215128
0.298854
0.690982
-0.566459
0.921521
-0.143120
0.340033
-0.551023
-0.799180
-0.379480
-0.531811
-0.452637
-0.916550
0.254657
0.688143
-1.040642
-0.692397
-0.820273
0.909564
-0.557865
-0.180065
-0.201077
0.501277
-0.178716
-0.197764
0.801259
0.320854
0.138944
-0.212736
0.863454
-0.332614
-0.998612
0.123871
-0.673313
-0.539035
0.261401
0.454514
0.920162
0.558251
0.373306
-0.681110
0.857704
0.819313
-0.592365
0.300320
0.875830
-0.229813
0.907032
-0.792213
-0.290985
-0.739938
-0.109212
0.291990
0.426720
0.298153
0.795685
0.169700
-0.282626
-0.010441
0.957358
-0.442093
0.675023
1.063298
0.942241
-0.787138
-0.485281
-0.091437
0.287022
-0.827366
-0.668431
-0.384689
-0.496805
-0.727692
-0.378407
0.114568
0.754287
-0.343730
1.016749
0.720205
-0.143029
-0.386803
0.721099
0.410729
0.717127
0.209887
-0.123192
0.585744
-0.618604
0.593652
-0.349920
-0.482515
-0.576048
-0.567220
-0.619443
0.907862
-0.792336
-0.339068
-0.266636
0.448779
-0.231938
0.015952
-0.866886
0.443129
0.529141
0.031980
-0.163057
0.485739
0.789505
-0.196056
-0.013032
-0.644866
0.286235
-0.186989
0.933176
0.069756
-0.975127
-0.172104
-0.230338
-0.392579
-0.375999
0.349503
-0.275172
-0.511589
0.371833
-0.036834
-0.627204
0.521315
0.521668
0.058197
0.101027
-0.393291
-0.507828
0.656068
-0.580693
-0.715857
-0.196769
0.155274
0.482173
-0.739750
0.808336
-0.461972
-0.269467
0.138625
0.352695
-0.309734
-0.665284
0.563813
0.629157
-0.118343
0.649828
0.679341
-1.088295
-0.640880
-0.748194
0.320184
0.345622
-0.252542
0.126732
0.297910
-0.689577
-0.294899
-0.722001
0.003226
-0.658805
-0.571913
-0.124693
-0.232023
0.406503
-0.644359
0.063130
0.223867
-0.106211
0.809794
-0.538298
-0.591690
-0.412771
-0.431550
0.475991
0.711614
0.226657
0.223312
0.630364
0.360503
0.802779
-0.836266
0.019544
0.517165
0.298853
-0.484294
0.085993
0.671272
0.038289
-0.011978
-0.741138
0.080791
0.275468
0.081295
0.810358
-0.336590
0.435714
-0.124252
0.930796
-0.584046
-0.262396
-0.760862
-0.520382
-0.008465
-0.283391
-0.859405
0.024179
-0.753312
0.624330
-0.107449
0.810921
0.583859
0.202305
-0.018994
0.201868
-0.545831
0.285317
0.988421
0.859322
-0.830417
-0.100476
-0.952749
0.180366
-0.850026
0.126842
-0.016892
-0.186607
-0.423886
0.863675
-0.341651
-0.176918
-0.521477
-0.036869
0.547160
0.771834
0.911483
0.818018
-0.157571
-0.874513
0.343896
0.618884
0.842876
-0.138467
-0.262504
-0.293864
0.936758
0.086835
0.933409
0.877175
-0.120440
-0.955737
-0.240773
-0.074501
0.209594
-0.120605
-0.982103
-0.842788
0.635929
-0.465471
-0.946941
-0.512532
0.655127
-0.200094
0.574186
0.169440
-0.581823
0.247701
-0.293527
-0.011865
0.161137
0.926798
-0.438184
-0.000086
-0.210611
0.281897
0.678822
-0.317109
-0.681921
0.576058
-0.448587
0.196876
0.606588
0.274865
-0.926751
-0.235689
-0.890382
-0.928818
0.011448
0.978242
-0.103781
0.270602
-0.503611
-0.579510
0.834671
0.788805
0.308590
-0.989766
-0.130204
0.941897
0.005820
-0.929176
0.898659
0.561588
0.043379
-0.347618
-0.189048
-0.296645
0.331385
0.128793
-0.725991
0.866643
-0.699158
0.857856
0.133874
-0.611766
-0.292705
0.412384
-0.348647
0.836596
0.386230
0.448706
-0.038852
0.728606
0.732909
-0.308515
0.455647
0.026024
-0.281344
-0.648183
-0.021340
0.712071
-0.598380
-0.142029
0.259393
0.437839
0.508859
-0.929660
-0.858983
-0.160364
0.198052
-0.581496
-0.280749
0.521351
-0.683240
0.915391
0.976284
0.065594
0.330333
-0.395688
-0.129795
-0.314626
-0.971988
0.814717
-0.593189
0.761467
-0.489263
0.867819
-0.212536
0.223887
-0.787569
0.761260
-0.067006
-0.387521
-0.381157
-0.807620
-0.949682
-0.872298
-0.737277
-0.808488
-0.032065
0.462012
-0.387889
0.690986
-0.012238
-0.067541
0.607469
-0.036374
0.997486
-0.062770
0.567534
-0.132498
0.622697
0.595722
-0.317622
-0.970456
0.357152
0.192911
0.897115
-0.855470
-0.583281
-0.890504
0.905784
0.349713
-0.278025
-0.475373
0.542094
-0.227706
-0.347671
0.804817
-0.036195
0.620275
0.266857
0.575924
0.311264
-0.745381
-0.491617
-0.081266
0.218247
-0.494128
0.855967
-0.214218
0.373373
0.478669
-0.618499
-0.944253
0.508204
0.738652
0.248658
0.405319
0.883182
0.665377
0.514814
0.788967
0.015087
-0.763220
-0.686413
-0.442805
0.009124
-0.034060
-0.637872
0.973104
-0.413701
0.628759
0.548658
0.897373
0.883828
-0.942407
-0.183340
0.102178
-0.436617
-0.327580
0.887765
0.936611
-0.849194
-0.731018
0.992181
0.659020
-0.992347
0.240839
0.064215
0.890601
-0.094085
-0.421175
0.679659
0.921360
-0.183423
0.994728
-0.519578
0.826252
-0.040889
-0.161666
0.794875
0.542963
-0.531744
0.348370
0.446781
-0.642439
0.408905
-0.735030
0.460831
0.970711
-0.068362
0.341585
0.903388
0.082139
0.611051
0.895598
-0.259195
0.617747
0.134953
0.803851
0.508223
-0.957741
-0.613956
0.192382
0.966484
0.200679
0.180588
-0.562349
0.018932
-0.864952
0.277544
-0.178322
0.690634
0.761367
-0.815787
0.147533
-0.879000
0.584872
0.392533
0.558366
0.541045
-0.678981
-0.098272
0.444588
0.402607
-0.488845
0.337082
-0.859561
-0.871686
-0.525183
0.950457
0.642924
-0.479531
-0.667028
-0.172760
-0.522403
0.527232
-0.995769
-0.081969
-0.444116
-0.843059
-0.778228
0.404921
0.863662
0.979679
0.569091
-0.020520
-0.934665
0.128594
-0.637078
0.625795
-0.330176
-0.317171
-0.476384
-0.892918
-0.922281
0.031182
0.446995
-0.773039
0.168681
0.927935
-0.822272
-0.191054
-0.556843
-0.495090
0.632682
-0.074512
-0.953834
0.661490
0.878726
-0.364906
0.828890
-0.918218
1.011592
0.667480
-0.967020
0.550242
-0.372683
-0.904576
-0.321266
-0.012101
0.712174
0.331909
0.653885
-0.771577
0.444763
0.747559
0.278662
-0.091737
0.986330
-0.544880
-0.159295
-0.836616
0.264940
0.295718
-0.307375
-0.070379
-0.742579
-0.240012
-0.421217
-0.904562
0.367355
-0.591147
-0.827068
0.347831
-0.961454
-0.809112
-0.102537
-0.338053
-0.727530
0.551189
0.625749
-1.021206
-0.098227
0.314255
-0.755304
-0.621402
0.085671
0.541897
0.300474
0.077191
-0.996731
-0.840776
0.270583
0.297668
0.471832
0.949741
-0.817599
0.677770
-0.297055
-0.198509
0.798219
-0.959406
0.154101
0.943388
0.387249
0.187413
-0.883111
-0.744804
0.822497
-0.610450
0.842945
0.504439
-0.579870
-0.220912
-0.157064
-0.311912
0.176898
0.936139
-0.766035
-0.506189
0.038208
-0.751638
-0.368633
-0.749649
0.476142
-0.931875
-0.760684
0.744668
0.796012
-0.084550
-0.518126
0.561315
-0.045435
0.629797
0.483861
-0.692547
-0.207431
0.616347
-0.376869
-0.310859
-0.942052
-0.510758
-0.791663
-0.504864
0.277928
0.047424
0.181523
-0.533204
-0.010025
0.386591
-0.112723
-1.059777
0.577021
0.533649
-0.712591
0.177220
0.670207
-0.490174
-0.134493
0.437489
0.424009
0.341382
-0.023578
-0.654977
-0.044502
-0.504170
-0.268528
0.824807
-0.847605
0.359162
-0.489975
-0.794482
0.828532
-0.308111
-0.311137
0.109569
0.718427
0.801365
0.478021
-0.359031
0.189749
-0.550481
-0.279804
-0.098116
-0.939103
0.017093
-0.945504
0.718306
0.526365
-0.085114
0.135457
-0.077822
-0.748417
-0.839026
0.349976
0.273303
-0.322648
-0.935873
0.068004
-0.210295
0.370582
0.528916
-0.030915
0.189661
-0.811672
0.595062
-0.758065
-1.088421
0.471505
0.848912
-0.304282
-0.216264
-0.610983
0.474472
0.718956
-0.535847
-0.507839
0.768456
-0.835699
-1.002511
-0.311167
0.351490
-0.009528
-0.022362
0.497444
-0.711619
-0.811475
-0.888238
-0.707966
0.204355
-0.129409
0.649601
-0.276706
0.842073
-0.120194
0.003532
0.563483
0.261154
0.044199
0.144572
0.216236
0.848371
-0.981564
0.646246
0.324751
0.731289
-0.911492
0.791979
0.499308
-0.709403
0.827951
-0.819503
0.589451
-0.251653
0.100511
0.046757
0.009209
0.268584
0.157099
0.329538
-0.459780
-0.866767
0.117546
0.413503
-0.883191
-0.874520
-0.469123
0.780847
0.494139
0.693788
0.027878
-0.242251
0.544328
0.034671
-0.632244
-0.173988
-0.252470
-0.524025
-0.366103
-0.775311
-0.275584
-0.567026
-0.592083
-0.658850
0.216826
0.543467
0.440808
-0.679023
-0.045428
-0.231120
0.826417
0.648426
0.026920
0.045850
0.147746
0.222944
0.256079
0.764297
0.071542
-0.220557
0.459097
-0.921726
0.476567
-0.068361
0.079602
0.871602
0.789959
0.840178
-0.635696
-0.535961
-0.873868
0.164028
-0.022996
-0.385177
0.606377
-0.661746
-0.662346
0.227640
-0.186461
0.413196
-0.909241
-0.290993
0.113298
0.164802
0.801432
-0.701760
-0.591153
0.063158
-0.938092
0.453151
0.774127
0.447712
0.517405
0.318795
-0.542230
-0.345471
0.240635
-0.690986
-0.434767
0.692257
-0.123312
-0.199581
-0.021685
-0.995188
0.578422
-0.274774
-0.557511
0.983719
-0.999295
0.286729
0.420697
-0.884659
-0.987167
-0.464334
0.269354
0.805688
-0.167370
0.656449
-0.179884
-0.144659
0.133170
-0.317841
-0.625443
-0.323040
-0.991673
-0.142641
0.388449
0.348206
0.289844
-0.927570
0.158402
-0.707238
-0.009736
-0.778673
-0.656859
-0.408668
-0.040482
-0.202678
-0.404813
-0.016330
-0.905910
-0.995352
0.077703
-0.904279
-0.460404
-0.661506
0.883533
0.368415
-0.976953
-0.254259
-0.786689
0.105572
0.397156
-0.382190
0.876204
0.541752
0.607462
0.365160
-0.026350
-0.023331
0.502477
-0.831312
0.278813
-0.509564
-0.610313
0.634033
0.109212
0.378147
-0.558862
0.691045
-0.656320
-0.472445
0.695397
0.419351
-0.378023
-0.764764
0.749664
-0.529564
0.531678
0.720897
0.242698
0.855922
-0.023296
-0.224641
-0.441428
-0.108476
-0.652451
-0.797024
-0.711630
0.336425
0.178039
0.782512
0.501754
-0.529727
-0.700358
0.913138
-0.893119
0.396732
0.281648
-0.454630
0.087634
0.621129
0.063630
-0.237283
0.002501
0.631096
-0.040300
-0.214912
-0.779482
-0.353751
-0.371821
0.520521
-0.499631
0.583475
-0.704250
0.077736
-0.506870
-0.351258
0.274332
-0.229689
0.976232
-0.542166
-0.433462
0.485211
-0.077975
-0.142740
0.396336
0.029906
-0.746383
-0.331109
0.554752
0.308291
-0.742237
-0.395325
-0.894332
0.359873
-0.630606
0.169937
-0.818842
-0.432938
0.766959
-0.225585
-0.912903
-0.716622
-0.632720
-0.621085
0.349546
-0.152777
0.017666
-0.376557
0.620451
-0.008736
0.072674
-0.818057
-0.521961
0.996589
0.038953
0.867022
0.010830
0.272669
-0.469977
-0.411552
-0.358838
-0.121928
0.272728
-0.223334
-0.788499
0.592219
0.900688
-0.628891
-0.836795
0.679603
0.148900
-0.756237
0.953287
0.507543
-0.382859
0.300228
-0.647580
0.629554
0.917684
0.970665
-0.377423
-0.008666
-0.847293
0.098989
-0.015276
0.188103
-0.026430
-0.981646
-0.499562
0.546559
-0.370397
0.126973
-0.618477
0.860969
0.876488
-0.413719
0.460802
0.788104
-0.037785
0.622681
0.463206
-0.893619
0.862222
0.411888
0.609648
-0.524740
-0.290607
0.961677
-0.894537
-0.372915
0.932446
-0.270839
0.621280
-0.910190
0.835683
-0.384429
0.290661
-0.183003
-0.372345
0.763680
-0.671886
0.232076
-0.120899
-0.289309
0.101430
-0.234236
0.304346
-0.434063
-0.446937
-0.737363
-0.816279
-0.987915
-0.633493
-0.955324
0.423498
0.976552
-0.479750
-0.867139
0.938272
-0.373468
-0.237813
0.873982
0.357890
-0.617495
0.962069
0.187485
-0.013603
0.232909
0.984787
0.603157
-0.006355
-0.684448
-0.158323
0.880133
0.031932
0.946600
-0.354267
-0.666226
-0.490905
0.196825
-0.403943
-0.307004
0.209009
-0.037103
-0.262098
-0.367446
-0.060536
0.258205
-0.234501
-0.122144
0.884065
0.525606
-0.250997
0.238031
0.903777
-0.295922
-0.580037
-0.111662
0.937006
-0.593976
-0.506102
-0.067010
-0.276844
0.336381
-0.187255
0.754189
0.281861
0.458114
-0.911989
0.791044
-0.345057
-0.315873
-0.515911
0.863965
0.647025
0.221991
-0.503481
-0.413516
-0.519857
0.261935
0.464197
-0.635991
-0.212704
-0.787449
0.601628
-0.308977
-0.083341
-0.978345
0.579459
-0.146246
-0.572261
-0.926636
0.786701
0.150877
0.409689
-0.400561
-0.094915
-0.308451
-0.942447
-0.006903
-0.517406
-0.287503
0.677225
-0.033317
-0.423538
0.324250
-0.811328
0.072979
0.910732
-0.331185
-0.665088
0.374928
0.032824
0.122212
0.587482
-0.365546
0.813234
-0.495861
-0.344007
0.392692
0.357895
0.083854
0.466097
0.144596
-0.765275
-0.124253
0.744035
0.139811
0.567296
0.801588
-0.867092
-0.950113
-0.485908
0.810177
0.016595
0.090529
0.134176
0.205046
-0.836786
0.044831
0.873752
-0.501477
-0.579883
-0.093198
0.620510
-0.992358
0.541400
0.434263
-0.486786
-0.800352
-0.172061
0.870200
0.281540
-0.707343
0.014140
0.516027
0.168391
-0.241805
-0.344168
-0.264477
-0.439870
-0.209778
-0.212928
0.074493
-0.401940
0.800358
-0.838020
0.731724
0.007527
-0.671195
-0.221633
-0.120398
-0.175897
0.199864
0.799922
-0.525581
0.251056
0.379639
0.919949
0.739729
0.536149
-0.290888
0.586743
-0.191562
0.000162
-0.398655
-0.675546
-0.831444
0.362618
-0.013114
-0.087260
0.927882
0.773670
0.692430
-0.002838
-0.625019
0.501120
0.164398
-0.899432
-0.508586
0.470530
-0.131003
0.400480
-0.616637
-0.796061
0.315896
-0.114594
0.361394
-0.464212
-0.347366
0.003361
-0.973993
0.347427
-0.411247
-0.165539
-0.651398
0.197577
0.173735
-0.463932
-0.426746
-0.836673
0.444855
-0.503440
0.940321
0.141671
0.481496
-0.723162
-0.415385
-0.414049
-0.655822
0.107196
-0.817443
0.411204
-0.320611
-0.396296
0.459792
0.713617
0.199874
-0.376852
-0.849526
0.816116
0.620539
-0.823554
0.166117
-0.775685
0.039360
0.548638
0.444790
-0.780750
-0.920399
1.005088
-0.631027
0.504763
-0.539846
-0.765691
-0.456543
0.839241
-0.552810
0.142066
-0.461540
-0.014282
-0.569602
-0.215819
-0.734892
-0.177751
0.052032
0.467421
-0.604603
-0.801361
-0.917853
-0.454150
-0.980850
0.729560
-0.231151
0.236024
0.977307
0.802529
-0.237363
0.386220
0.978308
-0.207080
0.328377
-0.742771
-0.830030
0.645241
-0.618862
-0.330157
0.517912
-0.067865
0.949507
-0.835647
0.890413
-0.789476
-0.307876
0.924671
-0.112395
0.686044
0.385598
0.283118
0.891331
0.507644
0.897945
0.988508
0.270876
-0.342936
0.181026
0.174789
-0.631789
0.855849
-0.510870
-0.733985
-0.484068
0.633790
-0.656309
-0.457120
0.189631
-0.295466
0.308056
-0.100963
0.798562
0.301939
-0.026333
0.545075
0.396221
0.613113
0.468708
-0.715741
0.308883
-0.093875
0.660928
0.312868
-0.536586
0.536074
0.199312
0.569672
1.002575
-0.769177
-0.329158
-0.681283
0.966250
-0.050127
-0.663173
-0.755980
-0.612187
-0.408770
-0.093372
0.892116
0.662656
-0.527028
-0.136269
0.391473
0.682795
0.795983
-0.054282
0.080033
0.420476
-0.527674
0.483833
-0.125110
0.438277
0.068283
0.964184
0.605070
-0.680850
-0.017489
0.125740
-0.672391
0.160984
0.631609
-0.594616
-0.132834
-0.634765
-0.311309
0.331478
0.201957
0.768303
-0.423576
0.210906
0.375174
-0.033379
-0.948440
-0.208692
-0.348755
0.860865
0.806527
0.879206
0.449727
-0.689003
0.175138
0.959662
0.359392
-1.049591
0.797079
-0.011147
-0.639749
-0.164252
-0.939367
-0.477790
0.771929
0.515646
-0.056146
-0.058014
-0.617241
-0.890370
-0.460935
0.615578
0.782801
0.045651
-0.166037
0.197573
-0.985272
-0.099866
1.078321
-0.158275
-0.075111
0.851108
-0.574963
0.938570
0.781755
0.379958
0.856711
0.240309
0.501813
0.807032
-0.734707
0.757183
-0.537241
-0.800731
-0.661707
-0.452220
-0.813964
0.690006
0.657406
-0.496953
0.667951
-0.845710
-0.836768
0.501334
0.203075
0.019574
-0.181713
0.411340
1.052751
-0.223545
0.886075
-0.438172
-0.687421
-0.850149
-0.495909
-0.741187
0.797477
-0.417205
0.546642
0.164734
-0.804300
0.709288
0.007586
-0.045705
-0.671156
0.699555
0.624567
-0.583619
0.260408
0.272682
-0.010679
-0.014091
0.430785
0.185153
-0.369069
-0.172580
-0.704411
0.256570
0.859455
-1.017768
0.760686
0.601211
-0.415102
-0.672886
-0.888629
0.320820
-0.447703
0.664172
0.652637
-0.997144
-0.065496
-0.872288
-0.923005
-0.759271
0.185837
-0.665503
0.853798
-0.172058
-0.180773
0.168328
-0.895657
0.843583
-0.706510
0.702306
0.081662
-0.288211
-0.804778
0.070327
0.728884
-1.064304
0.161231
0.822548
0.889703
0.870501
0.975399
0.675368
-0.073115
-0.558813
0.429937
-0.206520
-0.287193
-0.415689
0.020198
-0.215469
-0.185960
-0.754973
0.163838
-0.298111
0.075847
1.017259
0.978537
0.306552
0.893290
-0.892645
-0.235095
-0.257680
-0.385990
-0.145425
0.925217
-0.366812
0.029791
0.089347
-0.778723
-0.377264
-0.268270
-0.913042
-0.703965
0.759382
-0.307736
0.886592
-0.317876
0.495071
-0.460595
0.747732
-0.712990
0.358925
0.994305
0.485762
-0.854601
0.163604
0.517505
1.012680
-0.683506
0.239852
0.930887
-0.041435
1.049276
-0.249422
0.967228
0.953557
0.193645
-0.245613
-0.200002
0.208401
0.253155
0.546808
0.420111
0.727251
0.500843
-0.715396
0.714140
-0.805763
0.734109
-0.764961
0.942104
-0.955351
0.641899
1.001537
0.547632
0.740011
0.093502
-0.044334
0.602795
0.296486
-0.761346
0.678700
-0.649873
-0.756247
-0.738186
-0.931615
0.887366
0.162924
-0.342110
-0.287953
-0.471889
-0.866681
-0.506149
-0.861341
0.924396
0.938564
-0.671051
0.607458
-0.867522
-0.932449
0.856114
-0.881612
-0.831919
0.564839
-0.829480
0.698516
0.217543
0.159731
-0.367112
-0.159592
-0.586851
-0.281455
-0.713581
-0.545770
-0.381555
-0.738080
-0.605704
-0.434823
0.605790
0.286274
0.502556
-0.713709
0.427777
0.902061
-0.671186
0.327887
0.840137
-0.348953
-0.073124
1.001354
-0.176199
-0.035303
-0.700870
0.068939
-0.533920
-0.701078
-0.420951
0.475049
0.191703
-0.094920
1.008237
0.287051
0.332408
-0.905203
0.681706
-0.960203
-0.450974
-0.688562
-0.196665
-0.755723
0.564858
-0.771347
-0.512726
-0.007798
-0.869256
-0.192854
-0.690320
0.993468
0.573268
0.454814
1.225927
-0.495980
-0.683314
1.230746
0.181682
-0.637086
-0.890693
0.392790
0.554749
0.073435
-0.872248
0.464463
-0.642867
0.558740
0.738878
-0.771265
0.720895
-0.705762
-0.514759
-0.505907
-0.440669
-0.928871
-0.276594
0.041574
0.067654
-0.105283
0.976740
0.584854
0.090964
0.598091
-0.146735
-0.070857
0.631325
-0.286964
-0.237642
-0.475988
-0.088457
-0.212813
0.876227
-0.544698
0.891837
-0.916763
-0.969128
-0.665516
0.661124
0.717915
-0.483919
0.396197
-0.936224
0.026673
0.891257
-0.373784
0.123963
-0.311842
0.819860
-0.620697
0.710334
0.738428
0.687194
-0.620161
-0.099560
-0.829800
0.028972
-0.627098
-0.152489
0.829980
-0.041902
0.810101
-0.343499
-0.141500
-0.730584
-0.486276
-0.118652
-0.760731
-0.170774
-0.425366
-0.998216
0.361734
0.971512
-0.927231
-0.572129
0.954769
-0.147899
0.697684
-0.313625
-0.489681
0.727265
0.971329
0.870483
0.145220
-0.810591
-0.274947
0.366570
0.320090
0.197763
-0.724959
0.160695
-0.887142
-0.993334
0.723848
-0.103074
-0.757189
-0.752579
0.812128
-0.489196
0.084730
-0.613133
-0.482265
-0.524452
-0.567544
-0.292043
-0.003281
-0.632804
0.356568
-0.644492
-0.305378
0.597667
0.932367
-0.387847
0.494157
0.153280
-0.108668
-0.706157
-0.446130
-0.805828
0.432735
-0.242314
0.296041
0.516463
-0.233392
0.041802
-0.559815
0.026774
0.294043
-0.747737
0.538095
-0.613533
-0.335523
-0.900979
-0.113612
0.049169
-0.345646
0.665009
0.213117
0.886290
0.972078
0.908018
0.514599
0.945905
-0.442473
0.036091
0.109134
0.438549
0.307893
0.642047
0.625302
-0.254501
-0.589398
-0.065053
-0.725851
0.184631
0.979067
-0.285606
-0.788688
0.273152
-0.032483
0.750803
0.654479
0.608138
0.799771
-0.523218
-0.396846
-0.573007
-0.863070
0.821436
-0.677575
-0.881852
0.737004
0.842621
-0.932266
-0.704049
-0.120914
0.177872
0.738648
-0.808809
-0.176511
0.366944
-0.061168
0.235563
-0.697660
0.212989
-0.579806
-0.718594
0.927395
-0.368401
0.554487
-0.105925
-0.619487
0.206364
-0.499702
-0.820271
0.683518
0.103884
-0.392809
0.820746
-0.074436
-0.070218
0.939161
-0.337115
-0.227305
-0.992813
-0.040791
0.651910
0.185145
-0.302092
0.843132
-0.991336
-0.935142
-0.218036
0.244227
-0.632803
0.994953
0.664421
-0.351396
0.922348
-0.703980
-0.796881
-0.183451
-0.323400
0.409518
0.316849
-0.143670
0.093037
-0.579267
0.463602
-0.086122
0.346326
-0.606701
-0.147102
-0.990818
0.165998
-0.139869
-0.031609
-0.182092
-0.954725
0.666300
-0.338961
-0.946062
0.731137
0.442965
0.298128
-0.901700
0.437926
-0.037359
-0.253036
0.360186
0.258521
-0.050114
-0.823525
0.934675
-0.641056
0.492991
-0.209168
0.451993
0.913693
-0.745783
-0.634399
0.260344
-0.351868
0.219332
0.269904
0.814359
-0.920509
-0.761693
-0.367737
-0.875469
0.903490
0.291236
-0.823852
0.632602
-0.266606
0.474598
0.732352
-0.828623
-0.566033
-0.527615
0.522968
0.685056
0.418538
0.700140
0.622896
0.780225
0.193175
-0.589294
0.229472
0.109167
-0.325876
0.607960
-0.620331
0.328196
-0.170838
0.650216
0.142575
-0.092360
0.884116
0.766957
0.022176
0.779250
0.054014
0.198473
0.414784
0.785094
-0.338053
0.127209
0.937728
0.086591
0.606502
0.483556
-0.196620
0.054352
0.200468
-0.570265
-0.167313
-0.598610
-0.133009
-0.898209
0.547312
0.564369
0.719182
0.929726
-0.107328
-0.453376
0.572612
-0.978229
0.436991
0.444035
0.784800
-0.536664
0.226031
-0.171435
0.638494
-0.382229
-0.390834
-0.675665
0.798040
-0.380163
0.491459
0.475846
-0.850404
-0.689439
-0.471364
0.358335
-0.222568
0.424785
0.825430
0.690765
0.548200
0.378818
0.255311
0.264926
0.298460
-0.870830
0.788250
-0.144924
-0.854178
0.225615
-0.710525
0.900554
0.650888
0.502003
-0.236447
0.375106
-0.759658
0.506390
0.826539
-0.856825
-0.805428
0.340170
0.608668
-0.660696
0.683051
-0.788979
0.783840
-0.470234
0.671745
0.619780
-0.779165
0.217147
-0.014294
0.451309
-0.547566
-0.737035
0.568787
-0.771590
0.092781
0.678520
0.433748
0.412945
0.675707
0.236960
0.096233
-0.377211
-0.223090
0.467131
-0.788194
-0.375945
0.583532
-0.620032
-1.015223
0.270007
-0.175564
0.762318
0.535682
-0.375234
-0.707388
0.204064
-0.771622
-0.517923
-0.616723
0.183572
0.911942
-0.184127
0.430268
0.484142
0.089196
-0.375648
0.308056
-0.304589
-0.778583
0.172337
-0.890644
0.461759
0.878488
-0.109389
-0.123192
-0.957551
0.527937
-0.452031
-0.446185
0.637416
0.895159
0.401230
0.400450
0.426395
-0.995321
0.650605
-0.421439
-0.808652
-0.891624
-0.046174
0.400922
-0.904114
0.894322
-0.017285
0.724751
0.114372
0.735734
0.178905
0.962180
-0.910557
-0.578411
-0.940382
0.489515
-0.744304
-0.021805
-0.523951
-0.540869
-0.340547
0.120128
0.041429
-0.702359
0.009137
-0.586575
0.640113
-0.633799
-0.629290
0.283304
-0.021823
-0.347941
0.534544
-0.897134
-0.793253
0.737398
-0.935481
0.246659
0.541391
0.277147
0.078496
-0.223960
0.237622
0.135773
0.189626
0.355149
-0.241464
0.628989
-0.495257
0.340833
-0.880759
0.165038
-0.547047
0.122996
0.391240
0.381202
0.499949
0.061562
0.836633
-0.986091
-0.484659
-0.021844
-0.218195
-0.890224
0.099211
-0.010596
0.862796
0.208857
-0.695089
0.468813
-0.474845
0.409346
-0.707799
0.856598
-0.302254
0.670990
0.379517
0.555905
0.327490
0.884920
-0.113337
0.402023
-0.029297
0.261200
-0.487765
-0.572536
-0.232241
-0.830011
0.649746
-0.263000
-0.738723
-0.807872
0.704854
0.010548
-0.717907
-0.173165
-0.926145
-0.756615
-0.874261
-0.543891
0.797960
-0.236147
-0.984295
-0.741530
-0.241766
-0.210635
0.948095
-0.862037
-0.667373
0.226212
-1.056899
0.151498
-0.366439
-0.006237
-0.459782
0.295127
0.567529
0.415548
0.514434
0.222499
-0.869271
0.740687
0.395982
0.867306
-0.155765
0.803090
-0.188583
0.014359
-0.862245
0.038382
0.591552
-0.936301
0.902587
0.660483
-0.666457
-0.339300
-0.565408
-0.771614
-0.279411
-0.291681
0.468579
-0.258907
-1.023044
-0.755295
0.872103
-0.390028
0.573373
0.438652
-0.983582
0.082692
-0.327263
-0.805579
-0.081349
-0.809872
-0.828525
0.847980
-0.936124
0.053884
-0.053642
-0.708519
-0.833662
-0.421135
-0.635883
-0.931454
-0.778977
-0.359255
-0.348670
-0.397984
-0.113776
0.443082
0.420828
-0.505822
-0.681914
0.485406
-0.224067
-0.792656
-0.885483
-0.623846
0.681421
-0.815645
0.539734
-0.549489
-0.538650
-0.483028
-0.318038
-0.326953
-0.581118
-0.187245
0.788953
0.402764
0.114066
0.954690
0.959462
0.416947
-1.057272
-0.871421
-0.926856
-0.340463
-0.161648
0.103650
-0.754935
-0.641124
0.655540
-0.400288
0.877147
-0.532314
-0.150455
-0.954462
-0.088877
-0.400305
-0.721207
-0.523413
0.063776
-0.241526
0.032972
0.806095
0.494493
0.493774
-0.367466
0.282880
-0.128090
0.679277
0.150465
-0.223759
0.112739
0.162355
0.023051
0.348578
-1.017351
-1.022585
-0.479054
-0.734382
-0.634630
-0.789502
-0.091150
-0.705917
-0.267010
0.803584
-0.637091
0.648834
-0.595061
-0.342383
-0.830451
0.537245
0.488610
0.252231
0.361818
-0.017275
-0.281262
0.921172
-0.829278
0.532340
0.626376
0.408389
-0.550674
-0.081521
-0.264495
0.583127
-0.676077
-0.253496
0.586631
-0.117690
0.060362
-0.995996
0.142980
-0.992702
-0.683045
0.882421
0.819885
-0.292069
0.587378
-0.696985
0.443196
0.809192
0.859521
-0.068572
0.033235
0.145206
0.813464
0.692020
0.101313
-0.910705
0.380467
-0.093197
0.649521
0.926755
0.874027
-0.583641
0.547663
-0.750100
0.222076
0.194624
0.189784
-0.673875
0.223416
-0.654531
-0.650403
0.575599
-0.712516
-0.755528
-0.648015
0.918070
-0.438716
0.794685
0.700354
-0.653223
-0.375251
-0.327331
0.529767
-0.447178
-0.473788
-0.196024
-0.215252
-0.995289
0.770939
-0.520805
-1.021311
0.702642
-0.043211
0.588211
-0.989950
-0.780920
-0.199084
0.206048
-0.442127
-0.943124
0.605135
-0.029660
0.685112
0.922043
0.222279
-0.963544
0.816080
0.713046
0.732957
0.456514
-0.899306
-0.522318
-0.708036
0.797766
0.167053
-0.082836
-0.332844
-1.004965
-0.042005
-0.520214
-0.478003
-0.011785
-0.769434
0.509749
-0.412145
-0.753982
0.747892
0.428194
0.506776
-0.636616
0.529003
0.134623
0.339179
0.213525
0.037273
-0.498810
0.161047
-0.206454
-0.751049
0.008831
-0.590802
-0.490714
0.610526
-0.215062
-0.643860
-0.193133
0.725118
0.051776
-0.159730
-0.270398
0.580102
0.400960
0.744636
0.837077
-0.048374
-0.613395
-0.857117
-0.243946
0.857255
0.673734
0.126454
0.385970
-0.206089
-0.581680
-0.475844
0.773301
-0.057612
0.787911
-0.283262
0.337654
-0.096766
0.189400
0.880415
-0.462688
-1.000504
-0.731783
0.384872
0.774081
0.376830
-0.718793
-0.445255
0.007883
0.738183
-0.643947
-0.101450
-0.261150
-0.217264
0.067441
0.503526
-0.360122
-0.269641
-0.407391
-1.035242
0.474838
0.030329
-0.419978
0.381824
-0.902646
-0.545420
-0.850906
0.464517
0.383577
0.368759
0.381394
0.964181
0.418857
0.708743
0.409545
0.248775
0.135890
0.736833
0.844296
-0.820309
0.508817
-0.769007
0.099480
-0.745008
0.013680
-0.840562
0.732533
0.610274
-0.143677
-0.654246
0.650707
-0.562234
0.470885
-0.703160
0.860169
0.593437
-0.226743
-0.965434
0.087389
-0.809451
0.441630
-0.489322
-0.805051
-0.105826
-0.753564
0.626397
-0.838844
0.399167
0.380694
-0.977457
0.591023
-0.106294
-0.746454
-0.312297
0.139029
0.249867
-0.162916
-0.110337
-0.090871
0.757829
0.292282
-0.399203
-0.778362
-0.222027
-0.091406
-0.906607
-0.615189
0.697195
-0.855716
0.488571
0.900854
0.594339
-0.994172
-0.898745
-0.506920
-0.742970
0.732979
-0.339595
0.660807
0.115175
-0.317026
0.251756
-0.991397
-0.064201
0.941254
0.156241
-0.796983
-0.200859
-0.935278
0.125911
-0.434699
0.360583
0.728390
-0.211606
-0.859619
-0.360935
-0.115987
-0.472723
-0.663209
0.027727
-0.984717
-0.762509
-0.377655
-0.978606
-0.660956
0.116416
-0.720768
-0.927738
0.776824
0.940038
0.187437
-0.540198
0.191868
0.196311
0.396399
0.134208
-0.646105
0.600624
0.933956
-0.581311
-0.273475
-0.500767
0.779195
-0.545121
0.287659
0.919523
0.093689
-0.828573
-0.553517
0.430262
0.199054
-0.538300
0.667706
0.821416
-0.516895
-0.993248
-0.062167
-0.237663
-0.920987
-0.285340
-0.297606
0.266469
0.174478
0.894261
-0.537220
-0.429113
0.028442
-0.183337
-0.828491
-0.037602
0.235330
-0.102052
0.461483
0.014468
0.352817
-0.250820
-0.066071
-0.553438
-0.079291
0.380554
0.876855
-0.880237
0.842253
0.544561
0.941179
-0.674641
0.551325
-0.120924
0.087999
0.630684
0.594152
0.790532
-0.102803
-0.232019
0.683782
0.358866
0.338326
-0.288134
-0.825151
0.508381
0.671172
0.406862
-0.596092
0.133380
-0.575824
0.760575
0.885603
0.360109
-0.791950
-0.193218
-0.259270
-0.915084
-0.073453
-0.416873
0.630500
-0.129023
-0.082766
0.195539
0.763935
1.007279
-0.185996
0.333026
0.768756
0.684400
-0.916492
0.444741
0.040213
0.414753
-0.858345
0.194309
-0.094036
0.821355
-0.362915
0.357472
-0.010111
0.079491
0.127194
-0.118816
-0.558516
0.336151
0.687981
0.183163
0.427064
-0.367744
0.804850
0.109289
0.541578
-0.290666
-0.770293
0.187488
-0.401978
-0.047908
-0.527663
-0.637990
-0.338640
-0.406154
0.845019
0.742899
-0.942343
-0.938472
0.037663
0.071604
0.958000
0.711068
-0.551931
-0.037407
-0.202075
0.578240
0.843933
0.242171
-0.070872
0.572344
-0.500023
-0.562513
-0.758306
-0.762333
0.364648
0.540151
-0.277867
0.449180
-0.321593
0.364175
-0.477539
0.327594
0.929627
0.393222
-0.903351
0.898857
0.218335
-0.772113
-0.982986
-0.713371
0.313273
0.988621
-0.994064
0.764040
-0.048580
-0.190671
0.369265
-0.136411
-0.839154
-0.609049
-0.560882
-0.492371
-0.457146
-0.657357
-0.539396
0.736257
-1.161506
0.267468
0.417308
-0.119638
0.070702
-0.647646
-0.525014
0.066124
0.676618
-0.507345
-0.066232
-0.113985
-0.280087
-0.039677
0.182591
-0.964114
-0.050873
0.196698
0.842604
0.997720
1.135002
0.281216
-0.204981
-0.942848
0.328609
-0.125376
-0.716414
0.695497
0.153168
-0.159311
0.780410
0.577883
-0.197854
0.770583
-0.274668
0.778551
0.834102
-0.066758
-0.290083
0.460131
0.427841
0.673130
-0.621508
-0.841640
-0.365988
0.575124
-0.741656
0.705414
-0.097663
1.110678
0.551662
-0.251402
0.061786
-0.967725
-0.439497
-0.772327
-0.168304
-0.042170
-0.624938
-0.239370
-0.350757
-0.251218
-0.542271
0.128836
-0.964662
-0.186792
-0.234433
0.848705
0.783480
0.534567
0.365055
0.234611
0.208915
0.763891
0.472141
0.967702
0.438651
0.680664
0.484628
-0.940542
0.500968
-0.258987
-0.433598
-0.580901
-0.249625
0.308561
0.162330
-0.618392
0.042531
0.943859
0.015947
0.170918
-0.883583
0.152175
-0.696054
-0.701300
-0.883527
0.177821
-0.785501
0.931823
-0.285665
0.605134
0.249583
1.037437
0.443412
-0.334246
0.844890
-0.362255
-0.963419
-0.031685
-0.588772
0.453412
-1.148004
0.320165
-0.567842
0.284183
0.176339
0.757835
0.395321
0.700345
0.218870
-0.757550
0.061811
0.698535
0.716178
0.563369
-0.912580
0.868440
-0.256602
-0.667568
0.883967
0.576400
1.020377
0.096183
0.449306
0.159116
0.322825
-0.159396
0.539403
0.464886
-0.787889
-0.517032
0.470107
-0.459405
1.090332
0.881308
0.539989
-0.134930
0.291220
-0.147835
-0.200033
-0.048080
0.513012
-0.865810
-0.223836
0.270973
0.700091
-0.105702
0.242779
-0.389386
0.353588
0.083776
0.929565
-0.068102
0.648667
-0.029387
-0.985544
0.337312
-0.555581
-0.816983
0.252173
-0.110241
-0.283137
-0.420741
0.166197
-0.523634
-0.836695
-0.396536
0.507742
0.830930
0.844555
-0.417772
-0.078806
0.407081
-0.280607
0.722370
-0.195906
-0.363032
-0.211222
0.961618
-0.129357
0.608020
-0.450234
-0.447787
-0.334495
-0.281250
-0.790166
0.238552
-0.685516
-0.360976
0.270850
0.316794
0.248000
0.658231
0.590363
-0.732461
-0.766229
-0.963568
0.163651
0.931473
0.957398
0.044797
-0.484126
-0.105367
-0.423162
0.466285
-0.175379
0.295753
0.693066
0.069660
-0.169145
-0.581855
-0.140430
0.845911
0.507429
0.890493
-0.388444
0.522026
-0.137744
-0.371912
0.867786
0.792502
0.626336
-0.069779
0.480243
0.396246
0.369836
0.774903
0.432016
-0.469323
0.706411
0.391146
0.664393
-0.569445
-0.486716
-0.794746
0.519943
-0.193329
0.081150
0.060041
1.000215
-0.762880
0.823958
0.050150
1.016026
0.114020
-0.309756
-0.632016
-0.627955
0.234753
-0.332682
0.992606
-0.043956
-0.637210
-0.004844
-0.607958
0.679018
-0.683289
-0.835419
0.106607
-0.105898
1.017098
-0.304612
-0.445068
-0.870679
-0.289146
-0.636648
0.512931
0.636139
0.699254
-0.203979
0.734444
0.865636
-0.541724
-0.426883
0.647726
0.335093
-0.000274
0.713051
0.427564
-0.914594
-0.618569
0.455267
-0.024145
-0.353326
-0.617467
0.363728
-0.686163
-0.293970
0.604912
0.553822
0.605756
0.379781
0.852229
0.906781
0.527431
-0.211104
-0.497970
0.132722
-0.588989
-0.877399
0.781446
0.918820
0.761885
-0.903677
-0.619167
0.235687
0.199011
0.222161
-0.055652
-0.296732
0.328662
0.299580
-0.881482
-0.699078
0.926689
-0.520389
0.696191
-0.658245
0.232918
0.190405
0.703679
-0.165183
-0.213043
0.825715
-0.191878
-0.856902
-0.618961
0.137020
0.116998
-0.404053
0.116469
-0.094439
-0.421034
-0.151325
-0.145856
-0.161971
-0.894563
-0.803074
-0.803853
0.123048
-0.091261
0.523251
-0.598189
-0.000687
0.848250
-0.560500
0.607191
0.597026
-0.191193
-0.000121
0.017284
-0.407145
0.573776
0.311047
0.979522
-0.852029
0.324157
-0.736774
0.271518
-0.444254
0.001484
-0.564272
0.394823
0.512234
0.337842
-0.582763
-0.474197
0.557652
-0.351080
-0.277268
-0.329249
0.541884
-0.709367
0.209751
-0.259858
-0.699486
0.776928
-0.499973
0.957620
-0.617011
-0.031426
-0.687285
-0.530717
-0.716781
0.486803
-0.635253
-0.567588
-0.078484
-0.226688
0.797479
0.501081
0.780244
-0.696742
0.020665
0.417690
0.722892
0.465614
0.944518
0.276501
-0.888657
-0.282053
1.082184
0.866811
0.200030
0.427601
-0.322956
0.378922
-0.185059
-0.470698
-0.358332
-0.333327
0.161036
-0.268846
-0.008223
0.415743
-0.682494
0.538795
-0.966516
0.362625
-0.627553
0.870550
-0.094459
-0.804339
-0.795038
0.939572
0.613880
0.923716
0.395098
0.588801
0.301287
0.683484
-0.519396
0.495035
0.551298
0.458161
-0.546548
0.562664
-0.840058
-0.280189
0.696559
-0.464520
0.253959
-0.102445
0.457087
-0.470855
-0.410455
0.947534
-0.882251
-0.398135
0.284223
-0.521681
-0.523945
-0.804281
-0.325602
-0.324941
-0.886309
-0.710210
-0.353910
0.631645
1.013980
1.045276
0.307601
-0.722766
0.112287
-0.708838
0.175821
0.118858
0.549284
0.182229
0.842329
0.426508
-0.973581
0.444533
-0.398346
0.616149
0.966383
0.120859
0.502760
-0.950359
0.712924
-0.213017
-0.472593
-0.824492
-0.063333
0.153055
-0.164923
0.120756
0.549597
0.584355
-0.223078
0.423619
0.330021
0.699259
0.348177
-0.809438
0.863826
-0.471162
0.436896
0.655704
1.011416
0.556644
0.252354
-0.928388
-0.068274
0.756037
0.614118
-0.144550
-0.142520
0.112748
-0.095582
-0.445098
0.847613
0.360173
-0.320308
-0.180447
-0.390100
0.640940
-0.971402
-0.856477
0.104998
-0.363516
0.426670
-0.639737
-0.667761
-0.156776
-0.318501
-0.627203
0.547930
-0.755101
-0.934459
0.511753
0.703789
0.220641
0.517964
-0.402834
-0.042938
0.127806
0.452304
0.808105
-0.781122
-0.678584
-0.664632
-0.911695
0.751638
0.126084
0.018494
-0.574478
-0.228744
0.017889
-0.455415
0.874725
0.675654
-0.986461
-0.706660
-0.926686
-0.093381
-0.008160
-0.578660
-0.599984
0.169600
-0.569787
0.876962
-0.146749
0.640814
0.392735
0.450350
-0.402376
-0.480345
-0.099149
-0.590665
-0.243204
0.255609
-0.205673
-0.099531
0.050432
0.941579
0.923950
0.475857
-0.284713
-0.052771
-0.972848
-0.402238
-0.369958
-0.958291
-0.115770
-0.310752
-0.069778
0.857561
0.096873
0.322270
0.022800
0.524979
0.198671
0.876033
0.165793
-0.408594
0.326391
0.763669
0.111943
-0.770788
-0.823979
0.872984
0.489525
-0.026547
-0.225577
-0.459910
-0.084851
-0.301478
-0.983990
0.630554
0.645765
-0.957107
-0.772086
-0.724953
-0.916034
0.111607
-0.036075
0.013975
-0.030943
-0.939267
-0.663784
0.991857
0.585712
0.534887
0.867888
-0.248506
-0.873718
0.194270
-0.484837
0.238232
0.423524
-0.308739
0.111282
-0.086950
0.664714
0.885654
0.452945
-0.420307
-0.415975
0.468923
-0.789831
-0.770252
0.511968
-0.561670
-0.494961
0.596008
0.549937
0.468964
-0.390017
-0.481005
0.529692
-0.053806
-0.489145
0.115331
-0.519113
-0.621528
0.866684
-0.392971
0.572813
-0.618179
0.845483
-0.003573
0.073109
-0.043690
0.908603
-0.263579
-0.159689
0.361263
0.317394
0.426319
-0.168277
0.528259
0.656858
-0.656115
0.966667
-0.838138
0.939937
0.516604
0.630437
-0.450541
-0.964736
0.158544
0.490847
-0.461166
-0.731462
0.971200
-0.079032
-0.860965
-0.419239
-0.506531
-0.481737
-0.578902
0.479365
0.576779
0.360778
0.378753
-0.684577
-0.781776
-0.234934
0.656207
0.657720
0.598844
0.182558
0.313368
0.942924
0.149264
0.474522
0.881400
-0.337127
0.096717
-0.584309
-0.322032
-0.752910
0.920296
0.247748
-0.455956
0.902940
-0.836765
-0.331856
-0.530574
-0.358860
0.172716
-0.118820
-0.872148
-0.227155
-0.716808
0.568381
0.157382
-0.450506
-0.659231
-0.200837
-0.805739
0.936609
0.981773
0.506283
0.874785
0.121842
-0.034344
0.737598
0.773789
-0.916160
-0.785213
-0.469342
-0.619379
-0.877397
0.721140
-0.136209
-1.003422
0.881638
0.555626
-0.500695
-0.422484
-0.215147
0.434764
-0.225664
0.647105
0.788254
-0.663185
-0.252840
-0.712500
-0.334805
0.546248
-0.520001
-0.403649
0.518312
0.976677
-0.527834
-0.332141
0.012298
-0.691394
-0.483333
0.087984
-0.580596
-0.096230
0.356227
-0.482331
-0.333387
-0.705727
-0.422847
-0.378923
0.913633
0.142346
0.273284
-0.210929
-0.366623
0.987926
-0.706019
-0.694391
-0.703824
0.040963
-0.407819
-0.038074
-0.408701
0.084303
0.589495
-0.835617
0.130413
-0.894933
-0.203745
-0.990164
-0.783150
0.138641
0.003846
-0.343239
-0.861922
-0.529377
0.245904
-0.127498
-0.146051
0.937356
0.599846
-0.150567
0.089776
-0.259145
0.418697
0.553173
-0.312825
0.712636
0.860119
-0.002618
-0.213058
-0.493673
1.013481
0.410958
0.573471
0.510393
0.400790
-0.503461
0.439821
-0.875997
-0.476568
0.744044
0.381129
0.643122
-0.505036
0.622740
-0.730596
0.919792
-0.370926
0.183709
0.817204
-0.944742
0.795398
-0.261423
-0.240431
0.214419
-0.701413
0.480108
-0.005696
-0.753708
-0.482036
0.726560
-0.413537
-0.709615
-0.115369
-1.014518
0.755936
-0.634830
-0.389614
0.327275
-0.377011
0.282094
0.240513
-0.817458
0.118678
0.906756
0.911618
0.422144
0.768117
-0.635634
-0.619214
0.442737
-0.606249
-0.823179
-0.809414
0.196070
0.480739
-0.415505
-0.331304
-0.695379
-0.486378
-0.146189
0.809595
0.068635
0.270166
-0.108157
0.227828
0.170640
0.425357
-0.952232
-0.272611
-0.762476
0.471804
1.075792
-0.488159
-0.351400
0.934143
-0.787427
0.808422
0.543689
-0.449641
-0.810073
-0.003134
0.001165
-0.524893
0.278143
-0.870487
0.680534
0.471722
-0.492781
-1.092294
-0.869732
0.588789
-1.069126
0.352066
0.013595
0.026102
-0.182023
-0.587238
-0.403986
-0.045223
0.234106
-0.040044
-0.466643
0.266362
0.198158
-0.159933
-0.016053
0.374873
-0.350012
-0.449172
1.016483
-0.024279
0.633725
-0.099174
0.134624
-0.456473
-0.180178
-0.164769
-0.788769
0.530675
-0.104785
-0.547283
0.265239
0.018204
-0.977591
-0.512202
-0.821746
-0.065487
0.024223
-0.044571
1.040043
-0.765639
0.626541
-0.811349
0.229830
-0.230403
0.031056
-0.734078
-0.703461
0.865950
-0.108979
-0.866888
-0.518368
-0.838058
-0.165496
0.628317
-0.145589
0.801323
-0.429688
0.134272
0.433158
0.607472
0.778050
-0.089365
-0.210153
0.921571
0.553601
0.183351
0.035267
-0.420236
0.867384
-0.307725
-0.480449
0.417605
-0.116340
0.834462
-0.598490
1.146275
1.141763
-0.580503
0.587712
-0.344324
-0.657050
-0.939312
-0.074527
0.285074
0.732486
0.771022
0.114404
-0.590529
0.103303
-0.224118
-0.807786
0.007613
0.848837
0.189415
0.089043
0.393412
-0.872539
0.777282
0.696414
0.909979
-0.527806
-0.674622
0.584649
0.621214
1.164303
0.614991
0.282854
0.910408
0.816985
-0.162739
-0.360989
-0.785537
-0.156950
0.453073
0.469429
-0.297272
0.465816
-0.188914
0.241066
-0.349759
0.716809
0.617495
0.787947
0.536426
-0.410325
-0.418246
-0.305915
-0.365805
-0.639526
-0.500791
-0.195374
0.112409
-0.183473
0.975719
-0.798799
-0.442974
0.367056
0.445179
-0.478959
0.186694
-0.861817
-0.016295
0.385091
0.188358
-0.264276
0.053965
0.935727
-0.794602
0.951324
0.344992
-0.026860
0.637574
-0.224180
-0.482479
-0.016453
0.294935
0.099416
0.760506
1.161609
0.732212
-0.726789
-0.433819
-0.713773
-0.355002
-0.657662
-0.513551
0.258844
0.655794
0.723277
0.619000
-0.084029
-0.842291
-0.090495
-0.561597
0.305431
0.581628
0.540926
0.399430
0.910421
0.484961
-0.405935
-0.311783
-0.027504
0.321668
0.205550
1.009692
-0.194513
-0.454576
0.809299
-0.386448
0.746750
0.700346
0.069096
-0.905942
-0.620740
0.284341
-0.634946
0.553502
0.079201
-0.638273
0.383659
-0.946935
-0.547881
-0.773384
-0.479540
0.887622
0.924850
-0.929623
0.172935
0.679852
0.438405
0.737288
-0.631958
-0.559450
0.201629
0.767363
-0.486891
0.739575
0.917099
-0.909282
-0.657531
0.706266
0.704041
0.188227
0.597080
-0.960282
-0.429515
-0.905356
0.666733
0.658773
-0.581169
0.014997
0.732923
-0.032032
0.346464
-0.719655
-0.208466
0.176776
-0.713476
0.952600
-0.144334
0.731519
0.787800
0.387425
-0.710938
-0.131417
-0.073704
-0.329809
-0.418674
-0.243348
-0.478530
-0.381439
-0.746553
-0.847736
0.816416
0.874214
-0.785042
-0.582766
-1.007617
0.901272
-0.867150
-0.479441
0.034744
0.923955
0.492918
-0.622268
-0.782724
-0.701557
0.553548
-0.505481
-0.674753
-0.432874
-0.607150
1.091049
0.792672
-0.471821
-0.187692
-0.515381
-0.142829
0.064089
0.038405
0.294682
0.672044
0.299962
0.477867
0.543261
0.231062
0.756472
-0.939701
0.367828
0.801650
-0.710823
0.953185
-0.095489
-0.722018
0.475950
0.280904
-0.521619
0.826639
-0.037780
0.137681
-0.849085
0.363824
0.316702
1.001548
-0.128864
0.541819
-0.403539
0.266555
-0.592524
0.705677
-0.657945
0.745938
0.439189
0.716408
0.318797
0.109891
0.109347
0.229306
0.286719
-0.430079
0.115385
0.639340
-0.453362
-0.981543
0.896756
-0.951623
0.377633
-0.510732
0.858606
-0.804769
0.440193
0.810217
0.355426
-0.407159
0.750296
-0.744431
-0.784729
-0.577139
0.563638
-0.347471
-0.836096
-1.049444
-0.540141
0.692856
0.787433
0.902920
-0.090906
-0.017500
0.196883
-0.766115
0.562627
-0.688943
0.855385
-0.896315
-0.656534
0.798702
-0.858374
0.650520
-0.795373
0.906533
0.744568
0.578399
0.724386
0.157988
-0.749214
0.536928
0.437586
-0.528112
0.953536
-0.008964
0.125507
-0.846505
0.018157
0.679365
0.937321
-0.122509
0.628016
-0.132936
0.864192
-0.175873
0.087472
0.404456
0.116425
-0.044767
0.529238
0.475170
-0.239034
0.652465
0.086916
-0.053629
0.580237
-0.124379
-0.421877
0.345068
-0.952251
-0.174350
-0.137193
0.457592
0.282552
-0.159576
-0.485249
-0.512151
0.068291
0.586901
-0.800604
0.018770
-0.533085
0.827150
0.879650
-0.681036
-0.358736
-0.021323
0.756129
0.792403
0.958827
0.288512
0.253245
-0.281261
-0.044502
-0.639646
0.687697
-0.447416
0.242992
-0.731585
0.894364
0.285508
0.100000
-0.214088
-0.207438
-0.567428
0.666224
0.333537
-0.064124
-0.259014
-0.078412
0.135285
0.759505
0.387905
-0.037799
0.645197
0.719522
0.615198
-0.368194
0.476985
0.404284
-0.406937
-0.228741
-0.335929
0.318558
0.732926
0.029630
0.012166
-0.708281
-0.720993
0.288308
-0.801244
0.580767
-0.598449
-0.006282
-0.621056
-0.162669
-0.338437
0.712774
0.773212
0.402549
-0.365639
-0.091492
0.162305
-0.977149
0.871187
-0.192098
0.742480
0.486282
0.440268
0.220009
-0.109048
-0.966402
0.991555
0.555309
0.352604
0.725049
-0.414493
-0.634865
-0.982736
-0.134898
0.653809
-0.783776
-0.553998
-0.944572
0.209984
-0.175050
-0.107241
0.871547
-0.462276
-0.334025
0.274124
0.172114
0.574506
-0.563574
0.194967
0.445714
0.244294
-0.062576
-0.068005
-0.315436
-0.842593
0.822845
-0.281816
-0.850995
0.378178
-0.929355
0.873893
0.963727
-0.564098
0.891300
-0.171135
-0.910289
-0.892476
0.274867
-0.854862
0.317515
-0.900080
0.038111
0.189318
-0.362130
0.704310
-0.536271
0.810287
0.278460
-0.100798
0.003832
-0.276846
-0.857175
0.940969
0.655069
-0.171091
-0.898898
0.481038
0.547986
-0.751038
-0.142758
0.617077
-0.877594
-0.178998
-0.946756
-0.986241
0.649884
-0.857041
-0.877795
-0.070736
-0.704358
0.448838
0.037153
0.340621
-0.359033
0.669631
0.024911
0.073712
0.444750
-0.726094
0.952348
-0.560634
0.002625
-0.877180
-0.570192
-0.281917
-0.005389
-0.463757
-0.830065
-0.494868
-0.235963
0.023923
-0.873282
-0.111370
0.845593
-0.819977
-0.093853
0.510911
-0.647870
0.064048
-0.534986
-0.347912
-0.509517
0.442226
0.890830
0.008005
-0.004386
-0.160344
-0.946309
-0.539015
0.180302
-0.881927
0.054527
-0.640906
-0.615868
0.533914
0.018190
0.263852
0.982864
0.158944
0.778308
-0.242808
-0.812469
0.905253
0.653114
-0.939732
-0.865060
-0.384692
0.593660
-0.540785
0.586981
0.902820
-0.086970
-1.116911
0.205285
-0.250791
-0.074347
-0.673581
0.790286
0.228808
0.066952
0.249417
0.571218
-0.769894
0.565303
0.794054
0.594579
-0.508166
0.052707
0.598429
0.663875
-0.168357
-0.635128
0.888141
-0.197015
-0.910042
0.953873
-0.145806
-0.474058
0.320835
0.083608
-1.060733
0.145411
-0.987474
-1.077749
-0.437601
0.075414
0.221765
0.266571
0.198816
-0.298159
-0.529098
-0.566317
-0.891922
-0.534901
0.817701
0.847765
-0.923157
-0.667991
-0.098371
0.684781
1.037235
0.808417
-0.882858
0.878711
-0.561625
-1.050541
0.612520
0.160901
-0.555753
-0.037610
-0.713723
-0.554626
-0.689107
-0.324086
-0.142465
0.329006
1.090643
-0.710625
-0.314982
0.241636
-0.206222
-0.143480
0.414670
-0.210086
0.323359
0.260047
-0.360431
0.416128
0.651854
0.627899
0.135909
0.550440
0.178199
0.002392
0.345510
0.678677
0.085717
0.064123
-0.162972
0.452282
-0.892986
0.492223
-0.526756
-0.069326
-0.537630
0.426588
-0.769354
-0.568044
0.497561
-0.388397
0.388412
-0.851210
0.453976
-0.165990
-0.058435
-0.196952
-0.837057
0.638488
-0.819510
0.610503
0.054982
0.222342
0.250291
-0.621646
-0.657520
-0.354165
-1.039222
0.224178
0.655770
0.101918
0.259919
-0.731450
-0.194959
0.700209
0.063740
0.117010
-0.020986
0.104401
0.336072
-0.651654
0.688744
-0.237855
-0.498902
0.164342
0.632214
0.444683
0.904641
0.690441
0.095452
-0.804517
0.398136
-0.907224
0.270211
-0.444348
-0.625968
0.466817
0.156447
-0.398662
0.229083
0.282949
0.882663
-0.562389
0.409119
-0.427115
-0.905270
-0.564810
0.597901
-0.006247
0.520308
-0.014248
0.347085
0.224199
0.764972
0.871748
-0.556261
0.501459
0.508380
-0.549654
0.032159
-0.835594
-0.799332
-0.709259
-0.662552
0.557566
-0.073133
-0.040655
0.490274
-0.477231
0.751195
-0.318393
0.624824
0.454337
0.036798
0.049185
-0.963393
0.131432
0.512596
0.704847
-0.868248
0.053456
-0.243863
0.619962
-0.526465
-0.285619
0.612137
-0.226144
0.734064
-0.599298
-0.340240
-0.289432
-0.132878
0.155712
0.159864
0.396138
0.079625
-0.548082
-0.515002
-0.583574
-0.355289
-1.079804
-0.063046
-0.715085
0.458592
-0.915436
0.446610
0.592297
0.223739
-0.003451
0.446636
