1.472194
2.275369
-0.229163
1.499239
2.339898
1.087391
2.085785
1.937977
-0.384476
0.777193
-0.016783
0.567668
1.459129
-0.065297
-1.312653
1.182669
0.747592
1.308781
1.722429
-0.348090
1.802896
-0.156828
-0.737994
0.883352
-0.613147
0.191613
-0.087359
2.064720
1.289354
0.785980
-0.493969
0.746775
0.988118
1.228472
2.139414
1.400114
2.184562
1.229313
-0.337392
1.310055
-0.039931
1.842921
2.038278
0.896151
1.884565
-0.852467
-0.876823
0.669052
1.592149
2.499718
-0.808116
0.356691
2.190103
-0.573628
1.298266
0.527199
0.185551
0.080644
-1.127898
-0.208727
1.233616
-0.092060
1.142626
1.866734
2.537923
1.461121
0.923698
1.942453
-0.062022
0.900420
0.686064
1.918830
0.768383
1.728353
1.462184
0.812051
-0.318277
0.434676
2.325232
-0.842703
2.591003
0.257909
1.301890
1.211625
0.654230
-0.308156
1.490676
-0.665296
0.921256
-0.801471
-0.822281
-0.378654
0.205023
2.740850
1.221397
2.972514
1.456335
-0.255345
0.393291
2.078547
0.062977
1.534490
2.288090
0.707581
-0.616712
1.261294
-0.900380
-0.511237
0.762223
-0.621128
-0.035759
1.925308
1.445596
1.604116
-0.009792
1.754116
0.165917
1.120758
2.068128
0.109681
0.757249
0.678082
2.038623
1.124908
-0.720534
0.964454
1.572721
0.357771
-0.531319
1.026152
-0.054971
0.854876
0.066980
-0.398873
1.865791
1.640146
2.238389
1.194562
2.114807
2.079606
-1.341827
-0.557358
2.164447
0.180456
0.533768
0.926131
-0.441619
0.884499
1.393435
1.021362
0.454182
1.179779
1.792884
-0.669804
1.727039
0.163287
1.326149
0.412439
0.645272
1.665470
-0.463690
0.216503
1.102430
0.080347
0.825017
0.066715
-0.037428
1.678232
2.343835
0.414052
1.816981
2.272524
1.901366
1.336508
-0.570902
2.143106
1.000916
2.605367
0.613783
-0.129742
2.070737
1.839308
0.898756
-0.408616
1.443491
1.591824
1.893149
3.133663
-0.944964
0.265653
0.100683
0.232441
2.423245
-0.597372
2.245729
0.161755
-0.079921
0.941586
1.171324
-0.944858
-0.320291
1.907462
0.054691
1.858327
0.899675
0.300422
-0.761474
0.484574
0.672768
-0.245396
0.426170
-0.464770
0.711284
1.449972
0.910367
0.090634
1.787898
-0.778514
-0.318091
2.062617
-0.989747
2.267212
1.327965
3.427258
-1.195979
0.820494
-0.732157
0.017017
1.951808
1.944715
1.933057
-0.379100
1.469184
-0.159154
0.011878
1.777285
0.298026
1.101333
0.992893
1.035745
-0.329060
2.181130
1.980358
0.782053
1.570930
1.370961
1.466745
0.521687
0.733103
2.325314
0.514722
1.595561
1.751378
0.306864
1.540474
1.659041
0.083933
0.175800
0.596315
-1.338111
0.793923
0.188742
1.382023
-0.410539
0.483536
1.236250
-0.527838
1.396232
1.585052
1.328861
-0.323159
1.321225
1.493250
1.309271
1.952587
-1.246291
2.406701
-0.679754
-0.157995
2.025510
-0.725303
0.714979
1.570491
1.624366
-0.637484
1.790069
1.538222
-0.535924
1.510540
2.162964
-0.439641
-0.720660
1.665323
-0.290043
0.969265
1.472491
-0.189447
1.057134
1.002151
0.790762
