-0.000052
-0.000001
-0.000004
-0.000237
1.999733
0.999895
1.999992
0.999825
-0.000195
1.999868
0.999946
-0.000002
0.999856
-1.000001
-0.000112
0.999984
-0.000139
-0.000027
-0.000004
1.999732
-0.000220
-0.000221
0.999733
1.999990
0.999895
-0.000029
0.999991
-0.000042
1.999997
0.999975
2.000036
0.000002
1.000004
2.000118
0.000126
0.000058
0.000003
1.000098
1.000110
1.000036
0.000044
2.000006
0.000083
3.000000
1.000028
0.000016
1.000073
1.000022
1.000005
1.000127
0.000115
0.000118
0.000111
0.000024
1.000065
1.000012
1.000010
0.000019
2.000041
0.000005
1.000000
-0.000000
-0.000000
0.000004
0.000005
1.000002
1.000000
0.000004
1.000004
0.000001
2.000001
-0.000000
1.000004
-0.000000
-0.000000
-0.000000
0.000004
1.000001
-0.000000
1.000005
0.000003
0.000004
0.000005
-0.000000
0.000001
0.000001
-0.000000
0.000002
1.000000
-0.000000
1.999521
-0.000033
1.999921
-0.001833
2.998019
1.998883
0.999857
0.998400
0.998332
-0.000634
0.999015
-0.000105
1.998664
-0.000009
1.999181
0.999745
-0.001194
0.999477
-0.000075
0.998001
-0.001480
-0.001712
-0.001721
1.999656
-0.000400
-0.000179
2.999682
-0.000592
1.999590
-0.000164
0.000000
0.000000
1.000000
0.000000
0.000000
0.000000
0.000000
0.000000
0.000000
1.000000
0.000000
0.000000
1.000000
2.000000
1.000000
1.000000
0.000000
1.000000
0.000000
0.000000
0.000000
0.000000
1.000000
0.000000
0.000000
0.000000
0.000000
0.000000
0.000000
1.000000
0.999970
3.000003
1.000000
-0.000086
0.999907
2.999949
-1.000002
-0.000053
-0.000080
1.999959
2.999941
0.000000
0.999947
-0.000000
0.999954
1.999986
-0.000050
-0.000004
-0.000001
0.999907
-0.000073
-0.000076
0.999918
1.000001
0.000004
-0.000009
-0.000011
1.999965
-0.000009
-0.000010
-0.000000
1.000000
-0.000000
-0.000000
-0.000000
-0.000000
1.000000
-0.000000
-0.000000
-0.000000
-0.000000
-0.000000
1.000000
-0.000000
-0.000000
1.000000
-0.000000
1.000000
-1.000000
1.000000
-0.000000
-0.000000
1.000000
-0.000000
2.000000
-0.000000
-1.000000
-0.000000
-0.000000
-0.000000
3.000000
-0.000000
1.999998
0.000005
0.000004
0.000001
-0.000000
-0.000000
1.000001
0.000001
1.000001
-0.000002
0.000002
-0.000000
1.000001
1.999998
0.000001
2.000000
0.999998
1.000003
-0.000000
0.000001
0.000002
1.000001
0.000001
1.999998
1.999997
0.999999
-0.000000
1.000000
-0.000000
-0.000000
2.000000
-0.000000
-0.000000
-0.000000
-0.000000
-0.000000
-1.000000
1.000000
1.000000
-0.000000
1.000000
-0.000000
1.000000
1.000000
-1.000000
2.000000
1.000000
1.000000
-0.000000
-0.000000
-0.000000
-0.000000
-0.000000
-0.000000
1.000000
-0.000000
-0.000000
-0.000000
1.000000
-0.000000
1.000000
-0.000000
-0.000000
1.000000
-0.000000
-0.000000
-0.000000
1.000000
1.000000
-1.000000
-0.000000
1.000000
1.000000
1.000000
-0.000000
1.000000
1.000000
-0.000000
-0.000000
-0.000000
-1.000000
1.000000
-0.000000
-0.000000
-0.000000
-0.000000
-0.000000
1.000000
