-0.346225
0.152512
0.197107
-0.701679
-0.910090
0.944337
0.965601
-0.174602
-0.573897
-0.528520
0.383016
-0.742578
-0.381955
0.494579
-0.147422
-0.003653
-0.705452
-0.534603
0.119337
-0.376964
0.683693
0.055949
-0.227822
0.762414
0.689908
-0.396872
0.842912
0.973957
-0.381106
0.887908
0.376042
0.272668
0.040420
-0.426851
0.570990
0.130330
-0.482514
0.536590
0.955728
-0.056411
-0.991930
0.338745
0.201011
-0.373885
-0.166677
-0.946411
0.622462
0.127871
-0.481013
-0.258201
0.750907
-0.797321
0.797747
-0.476915
0.965093
0.487656
0.126213
0.808005
0.461613
0.745107
0.695914
-0.162346
0.017776
-0.263666
0.410803
-0.411235
0.866664
0.928288
-0.874645
0.822392
-0.128123
-0.866575
0.161137
-0.927112
-0.240460
0.994460
-0.873523
-0.617997
0.122331
-0.354536
0.123802
-0.126762
-0.151857
-0.078451
0.396323
-0.186763
-0.590795
-0.477464
-0.378758
0.870817
-0.732357
-0.682845
-0.291528
0.285419
0.053489
-0.880726
0.874184
-0.079847
-0.952438
0.999539
-0.257455
-0.080560
-0.867036
0.903682
-0.007672
-0.107495
0.898142
0.118806
0.274507
0.020473
0.764270
-0.601691
0.893711
-0.387587
0.319858
0.290034
0.425650
0.729063
0.812570
-0.953108
0.599881
-0.923127
-0.639293
-0.694988
0.365632
0.417536
-0.572374
0.239816
-0.662311
-0.524811
0.239355
0.080234
0.394628
0.372319
-0.016084
-0.613043
-0.735177
-0.117943
0.505762
0.539331
0.902530
0.270032
0.937640
0.796241
0.882445
0.257498
0.079905
0.301726
-0.020466
-0.084961
0.371276
-0.389300
0.013485
0.753461
-0.101172
-0.657531
0.193755
0.379606
0.641691
0.474258
0.797608
-0.176141
-0.445508
0.192237
-0.803822
0.538408
0.579194
-0.538999
-0.579535
0.084956
-0.999668
-0.677005
-0.645012
0.937971
-0.887133
-0.674551
0.292451
0.280082
0.629403
-0.708306
-0.820014
-0.343716
-0.390614
-0.091631
-0.707948
0.775634
0.399042
0.664414
0.043079
0.012605
0.230374
-0.216707
0.836464
0.784866
0.975530
-0.967358
0.323274
0.554724
-0.506357
0.743739
-0.360320
-0.698544
-1.034430
-0.106466
-0.677350
-1.015945
0.195134
0.402164
0.804880
0.020023
1.082154
0.913099
0.982787
-0.329436
-0.476065
-0.819433
-0.819439
-0.955135
-0.946195
0.226867
0.019953
0.284179
-0.989839
-0.143583
0.069045
0.985691
-0.110941
-0.607682
0.540415
0.261343
-0.965107
-0.921176
0.847068
-0.805124
0.199610
-0.567654
-0.345400
-0.348941
1.075443
1.341064
0.725325
0.937438
0.208608
-0.229467
-0.790381
0.737445
0.160321
-0.435418
0.862671
0.214125
0.791449
-0.117376
-0.501696
0.801610
0.739040
0.567349
0.787301
-0.470038
1.051026
0.419103
-0.889166
-0.833858
1.028002
1.096426
-0.487460
0.104095
-0.348296
0.150325
0.411149
-0.728688
-0.364619
-0.731978
0.658296
0.470016
0.136557
-0.798981
0.598919
-0.703122
-0.234399
0.461590
0.511003
-0.442950
-0.655787
-0.990692
-0.641340
-0.822362
0.668015
-0.751344
-0.229843
0.648183
0.991421
0.043072
0.946547
-0.103418
0.272304
1.409454
0.732794
-0.132941
-0.451910
-0.106630
-0.306786
-0.223074
0.027420
-0.184515
-0.171046
-0.836023
0.016504
-0.572127
-0.539146
0.782105
0.889462
0.971858
-0.660845
-0.671940
1.083829
-0.181050
-0.626073
0.709599
0.318831
0.306727
0.121660
-0.118477
1.598860
-0.026277
0.646684
-0.258999
-0.051386
0.102024
-0.078721
0.133883
0.716496
-0.896341
-0.640041
-0.256085
-0.080856
0.188913
-0.092108
0.935648
0.616786
0.368746
0.717752
0.539637
0.443268
-0.818960
0.871113
0.522661
0.189062
-0.877506
-0.012298
1.105748
0.389457
0.560203
0.188231
-0.496176
-0.271186
0.401428
0.159808
0.371367
-0.822104
-0.638569
-0.368709
0.894392
-0.534910
-0.008750
-0.361693
0.384234
-0.819837
0.546199
0.319882
0.830338
0.039079
0.161767
0.402329
-0.803349
0.256200
0.145443
1.457853
1.176134
0.472350
-1.041759
-0.744998
-1.521158
-0.324487
0.296284
0.070738
0.200379
-0.409374
-0.783682
-0.512729
-0.243493
-0.422251
0.118562
-0.349101
0.042839
-0.890189
0.289207
-0.572928
-0.587036
-0.030295
0.871116
-1.111236
0.625542
0.088381
0.728740
-0.235289
0.648010
0.117463
0.619973
0.767161
0.973239
-0.681975
0.101710
0.755374
-0.577303
-0.448112
-0.260993
0.601358
0.118485
-0.044675
-0.911371
0.874992
0.533074
0.207191
-0.474108
-0.424088
0.439992
0.949397
0.118876
0.472183
-0.212957
0.163600
0.997015
-0.808147
0.825625
-0.019968
-0.076460
0.114012
0.855327
1.067775
0.365029
0.123900
-1.018142
-0.632263
-0.231200
-0.499113
-0.141920
0.507807
-0.897754
0.976565
-0.536868
-0.809125
0.851557
1.014644
0.521055
-0.488252
-0.364715
-0.410703
-0.348892
0.940810
-1.074038
-0.170034
0.212796
-1.175437
0.410927
0.372684
-0.325831
0.819657
0.751552
-0.284382
0.595048
-0.690588
0.667695
0.670749
-0.266520
-0.563505
-0.828364
0.591560
0.944302
-0.726118
0.568124
-0.574128
-0.415281
0.547614
-0.534168
0.871185
1.052994
0.228641
-0.653491
0.644795
-0.762685
0.295227
0.200321
-0.928047
-0.506287
-0.696780
0.141426
-0.925501
0.703307
-1.097169
-0.366942
0.367936
-0.576034
-0.699247
0.038685
0.157447
-0.262752
0.210322
-0.250994
-0.318450
0.552338
-0.583543
0.190415
1.008371
1.014206
0.962501
0.752979
0.139512
0.166203
0.678306
0.687435
-0.308812
-0.755546
-0.379435
1.358931
-0.775405
-0.591010
-0.319860
-0.778681
-0.839726
-0.360698
-0.145623
0.528211
0.063268
0.155131
-0.433104
-0.779285
0.892379
0.845352
0.035658
-0.322936
0.391864
0.531398
1.299067
0.356323
-0.335826
-0.313746
0.722131
-0.116646
0.573302
-0.230811
0.205988
-0.024874
-0.318030
-0.644201
-0.422447
-0.093073
-0.129450
0.168908
0.128246
0.030824
0.808210
0.982624
-0.440965
-0.128522
0.137754
0.125931
0.164495
0.104173
-0.079583
-1.035679
0.928357
0.259353
-0.173370
-0.410649
-0.173031
-0.304238
-0.698136
0.554245
0.813959
-0.711768
0.742589
0.078895
-0.308673
-0.489598
0.448835
0.227889
0.417329
-0.680615
-0.603203
-0.454425
0.350210
-0.794993
-0.471801
0.909245
0.076485
0.486479
0.028931
-0.857777
0.039325
1.734106
-0.657266
-0.551263
-0.710376
1.357464
0.618167
0.889411
1.207453
1.144864
0.940861
-0.089790
-0.946812
0.683922
0.893092
-0.274335
-0.805675
0.341928
0.953554
0.611654
0.661313
-0.649649
-0.842771
0.011522
-0.444642
-0.314573
-0.067926
0.674348
-0.515148
1.060922
0.954271
0.213234
0.906411
-0.968055
0.323700
1.147524
0.725562
0.024948
0.489840
0.582364
-0.078500
0.349973
-0.555910
-0.059539
0.033896
-0.662818
0.666126
0.228220
0.679110
0.619680
-0.160126
0.340423
0.970031
-0.002898
-0.648055
-0.474097
0.718015
0.308198
-0.807453
-0.918758
0.122362
0.851458
0.128709
0.135283
1.001224
-0.559161
0.123069
0.602319
0.343738
-0.404908
0.161595
-0.751876
0.945065
0.605685
0.188585
-0.021039
0.942867
-0.145289
-0.792819
0.621977
-0.525609
0.047054
-0.037600
-0.555578
-0.955843
0.314345
-0.030188
0.726686
-0.412943
0.127043
0.760596
0.815712
0.084794
-0.158028
-0.061365
0.073658
0.270966
-0.941282
-0.327008
-0.385296
-0.346190
0.834588
-0.137172
-0.401125
0.440272
-0.948586
0.577836
0.383140
-0.093875
0.785016
0.005117
0.380516
-0.167929
0.967516
0.824939
-0.123773
0.281861
-0.205250
-0.397087
0.868918
0.921793
-0.636491
0.684630
0.006588
0.205481
-0.376735
-0.919755
-0.523553
-0.318017
-0.246762
0.091151
0.335793
-0.412175
0.953980
0.934668
-0.971902
-0.994607
0.512504
0.411237
-0.088482
0.297520
-0.583646
-0.707966
-0.870409
-0.616130
-0.883027
0.005818
0.665731
-0.088277
0.608731
0.534648
-0.166484
0.972240
0.219278
0.840103
0.177721
0.842543
0.920349
0.654168
-0.475474
-0.326414
-0.254681
0.860320
0.261411
-0.300701
0.794988
0.289509
-0.295308
0.307492
-0.299254
0.616210
-0.394988
0.117100
0.908245
-0.265397
0.500970
-0.974783
0.740421
0.166701
-0.063060
0.349153
-0.298651
0.770456
0.321392
0.920627
0.610560
-0.500886
0.763171
0.530908
-0.846718
-0.712303
-0.795505
-0.101399
-0.851984
0.465906
0.597900
0.943004
-0.244585
-0.697408
0.250496
0.456162
0.918802
0.855509
-0.426738
0.827047
-0.409888
-0.925768
0.852264
-0.669467
0.240932
-0.210795
0.679686
0.942281
-0.440339
0.001078
0.862909
-0.829780
0.500192
0.626079
0.701129
0.653474
0.913776
0.905624
-0.447925
-0.938208
0.371530
-0.850025
-0.995203
-0.873054
-0.547433
0.255293
0.583107
-0.628631
0.110802
-0.843631
-0.801584
0.700914
-0.769399
-0.949320
-0.968553
0.471533
-0.160115
0.711133
0.413814
0.399546
-0.287789
0.276723
0.569766
-0.787597
-0.097198
0.270895
0.865877
-0.183422
0.176519
-0.582048
-0.121630
-0.451951
-0.432073
-0.116833
-0.325006
0.020493
-0.861541
-0.741898
0.391862
0.249261
-0.585529
0.590278
-0.049825
-0.354929
0.640959
-0.018378
-0.883396
-0.519156
-0.307245
0.530418
0.880389
0.404966
-0.192859
0.450155
0.617370
0.709943
-0.278950
0.483247
-0.473480
0.897569
0.901199
0.404890
-0.554382
-0.530875
-0.711943
0.120612
0.489618
-0.573484
0.378713
-0.118519
0.675777
0.793184
-0.528241
-0.374048
-0.561745
-0.887282
0.607574
-0.445140
-0.406439
-0.699672
-0.914722
-0.526049
0.680632
-0.132244
0.899443
0.322664
-0.397639
-0.354844
-0.194089
0.128882
-0.457275
-0.292890
-0.466228
-0.011657
0.176235
-0.178171
-0.891045
-0.334146
0.248345
0.487668
0.547334
-0.075877
0.280852
-0.980907
0.550075
0.719108
-0.868189
0.135964
-0.747717
-0.283165
0.423935
-0.668651
0.211792
0.046806
0.135199
0.158250
-0.447752
0.817357
0.731917
0.273440
0.001169
-0.688690
0.998956
0.516679
0.299653
0.175191
-0.661492
0.408608
0.841044
0.586854
-0.103724
0.388379
-0.489024
-0.822872
0.407472
-0.960633
0.851227
0.500773
0.245610
-0.747314
-0.522505
-0.003808
-0.654629
0.112554
0.628716
0.451776
-0.408828
-0.716577
0.431957
-0.643127
0.617728
-0.381955
-0.332699
0.616684
-0.865276
0.966953
-0.208125
-0.526768
0.375561
-0.367081
-0.939914
-0.728163
-0.985764
-0.456344
-0.578267
0.409965
-0.287874
-0.160819
0.272003
1.137982
-0.288311
0.411726
-0.065674
0.125607
-0.321709
-0.558642
-0.422893
-0.076518
-0.374495
-0.538898
0.640082
-0.688957
0.079147
-0.692617
0.927727
0.213871
-0.725664
-0.280398
0.687103
0.649897
0.347642
0.719783
0.832738
0.594688
-0.401162
-0.160223
0.169634
0.284590
0.011466
0.776141
0.277409
0.711905
0.253405
0.314444
-0.795812
0.357253
0.396367
0.102119
-0.015873
-0.610589
0.563220
-0.375791
-0.299546
-0.357633
-0.068409
-0.371819
0.856238
0.205927
0.317401
0.522994
-0.164348
-0.079886
0.560843
0.319483
-0.752884
0.766901
0.236352
0.355654
0.091399
1.281703
0.113122
0.740380
0.641135
0.348627
-0.598032
0.371610
0.350740
-0.614922
-0.526271
-0.665133
-0.225512
-0.963051
-0.040924
0.474942
-0.320684
0.890667
-0.920199
-0.484794
0.067509
0.363416
-0.850094
1.160636
-0.463129
0.696673
-0.436219
-0.283348
0.545995
1.203825
0.537967
0.877681
1.221734
0.557894
-0.321093
-0.162162
0.400104
0.586651
-0.790552
-0.249156
0.971729
-0.316824
0.085711
-0.253783
-0.279875
-0.955213
-0.802163
0.370183
0.929615
-0.657337
0.960346
0.607167
1.186030
-0.718619
0.314894
1.461814
0.573875
1.720230
0.054583
0.235771
0.828273
0.124031
0.705865
0.335050
0.003172
-0.203466
-0.827112
-0.596723
-0.616814
-0.617665
0.154121
-0.645085
0.065512
-0.760168
-0.053304
0.756378
-0.724368
0.339879
0.315693
-0.079531
0.392746
0.244722
0.793348
0.463743
-0.913114
-0.821227
0.259075
-0.308414
1.086298
0.335313
-0.082291
0.543692
-0.246341
-0.222349
-0.121258
0.756831
0.574186
0.051629
-0.839892
0.957371
0.433965
0.314229
-0.842150
-0.509511
0.545074
0.535978
-0.859761
1.268355
-0.305772
1.619084
-0.347600
-0.319945
-0.222139
0.262929
0.696913
0.719580
0.554035
-0.066601
-0.775826
0.536958
-0.347913
0.120276
0.042175
0.405746
0.897927
0.920917
0.162577
0.472113
-0.027454
0.322685
0.300480
-0.731408
-0.371900
0.768644
-0.171149
-0.113638
0.652153
1.121345
-1.043652
1.383287
0.164444
-0.224185
-0.328684
0.266645
0.465857
-1.142960
-0.341275
-0.014783
0.229429
0.217260
-0.554775
0.881517
-0.662464
0.487400
0.287263
-0.764538
0.408317
-0.550160
0.578571
-0.757056
0.611529
0.151246
-0.400077
-0.071457
0.108874
0.303139
-0.302075
-0.761047
0.765461
-0.187221
1.277804
0.642094
-0.301593
-1.028407
-0.524033
-0.911570
-0.724672
0.773072
0.064506
0.504757
-0.009668
0.509731
0.386274
0.327868
-0.002869
-0.303214
0.434326
-0.732471
-0.016552
0.230593
-0.407031
0.156089
-1.460557
0.227534
0.291998
-0.027702
0.392374
0.557023
-0.167094
-0.734957
-0.201324
0.028195
0.376371
-0.006952
0.443830
-0.505439
0.372067
0.719158
-0.732366
-0.563428
0.223916
0.257966
0.946303
-0.366560
-0.540195
-0.216174
0.159810
-0.730673
0.454584
-0.270551
0.081409
-1.266809
0.171716
0.926151
0.856322
-0.523340
-0.497514
0.204902
-0.075366
-0.785903
-0.197937
-0.211336
0.681369
-0.175306
-0.695777
0.125200
0.319255
0.676289
-0.155642
0.586889
-0.887139
-0.931726
-0.149987
-0.994756
-0.336884
0.506372
0.514178
1.817596
1.027917
-0.607655
0.154577
0.708028
-0.103088
0.588397
-0.891529
-0.791083
-0.374217
0.697856
-0.153891
-0.234601
-0.621578
-0.701085
0.844651
-0.940209
0.123609
-0.851127
0.184991
-0.557136
0.825163
-0.970651
-0.965088
1.038536
-0.918305
-0.062435
1.520864
0.180285
-0.014566
0.527305
-0.335480
1.169582
-0.117305
0.100831
-0.688854
1.198501
-0.138581
0.425584
-1.236084
-0.007723
0.655805
0.204977
0.855227
-0.965773
0.503892
0.699878
-0.905981
-0.372499
0.848752
0.279010
0.070364
0.796113
0.430148
0.158205
0.675600
0.449814
1.839179
0.933636
-0.901595
-0.930163
-0.653642
-0.340206
-0.500058
1.047610
-0.896539
-0.158929
0.789747
-0.192641
-0.236744
0.831618
0.868265
-0.580938
0.036595
0.723492
-0.546711
-0.459513
0.423370
-0.452692
0.167987
0.272122
0.809933
-0.680324
0.152240
0.435933
0.802570
-0.215966
-0.120404
0.300468
-0.695567
-0.531787
0.653765
-0.201058
0.637396
0.750410
-0.203964
0.672619
-0.191390
-0.465684
-0.521254
0.571867
-0.634066
-0.652989
0.990929
0.402529
-0.929497
-0.555782
0.943016
0.493873
-0.008474
0.102088
-0.252240
-0.188888
0.352983
0.762878
1.041841
-0.171738
-0.580637
-0.486346
-0.950968
-0.574811
0.185652
0.631137
0.217488
-0.139385
0.352604
0.949316
-0.470050
-0.838785
-0.516369
0.008696
0.733082
-0.150435
0.355707
0.724011
-0.747906
0.426210
-0.831772
-0.804890
-0.078768
0.169367
0.315726
0.691404
1.021397
-0.249612
0.493031
0.973917
0.378624
0.703451
-0.542520
0.347032
-0.892048
0.639199
-0.061465
0.318349
-0.501828
-0.708861
0.267664
0.028122
-0.547646
0.751295
-0.963182
-0.814564
-0.399139
0.392525
0.909446
-0.147045
-0.181266
-0.922325
0.048064
0.738818
0.237429
-0.645823
0.424897
0.215026
0.009645
-0.176992
0.145143
-0.647064
-0.508874
0.568438
0.697243
-0.403647
0.207637
-0.364222
0.914702
0.705809
-0.073083
0.182366
-0.266069
0.379271
-0.066339
-0.229252
0.564707
0.534522
-0.836727
0.474153
-0.612523
-0.017993
0.551828
0.435541
-0.279175
-0.210744
0.789718
-0.854279
-0.995718
-0.200637
-0.031271
0.149425
0.152299
0.459856
-0.282137
-0.150458
-0.943791
0.925500
0.485319
0.970910
0.631309
-0.587764
0.153276
-0.634760
0.791507
-0.913062
0.135988
0.356213
0.621460
0.299261
-0.169634
-0.991064
-0.718732
-0.617806
0.444477
0.002093
0.171450
0.234196
0.147814
0.175732
-0.966441
-0.883457
-0.674843
0.185857
0.576399
0.043021
-0.964601
0.632607
-0.031479
0.520719
0.603517
-0.400170
0.932955
-0.243206
-0.034930
0.724462
-0.156269
-0.898942
0.080675
-0.534809
0.400319
0.911041
-0.525873
0.681587
-0.706765
0.918604
-0.316320
0.464685
0.152800
0.831493
-0.359582
0.186358
0.948036
-0.034425
-0.627784
0.524435
-0.991404
-0.592385
0.157042
-0.022883
0.928334
-0.239441
0.576947
0.861288
0.517353
-0.457983
0.585750
-0.638916
-0.356924
-0.333575
-0.173725
-0.956605
-0.422534
0.300402
0.724982
-0.129299
0.219007
-0.591339
-0.664613
-0.628193
-0.759845
-0.024196
0.558165
-0.811809
0.941379
0.930381
0.712626
0.949975
-0.662004
-0.130332
-0.072909
-0.733670
0.630228
-0.495962
-0.872382
0.147581
0.046055
0.713368
0.508665
0.689131
-0.620207
-0.665060
0.732526
-0.042741
0.635343
0.457508
0.827960
-0.145650
0.866169
-0.836653
0.226156
-0.893676
0.139151
-0.215678
-0.705485
0.080530
-0.285297
-0.992859
0.030505
0.052699
-0.123191
0.957596
0.319029
-0.492964
-0.538366
0.446647
0.654617
0.507689
0.160014
0.163282
0.196820
0.539807
0.498223
-0.070654
-0.502934
0.133565
-0.613146
-0.674974
0.987915
-0.746977
-0.511627
0.214071
-0.640654
0.627524
0.998393
-0.346139
-0.291945
-0.286904
-0.338998
0.738559
0.765795
0.537811
0.696155
0.084823
-0.955153
-0.842211
-0.468530
0.699464
0.665479
0.691484
-0.137254
-0.137701
0.231292
-0.639031
0.791645
0.728358
0.494534
-0.821501
-0.946616
0.482449
-0.568479
-0.458243
-0.303480
-0.209132
-0.825188
-0.299556
0.450258
-0.122664
0.408010
-0.894270
-0.384104
0.173804
0.643541
-0.687949
-0.741372
0.688388
-0.530160
-0.209902
0.387852
-0.864682
-0.518418
-0.749402
-0.002383
0.712874
-0.388433
-0.210738
0.441231
-0.893899
-0.032239
0.500050
0.593985
0.464608
-0.903262
-0.643380
-0.857979
-0.847779
-0.073449
0.586891
0.195823
-0.484788
0.867828
0.832148
0.567844
0.384150
-0.989063
0.820425
0.072537
-0.519223
-0.389477
-0.539611
-0.383904
0.092105
-0.289013
0.613713
-0.195022
0.322554
-0.597025
-0.748355
0.416187
0.256725
0.756530
0.095553
-0.118465
0.750213
-0.302072
-0.647879
0.543911
-1.127129
0.170754
0.427179
-0.252893
-0.599065
-0.235271
-0.767952
0.719807
-0.224334
-0.947526
-0.207656
0.256444
-0.337003
0.252733
0.872539
0.755102
0.963720
0.492133
-0.452034
0.279071
0.798822
0.003855
0.152638
0.328124
-0.450603
0.517989
-1.103225
-0.530355
0.351266
0.233833
-0.324763
0.699869
0.683279
0.374007
0.986915
0.920858
-0.862264
-0.781037
0.640665
-0.086598
-0.728563
-0.566991
-0.830154
-0.065566
0.685742
-0.964678
-0.322579
0.678038
0.619285
0.651778
0.655810
0.449000
-1.082948
0.375907
-0.619431
-0.295144
0.775941
0.367626
0.170841
-0.257722
0.748754
0.231514
0.733866
0.283169
-0.392499
0.720781
0.204028
-0.254763
0.939744
-0.155307
0.658640
-0.788819
0.277701
0.816464
0.127618
-0.049640
1.003364
1.326743
0.054208
0.173105
-0.289134
0.011317
-0.462197
0.399630
0.367856
1.275064
1.231826
0.333246
-0.548325
-0.244740
-0.000698
0.900987
0.905514
-0.266832
0.184156
-0.486984
-0.546052
-0.611816
0.258253
-0.606308
0.232876
-0.101009
-0.413124
-0.467627
-0.126446
0.920898
0.543434
-0.324364
0.153330
-0.702105
-0.268260
-0.203689
0.292595
0.626296
0.914837
0.419313
-0.397321
0.655138
0.416970
-0.468643
-0.774220
-0.583728
-0.567657
-0.868705
0.149440
0.616499
-0.355690
0.603388
-0.995317
0.884661
1.013964
0.304324
-0.059252
-0.099262
0.931428
1.022204
-0.338578
0.214893
-1.389219
1.337352
1.162125
0.564844
0.637738
0.510082
0.268535
-0.539245
0.779520
0.358311
0.974314
0.196490
0.889668
-0.799906
0.612762
-0.677989
-0.668611
-0.237798
0.938510
-0.034565
-0.617526
1.005140
-0.013296
-0.217415
0.314083
0.827229
0.913032
-0.096535
0.296496
0.518520
-0.395737
0.876374
0.783836
0.924543
0.840471
0.908803
-0.595220
-0.329549
-0.716822
-0.815701
-0.971238
-0.742508
0.380789
0.918429
-0.542414
-0.006448
-0.759560
-0.221289
0.817700
-0.759103
0.829606
-1.018953
-0.886801
-0.285457
0.438220
-0.360730
-0.642438
0.982876
-0.683288
1.185806
-0.209434
-0.164026
0.286274
-0.890056
0.871004
-0.312678
0.884472
-0.752256
0.357773
-0.832349
-0.567956
0.386534
-0.574857
0.812833
0.304964
-0.095511
-0.136974
0.612263
0.337883
0.014222
0.999370
1.406697
0.209988
0.354226
-0.384721
0.999412
1.211340
-0.129423
-0.174828
0.926413
-0.772374
0.467955
0.792057
0.070025
0.402684
0.606983
0.757347
0.287156
0.854727
0.115119
0.454807
-0.713229
-0.498346
0.901710
-0.843755
0.823199
-0.273890
0.303296
0.670684
0.056225
-0.581036
-0.633269
0.215219
0.472633
1.056580
1.608138
0.546574
-0.275622
-0.395848
1.022715
0.482495
-0.606769
0.317076
0.217474
0.463256
-0.280240
-0.175544
0.220602
-0.993084
-0.320817
-0.619309
0.483483
0.022595
-0.088129
0.480128
0.504642
0.146692
-0.844156
0.692530
0.573593
-0.734541
1.091313
0.391640
-0.269552
0.966495
1.748486
-0.357140
0.014999
-0.907403
-0.270374
-0.154374
0.520993
0.122857
-0.837298
-0.261533
-0.413888
-0.117538
0.562923
0.851685
-0.088954
-0.695818
-0.586447
-0.255425
0.859715
0.400468
1.217093
-0.473937
0.741162
0.797659
-0.405017
0.332318
-0.738166
1.016988
0.441132
-0.000406
0.395093
-0.287468
0.104933
-0.813495
-0.244990
0.834558
0.032131
-0.723997
-0.042585
0.194833
0.014469
0.543528
-0.935740
-0.400196
0.561554
0.180593
0.409302
1.585786
1.213422
-1.005480
-0.468847
1.063867
-0.329078
-0.271355
-1.068526
-0.600857
1.023798
0.175755
-0.649851
-0.562644
0.888891
0.507292
0.095789
-0.006177
0.693797
0.850799
-0.171618
-0.274071
-0.873199
0.785797
0.907727
0.173949
0.492230
1.164327
0.825183
0.592448
1.359525
-0.275840
-1.579158
0.195094
-1.253477
-0.487516
-0.379383
-0.265012
-0.619284
-0.901398
0.471149
-0.585357
0.244261
0.644405
-0.134545
0.133151
0.151697
0.961244
-0.873026
-0.154505
0.812043
-0.044644
0.571424
0.966085
-0.275099
0.401650
-0.125603
-1.001976
1.084333
-0.153713
-0.743381
-0.242465
0.556262
-1.400426
-0.451285
0.217746
-0.150706
-1.331619
-0.505699
-0.735441
-0.868741
-0.817217
-0.234809
0.375520
0.827188
0.630646
-0.491329
-0.021114
0.591890
-0.364354
0.824381
0.403933
0.588269
0.303123
0.490033
-0.566876
0.881805
-0.013172
-0.195214
-0.573026
0.495859
-0.009626
-0.437632
-0.789130
-1.217010
0.338929
-0.771489
0.633139
0.601217
0.230818
0.950041
0.732476
0.413601
-0.284768
0.107996
0.240790
-0.654122
0.616667
-0.780325
0.937767
-0.747687
-0.921065
0.096405
0.729261
0.471464
-0.244538
-0.725506
-0.301917
0.442724
-0.294731
-0.411059
-0.677683
0.853401
0.588369
-0.101526
0.796891
0.109973
0.348912
0.447730
-0.288810
-0.420269
0.397772
-0.556334
0.993332
-0.886997
0.551662
0.234122
-0.541119
0.168329
0.453797
-0.618194
0.342279
0.419490
0.661344
0.214993
0.159958
-0.354930
0.390462
0.280119
0.544749
-0.953075
0.991324
0.878909
0.748304
0.510934
-0.253124
0.554045
-0.379093
-0.904212
0.001775
0.332097
-0.324481
-0.600453
0.775762
-0.331149
-0.487450
0.327424
0.902973
-0.028569
-0.504247
0.356770
0.368080
0.916396
-0.145377
0.106428
0.180353
0.792336
0.529252
-0.380221
0.057898
0.059445
-0.362694
0.029543
-0.081325
-0.614391
-0.459523
0.665551
0.939654
0.161384
0.761339
-0.058570
-0.506520
-0.563142
0.340977
-0.730758
0.105709
0.853527
0.596667
0.008682
-0.175042
-0.907580
-0.634547
-0.806962
-0.991184
0.220076
0.299465
0.189168
0.012411
-0.171282
0.808947
-0.929690
0.888163
-0.553747
0.099853
-0.193162
-0.168138
0.640330
-0.527611
-0.228483
-0.198286
-0.766273
0.712947
0.295194
-0.329415
0.053923
0.564436
0.776294
-0.092550
0.161103
-0.215023
0.732409
0.253523
0.150429
0.925446
0.262339
-0.629495
0.224912
-0.548492
0.382916
-0.946370
-0.739545
0.453226
0.941793
-0.293292
-0.446921
-0.251369
0.538570
-0.806590
0.221019
-0.689913
-0.004877
0.454746
-0.976966
-0.709683
-0.874668
0.076957
0.854754
0.901626
0.984407
0.015857
-0.313398
0.716816
-0.730620
0.837032
0.642262
0.531719
-0.792463
-0.132826
0.983227
0.590453
-0.079196
-0.756318
0.043679
-0.137404
-0.049610
0.596759
0.611227
-0.511040
0.790168
-0.167754
-0.200953
-0.214708
-0.713007
-0.177919
0.075609
-0.587676
0.899038
-0.069638
-0.686050
0.883446
0.946219
0.000552
0.600262
-0.784401
-0.162416
0.242524
0.747318
0.045121
-0.890302
0.730545
-0.364426
0.030502
0.974227
0.679253
0.893098
-0.075384
0.276012
0.504325
0.413576
0.066180
-0.663429
-0.787376
0.851472
-0.376436
0.034705
-0.072919
0.035888
-0.066257
0.857443
0.349838
-0.182811
0.803662
-0.649609
-0.582550
-0.980739
0.187975
0.659974
0.766579
-0.766905
0.769672
0.497123
-0.131331
-0.199827
0.471350
-0.452078
-0.306729
-0.604034
0.823934
-0.802404
0.809543
-0.109886
-0.465833
-0.977833
-0.258414
0.157731
0.056871
0.668666
-0.806380
0.990614
0.526109
0.543458
-0.192197
0.329771
0.893848
0.225253
0.349032
0.081823
-0.114773
0.115610
0.314918
-0.345101
-0.387266
-0.816413
0.455072
-0.915916
-0.268490
-0.851657
-0.519950
-0.444557
-0.654061
-0.710407
0.445558
-0.119893
-0.688240
-0.812857
-0.962162
0.368631
0.855810
-0.768543
0.359246
0.381919
0.774915
-0.832951
-0.288310
0.668763
0.392302
-0.939278
-0.249414
-0.722471
0.176332
-0.934495
-0.067572
0.788337
-0.751637
-0.613229
0.873150
-0.019398
-0.464157
-0.646799
0.536045
-0.118218
-0.357206
-0.018397
0.761888
-0.045446
0.168746
0.799726
-0.676815
0.024556
-0.968816
0.682431
-0.593525
0.806099
0.849480
0.118165
0.474862
0.241782
0.211354
-0.742085
0.613887
-0.540226
-0.667842
-0.458351
-0.778182
-0.382422
-0.050462
-0.871555
0.582965
0.437400
-0.527841
0.095898
-0.743137
0.013430
-0.961705
-0.981248
0.967983
0.207041
0.818478
-0.708832
-0.768403
0.849662
0.973599
-0.361929
0.655761
0.823079
0.788703
0.170184
0.102984
0.021938
0.491048
-0.282691
0.295268
0.657547
-0.007419
0.395546
-0.787720
0.993937
0.556749
0.741330
0.250217
0.822698
-0.235592
0.507094
-0.163872
-0.197297
0.525846
-0.195889
-0.990256
0.344324
0.095279
-0.758659
0.193986
0.106018
-0.043160
-0.136389
-0.127352
-0.286993
1.014336
1.179178
0.679006
0.414053
-0.392864
0.003296
0.079016
0.673656
-0.724424
0.205416
0.449556
0.747788
-0.121750
-0.297721
0.570499
0.642658
-0.790627
-0.593374
-0.554639
0.735219
0.210737
-0.544895
0.079543
-0.659724
-0.226126
-0.709490
0.412741
0.643681
0.337728
-0.465936
-0.556708
0.385006
-0.561843
1.037720
-0.286898
0.081925
-0.275302
0.469608
-0.656601
-0.066466
-0.405917
0.793606
-0.313074
0.472333
-0.504115
-0.742575
0.114991
-0.294742
-0.335949
0.560352
-0.559523
0.919026
-0.944254
0.496745
-0.789558
-0.130026
0.999443
0.693468
-0.559146
0.171810
1.087550
-0.211510
-0.772895
-0.689096
-0.537330
-0.427287
-0.177244
-0.069678
0.884104
0.152440
0.864054
-0.521813
-0.053954
-0.449019
0.950520
0.441931
-0.191595
0.065511
-0.852810
0.479552
-0.333848
-0.442753
0.377969
-0.196426
-0.751702
0.647217
0.470676
1.032203
0.275049
0.743526
-0.066241
0.147423
-0.652042
-0.073490
-0.033378
-0.573754
0.299085
0.763410
0.346721
0.183189
-0.084150
0.210775
0.661377
0.861896
0.761756
0.611896
0.303828
-0.422743
-0.289449
0.444394
-0.933058
0.434078
-0.823098
0.555233
1.160324
-0.719860
-0.048137
0.418091
-0.601827
-0.720813
0.224265
-0.038184
-0.081052
0.079044
0.704197
0.860497
0.500841
0.003282
0.623906
-0.152438
-0.813529
-0.460244
-0.941663
0.847848
-0.598348
0.817693
0.492888
0.729227
-0.621495
-0.774442
0.297543
-0.707711
0.438535
0.628534
1.073842
0.648213
0.765977
0.024430
0.104755
0.464218
-0.257705
0.627196
-0.745177
0.650282
-0.299330
0.959019
0.510779
-0.798489
-0.037699
0.134685
0.049073
0.148773
0.674441
0.105010
0.020367
-0.900160
-0.128690
-0.886002
0.226742
0.281124
-0.327304
0.184290
1.177087
-0.423257
-0.522886
0.881062
0.492583
0.557712
-0.686015
-0.891714
-0.129517
0.056328
0.723393
0.118779
-0.293390
-0.575936
0.077798
-0.782611
-0.374425
-0.959901
0.352074
0.693163
0.200243
-0.013301
-0.630421
-1.308982
0.088734
1.011337
-0.203586
0.161753
0.426268
0.622066
1.083429
-0.146877
0.373102
1.014695
-0.643439
-0.310821
0.436825
-0.334666
-0.209971
-0.705745
0.721663
-0.486577
0.413033
-0.571727
-0.062514
-0.509169
-0.354338
0.581576
-0.457699
0.921747
-0.052253
0.457479
0.030642
-0.439519
1.390888
-0.525785
0.802139
-0.012369
0.283736
-0.119091
0.946042
-0.117873
0.539845
0.057076
-0.204700
0.885923
0.740092
-0.780915
-0.448743
-0.469879
-0.486661
-0.727080
0.043543
0.926372
-0.275010
0.999545
-0.571426
0.297544
0.265556
-0.184084
0.196060
-0.333766
0.081577
-0.311010
0.119869
0.053781
-0.132727
-0.256175
0.356793
0.578435
0.291853
-0.092806
-0.659040
-0.177847
0.954739
0.128812
-0.291925
0.694830
0.347897
0.259332
-0.775049
0.861236
0.556049
0.320204
0.831445
-0.818430
0.210268
-0.721670
0.428767
-0.278021
0.450757
0.366755
0.908306
1.332855
0.477034
-0.510040
-0.382836
0.884414
-0.087814
0.518778
0.297107
-0.804569
-0.582606
0.636199
0.017583
-0.627867
-0.234989
0.725659
-0.933037
-0.887092
-0.015009
-0.677774
1.006559
-0.513900
0.689867
1.062243
-0.208974
-0.240510
1.280708
-0.253122
0.882039
0.295434
0.382048
0.322970
-0.005748
-0.391303
0.560294
0.338784
-0.654438
-0.536172
-0.151016
0.635221
-0.340742
0.266378
0.271420
0.676842
0.638511
-0.963568
0.402500
0.735786
-0.815844
-0.580031
1.122867
-0.841187
-0.267732
0.434475
1.286364
1.035060
-0.463490
0.892843
1.068820
1.040438
-0.080784
0.312091
0.154586
0.915993
0.791947
-0.293816
0.246186
-0.869049
0.170012
-0.904830
0.766172
0.829270
0.361548
0.037593
0.506112
0.000060
0.076375
-0.088981
-0.263600
-0.195267
0.049448
-0.218287
0.502925
-0.405276
-0.821464
0.369956
0.978154
-0.203428
0.114189
0.898798
-0.358387
-0.892013
0.085013
0.749958
0.966874
-0.123141
-0.543858
0.213059
0.007810
0.626153
0.308229
-0.226017
0.455423
-0.330222
0.811575
-0.008412
0.692566
-0.279084
0.748078
-0.628544
-0.770806
0.307723
0.049873
0.647314
0.515349
0.471195
-0.214579
0.307823
1.020200
0.824531
0.079298
-0.432826
0.826956
-0.849032
-0.682868
0.793829
0.027827
-0.226726
0.006889
-0.964362
-0.600573
-0.684882
-0.190380
0.854850
-0.022248
-0.394374
-0.157162
-0.325229
0.530214
-0.283521
0.071038
0.663835
0.900831
-0.856268
0.091882
0.255073
0.463582
0.778082
-0.543500
0.414859
0.531235
0.509225
0.982033
0.358191
0.660193
-0.700835
0.152020
-0.311980
0.072438
-0.841091
-0.276342
0.471865
-0.525973
0.535451
0.328574
0.460781
-0.839348
-0.844194
-0.862649
0.684964
-0.157661
0.156780
0.290048
-0.306737
0.257487
-0.646071
0.902286
-0.300440
-0.891939
-0.654501
-0.885581
0.639296
0.854724
-0.903548
-0.002513
0.514917
-0.604383
-0.850493
-0.797062
0.468055
-0.691584
-0.073404
-0.060080
-0.217557
-0.540126
-0.733364
-0.758634
-0.385652
-0.590262
-0.644978
-0.724383
0.239372
0.498782
0.552645
0.921788
-0.249062
0.901243
0.824074
0.450498
-0.990696
-0.830427
0.564917
0.648600
-0.975702
0.661369
-0.353913
0.539215
-0.943014
-0.204406
0.742153
0.525041
0.104009
-0.331251
-0.535039
0.886452
0.128622
-0.268403
-0.872182
0.742970
0.141335
-0.517160
-0.981413
-0.619293
0.981622
0.571232
-0.697505
-0.267441
0.472475
-0.873431
-0.816943
0.481780
-0.703858
0.747975
0.130380
-0.679560
0.409344
0.776467
0.859655
0.466329
-0.427940
0.601808
-0.008630
0.676070
-0.729443
0.456331
0.562522
0.399179
-0.812071
0.690340
0.142149
0.329264
-0.826820
0.160736
0.709971
-0.845198
-0.268032
-0.987535
-0.112639
-0.795556
-0.860966
0.070418
0.686224
-0.564824
-0.181607
-0.183397
-0.244384
-0.772264
-0.406930
-0.384728
0.694066
0.165131
-0.782920
-0.314564
-0.158800
-0.512363
-0.858233
-0.596278
0.886816
-0.670304
-0.905938
0.028966
0.658960
-0.732758
-0.810298
0.368931
-0.577956
-0.078330
0.381396
0.309405
0.126114
0.520430
-0.620177
-0.187662
0.955607
0.198215
0.628941
-0.288777
0.425952
-0.777989
0.326495
0.120017
0.387142
0.543575
0.805453
-0.771658
-0.968788
0.947221
-0.367935
0.918028
-0.723083
-0.273873
-0.053006
0.935877
-0.006631
0.136696
0.304808
0.415413
-0.941634
-0.313796
-0.275182
0.184480
-0.793366
0.104641
0.996818
-0.837759
-0.697144
0.625759
-0.126536
0.728807
0.847770
-0.800041
-0.151175
0.234912
0.743534
-0.345722
0.463254
0.774746
-0.398501
-0.904681
0.692774
-0.121585
-0.178554
-0.360232
-0.185708
0.814816
0.776463
-0.880900
0.230229
0.834829
-0.194697
0.955046
0.019309
0.011938
0.059687
0.016127
0.174178
0.362543
-0.358115
-0.952358
0.091350
-0.510344
-0.752399
0.940175
0.724568
0.991136
-0.405547
0.187822
0.765881
0.195951
0.283141
0.458656
-0.925633
-0.895413
-0.901577
-0.111341
0.919403
0.874887
0.007759
0.149632
0.709716
0.813062
0.104678
-0.270975
-0.175000
-0.835635
0.745151
0.999178
0.526908
-0.612963
-0.953179
-0.381742
-0.123308
-0.705578
-0.441567
-0.398740
-0.714442
0.152886
0.789082
-0.948561
-0.651163
0.072224
0.510095
-0.576796
0.176811
0.608518
0.214577
-0.001072
0.386118
-0.680378
-0.754155
0.193120
-0.867316
0.350523
0.922145
-0.042316
0.514888
0.667296
-0.043138
0.041796
-0.945667
0.003683
0.660054
-0.068975
0.298105
-0.781513
0.532285
0.583662
0.371373
0.321367
0.635101
0.761563
-0.565057
0.187194
-0.743001
0.738765
-0.066170
0.597773
-0.190890
-0.846882
0.774837
-0.086127
0.431650
0.952410
-0.693603
0.352383
-0.134732
0.777873
0.019679
0.822130
-0.180331
0.074011
-0.174188
-0.520277
-0.994964
-0.876083
-0.301789
0.537321
0.707579
-0.889064
0.029821
0.581694
1.069803
0.611829
-0.041304
1.221487
-0.143349
-0.109521
-0.151542
-0.160938
0.542187
0.228475
-0.580558
-0.091151
0.070971
-0.335259
-0.738671
0.936238
-0.557386
0.281008
0.758368
0.262283
-0.644981
-0.415819
0.742006
-0.639945
-0.227070
-0.226533
1.284516
-0.279886
0.058848
0.398778
1.149614
0.135865
-0.538895
-0.501879
-0.627206
-0.049182
0.593757
0.387632
-0.563933
-0.065265
-0.215541
-0.277923
0.875478
0.855649
0.386818
-0.863193
0.791887
0.829432
0.417815
0.550256
0.091715
0.772834
-0.742539
0.166971
-0.477229
0.088507
0.498855
-0.615898
0.934543
1.385457
0.255792
-0.085129
-1.275726
-0.599031
0.281502
-0.263622
0.876735
-0.242311
0.902987
0.946014
0.717157
-0.277892
-0.331909
0.592635
-0.422243
-0.945091
0.729442
-0.630355
0.884341
0.147257
1.114511
0.244476
0.242401
-0.673833
0.865378
0.389600
0.655609
0.973627
0.036971
-0.743594
-0.255246
0.842119
-0.090939
0.018073
0.217425
-0.483297
0.365550
-0.710062
0.185078
0.204355
-0.764048
-0.097765
0.926464
-0.095957
-0.505130
-0.495779
-0.041048
-0.775688
0.003645
0.111713
0.704123
-0.044592
0.955276
-0.497918
-0.003993
0.820852
-0.247128
0.390353
-0.709754
-0.249691
0.862202
0.277820
-0.981478
0.115614
-0.355116
-0.038301
0.506158
0.798006
0.251637
-0.308765
0.002362
0.487589
0.593470
-0.071175
-0.608367
-0.911660
0.562825
0.629248
-0.460188
-0.486796
-0.689809
1.339402
0.289745
-0.879231
1.321693
0.731326
0.990081
0.471569
1.164126
-0.583989
0.467633
0.634974
0.917882
-0.954141
-0.334485
-0.533434
0.007558
-0.828328
-0.735427
-0.740805
-0.137092
0.266934
0.746784
-0.543622
-0.770274
-0.582920
-0.420650
0.754653
0.521112
0.377973
1.445220
2.065816
0.117826
0.889708
1.103436
-0.407712
-0.184368
0.185686
0.563110
-0.411611
0.710269
0.586396
-0.727263
0.629136
0.632255
-0.061749
-0.904297
-0.360187
0.109924
-0.639725
-0.100992
0.972832
0.661176
-0.319576
-0.536159
0.884552
0.816757
0.619316
1.094513
-0.664928
1.514826
0.801427
0.158418
-0.870370
-0.529200
0.367712
-0.349487
0.376025
-0.007805
-0.269992
-0.912015
-0.315695
-0.685255
-0.639278
-0.686558
0.947001
0.298973
-0.590856
-0.413186
-0.591103
-0.243815
0.482833
-0.529753
-0.443633
-0.854754
0.334926
-0.298426
0.515640
0.825906
0.447914
0.408548
0.410096
0.371132
0.314748
1.047378
0.491233
-0.235584
-0.118937
-0.108197
0.787974
0.607755
-0.020211
-0.527720
0.922500
0.340511
-0.214278
0.869501
-0.360516
0.181631
-0.546674
0.204671
0.831862
0.756478
0.600168
-0.030324
0.166652
-0.832345
-0.522977
-0.313962
-0.921963
-0.388638
-0.401809
0.622341
0.195509
0.331049
0.632561
-0.206508
-0.878952
-0.489475
0.685295
0.909023
-0.881720
-0.334916
-0.618698
-0.959220
-1.099798
0.153789
0.907292
-0.362213
-1.199652
-1.012635
0.239419
-1.282171
-1.926300
-0.042335
-0.907321
-1.263523
0.323556
0.602017
0.776962
0.321433
0.250698
0.572942
-0.000184
-0.169766
-0.125611
-0.336283
0.623725
-0.004562
0.174242
0.309020
-0.095540
0.292521
0.868712
0.411167
0.371664
0.682087
-1.123375
-0.709085
-1.300550
-0.916354
-0.795170
-1.070411
0.389301
0.362405
0.015106
1.018836
-0.331363
-0.280087
-0.223261
0.682894
-0.835839
-0.384965
0.224108
0.229539
0.445269
-0.901503
0.893256
0.068994
0.093935
0.067498
-0.621986
1.195227
-0.458603
-0.637536
0.294135
0.538039
-0.777877
0.878059
-0.533025
0.354603
-0.297665
0.103272
-0.335369
0.984403
-0.242118
0.038129
0.564190
-0.223172
0.524489
-0.384033
-0.559172
0.719989
0.231002
0.664936
-0.050471
-0.323729
0.763433
-0.157215
0.745265
0.054200
1.057694
-0.882013
-0.011878
-0.455454
-0.022644
-1.571759
0.962191
0.158888
1.524735
0.356075
-0.132146
-1.203087
0.549443
-0.456189
-0.799315
0.923157
0.793300
0.641382
-0.319027
0.278312
-0.742651
0.121801
-0.001699
0.488350
-0.213263
0.947830
-0.835379
-0.449830
-0.103327
1.054197
0.710466
-0.266013
-0.220373
-0.144026
0.754570
0.499776
0.120645
0.143151
-0.377545
-0.985834
0.585472
-0.152666
-0.326749
0.211177
-0.843534
-0.170462
0.196543
0.873479
-0.529080
0.877516
0.151790
-0.271731
-0.000683
-0.849908
-0.783381
0.786054
-0.902078
-0.505435
-0.464326
-0.187997
-0.678660
0.693343
0.593718
-0.413533
-0.645600
-0.266536
-0.135486
-0.574466
0.277045
-1.098087
-0.419656
0.221000
0.198500
0.398945
-0.386243
0.346420
-0.771517
0.810299
0.219898
-0.300596
0.687815
-0.628311
0.427673
-0.312868
-0.478220
0.644292
-0.516570
-0.183473
-0.986099
-0.281651
0.648670
-0.541246
-0.396590
0.137671
-0.223091
-0.277716
0.562880
0.317421
-0.039084
0.072584
0.592720
0.660884
-0.515421
-0.149368
0.059829
0.098335
-0.802949
0.288312
-0.091365
0.416950
0.987716
-0.403550
0.788638
0.415389
0.283582
-0.699365
0.171378
0.868465
0.082041
0.238794
-0.372093
-0.499910
0.555452
0.151445
0.568135
-0.915296
0.628097
0.142867
0.516620
-0.349909
-0.651880
0.139046
-0.689025
-0.167301
0.989678
0.370804
0.931034
-0.813271
-0.340883
-0.160331
0.603679
-0.353167
0.436119
0.392317
-0.937779
-0.280300
0.702736
0.121902
-0.523532
-0.367143
-0.792886
0.042644
0.071218
0.608985
-0.838009
-0.392747
0.651805
0.841568
0.801601
0.168425
-0.508340
-0.850279
-0.692529
-0.197365
-0.017580
-0.702851
-0.826561
-0.086546
-0.516122
-0.167444
0.753123
-0.912443
0.479388
0.189241
0.479875
0.541610
0.908942
0.182611
-0.336489
-0.614591
0.815468
-0.129375
0.428054
-0.113314
-0.520389
0.590045
0.493939
-0.868584
0.431613
0.295541
0.299841
0.923273
0.445262
0.607312
-0.274092
-0.572318
0.904461
-0.100652
0.341136
-0.611661
0.731904
0.094259
-0.524103
0.211292
-0.716500
0.955771
-0.247098
-0.807558
0.138382
0.416413
-0.422149
-0.046149
-0.712962
-0.994095
0.840536
-0.233351
0.595949
0.334475
-0.101936
0.027563
-0.369984
-0.802095
-0.049164
-0.924722
0.805217
0.676744
-0.497040
0.709678
-0.423908
0.844096
-0.901982
-0.692005
-0.061645
-0.426086
0.519287
0.221854
-0.470314
-0.727811
0.414296
0.668068
0.688602
0.992147
-0.378081
0.975640
0.998052
-0.537545
-0.257712
0.594001
0.796931
0.640353
-0.378436
-0.573054
0.838258
0.572399
-0.497776
0.643475
0.249143
0.005184
0.353153
0.825235
-0.150720
0.451171
-0.866770
0.787635
-0.974915
0.652518
0.009489
-0.445229
0.924707
-0.576215
-0.777161
0.613308
-0.584068
-0.155242
0.588948
-0.586016
0.307213
-0.668764
-0.992015
0.104144
0.971589
-0.370451
0.531090
0.809847
-0.798052
-0.966686
0.453321
0.451091
0.038499
-0.193525
0.276326
0.887779
-0.742355
0.409556
0.675414
-0.717269
0.062074
-0.315097
-0.162499
-0.013219
0.108689
0.060341
-0.399911
0.524621
0.905099
-0.810963
0.938605
0.212312
-0.479726
0.946590
-0.683545
-0.508137
-0.423862
0.847545
-0.698291
-0.221914
0.880860
0.755031
-0.770823
-0.080642
-0.438495
0.505503
-0.192863
-0.180849
-0.084940
-0.517449
0.101881
0.977134
0.167455
0.939383
-0.036085
-0.723857
-0.000277
0.564004
0.800764
-0.095178
0.753042
0.739368
-0.882866
-0.726684
0.685958
-0.566411
-0.234822
-0.737904
-0.718866
0.066888
0.040182
-0.838007
-0.178081
0.269360
0.081352
0.383424
-0.225137
0.888489
-0.797425
0.689923
-0.628960
0.304456
0.667057
0.538495
0.243839
-0.369028
0.814638
-0.756438
-0.805024
0.615402
0.148384
0.949756
0.356509
0.267257
-0.778667
0.040728
0.699106
-0.013489
0.302824
0.980240
-0.946601
-0.656993
-0.857766
-0.124682
0.612366
0.223585
-0.741259
-0.612771
0.112074
-0.538684
-0.922848
0.483115
0.765772
0.744209
0.021610
0.009610
-0.584301
-0.123233
0.290324
-0.399079
-0.514581
-0.534581
-0.421526
0.866721
0.698546
-0.242991
-0.172293
0.346739
0.761087
-0.795516
0.346421
0.779416
-0.507021
0.488654
-0.345266
-0.894654
-0.287761
-0.086525
-0.507425
0.824314
0.374791
-0.430273
0.307429
0.140563
-0.645546
-0.635888
-0.805890
-0.249086
0.358969
0.603638
0.517691
0.846891
0.978669
0.866091
0.510267
0.512505
-0.502674
-0.754151
-0.179228
-0.757032
-0.579523
-0.815423
-0.977616
-0.086543
0.673231
-0.322882
0.018802
-0.614529
0.590594
0.511377
-0.790215
-0.003994
-0.854943
0.581166
-0.856647
-0.468287
1.137459
-0.411837
0.374811
0.177043
0.714335
-0.620115
-0.548094
0.297414
-0.909096
-1.131919
-0.351222
-0.536269
-0.677664
0.774503
-0.119212
-0.257187
0.959080
-0.096828
0.656270
0.632311
0.580290
-0.324928
-0.982218
0.202447
-0.749597
-0.741439
-0.841476
-0.587032
0.999402
-0.425017
0.116385
0.844867
-0.497355
0.688101
-0.379964
-0.939081
-1.076744
0.184214
0.358790
-1.026186
0.282877
-0.441477
-0.151143
0.605213
-0.666974
0.729645
-0.651974
-0.707894
-0.367183
-0.995704
0.924418
-0.761718
-0.287298
0.975533
0.413462
0.030644
-0.433083
0.891203
0.569303
0.831620
0.600259
0.528828
0.463477
-0.638069
0.790308
-0.662473
-0.811745
0.428736
0.339195
-0.959199
0.843909
-0.377928
-0.400676
-0.307234
-0.772715
-0.067650
-0.577590
-0.424689
0.224457
0.049780
-0.387059
0.182205
0.316280
0.579853
0.487053
0.206196
-0.530430
0.057187
-0.813823
0.450761
0.391949
1.094678
0.290514
-0.221833
-0.856206
-0.433213
-0.210884
-0.385495
-0.770308
-0.871690
-0.344694
-0.926400
-0.249618
0.254630
-0.233634
-0.022334
-0.813020
0.183329
0.586307
0.442585
-0.715653
-0.549926
0.050158
0.841298
0.560686
0.987130
-0.654087
0.617927
0.065970
-0.452192
0.043433
-0.787738
-0.746814
0.771727
-0.231418
-0.531805
-0.574552
0.557698
0.082700
-0.344860
0.686008
0.738006
-0.271259
-0.563610
-0.007365
0.485159
0.447386
0.171985
-0.313611
0.164780
0.050280
0.181489
0.230969
0.581959
-0.439767
-0.737975
-0.337173
-0.495456
-0.804929
0.683820
-0.132228
-0.211732
0.802594
0.214452
-0.389338
-0.428824
0.682646
0.036111
-0.871127
-0.234654
0.691251
0.814881
-0.496648
-0.589956
-0.756360
0.488356
0.906253
0.774219
-0.174257
-0.255163
-0.153934
0.673403
0.675034
0.548287
-0.731646
0.818226
-0.744206
0.255769
-0.675096
-0.782183
-0.058030
0.514119
0.012713
-0.261659
-0.271429
0.623375
0.309517
-0.588783
-0.340514
0.438390
0.176563
-0.660451
0.242080
0.672283
-0.340791
0.454807
0.349952
-0.150540
0.330192
1.213366
0.774585
0.739856
0.024793
-0.004003
0.590622
0.452150
-0.465476
0.507275
-0.236831
0.350751
0.988037
0.692695
-0.135129
0.000749
-0.568964
0.593441
-0.375876
0.740553
-0.995342
0.272422
0.167752
0.172211
0.525363
-1.018331
-0.217281
-0.344993
1.016295
-0.728372
0.344716
0.180794
0.810282
-0.212561
0.280276
-0.000582
-0.102873
-0.804992
-0.624992
0.966157
-0.799580
0.299825
0.316908
-0.811544
-0.007480
-0.818221
0.189206
0.423556
0.773039
0.802142
0.152918
0.767746
-0.060687
-1.205090
-0.208658
-0.541320
-0.061503
0.952234
-0.156436
-0.295436
1.169085
-0.485461
1.054747
0.828099
-0.659358
-0.520537
-0.476487
0.790360
0.170566
0.297392
0.756517
0.370985
-0.402782
0.073425
0.559442
0.589738
0.253022
-0.223759
0.042623
-0.019442
-0.514285
-1.075700
-0.329930
0.617024
-0.466483
0.896213
-0.864704
0.357316
1.021444
0.725227
-0.821061
0.406798
0.491469
0.577769
-0.030277
-0.643198
-0.446097
0.955239
-0.852838
0.724469
0.252631
0.903679
0.095454
0.849849
-0.022896
-0.305382
0.474657
-0.775532
0.450817
-0.253639
0.470916
1.208596
0.156968
-0.412064
1.098832
0.365207
0.986713
-0.872206
-0.495027
0.389801
0.332950
-0.794418
-0.276890
0.295035
-0.719391
-0.908295
0.651837
-0.165488
-0.953057
0.798999
-0.441019
0.299574
0.702678
0.694157
0.194440
-0.322831
-0.615674
-0.211353
0.131179
0.905442
0.609975
-0.317245
0.650757
0.517636
-0.845819
0.256743
-0.039306
-0.810037
0.079438
0.039829
0.361491
-0.141323
0.723589
-0.578663
-0.846288
-0.995802
-0.486959
0.805548
-0.161290
-0.440016
0.604547
0.397691
0.864057
0.316948
0.159282
0.025209
1.256282
0.706729
0.973108
0.100182
0.045647
-0.535974
0.175596
-0.283371
-0.814320
0.177848
-1.168599
-0.030922
0.419278
0.373027
-0.595652
-0.055589
-0.768296
-0.872063
0.365747
-0.614584
-0.867865
0.878789
-0.809035
-0.029155
-0.561227
0.831354
-0.521355
-0.551558
0.362223
0.692986
0.324232
0.195039
-0.330948
-0.297092
0.849785
0.840939
0.531141
-0.108251
-0.561945
0.860216
-0.616210
-0.335270
-0.007788
0.798578
-0.962243
0.396559
-0.257011
-0.730539
0.524496
-0.891263
-0.345123
0.656631
0.987525
-0.154158
-0.372527
-0.488330
-0.169049
0.185558
-0.083515
0.942166
-0.395071
-0.779799
-0.109171
0.278815
-0.148341
-0.343144
0.063407
-0.518385
0.884695
0.664418
-0.660323
-0.730048
-0.670852
0.331889
-0.931469
-0.633095
-0.271552
-0.188480
-0.363633
-0.747056
-0.079744
0.291244
0.909574
-0.065109
-0.673381
-0.273417
0.525646
-0.023774
0.721029
-0.753323
-0.279684
0.985098
-0.873983
0.364616
0.148440
0.027815
-0.820963
-0.796228
0.510339
-0.935534
0.868190
0.850017
-0.665582
-0.802661
0.181905
-0.597051
-0.435756
0.910353
0.214469
0.200611
-0.836703
-0.865275
-0.508145
-0.927129
0.042507
-0.371059
-0.390079
-0.623413
0.407381
-0.857017
-0.564703
0.929911
-0.907282
-0.474048
0.286275
0.241247
0.553856
0.465312
0.445019
0.064195
0.529778
0.313210
-0.085788
0.864196
0.510548
-0.903883
-0.732855
-0.925208
-0.993530
0.481614
0.275403
-0.830233
0.616339
0.767258
-0.757362
-0.341154
-0.603800
-0.147441
0.035432
0.803581
-0.004458
0.470730
0.733492
0.088260
0.996682
0.019767
-0.670493
0.550538
-0.514920
0.774527
-0.385267
-0.985143
0.087737
0.528944
0.879054
-0.401715
0.625061
-0.853801
-0.326923
0.631532
0.627812
0.948480
0.801299
0.244151
0.715738
-0.956063
0.902996
-0.888062
-0.103504
-0.061571
0.915519
0.892038
-0.590841
0.649011
-0.019701
-0.594159
-0.331222
0.309806
0.956378
0.153857
0.084333
-0.428889
0.168715
-0.827931
-0.899945
0.047768
-0.229646
0.725117
0.193967
0.443431
0.356648
-0.178221
0.391912
0.157947
-0.934070
0.107650
0.201884
0.968927
0.219588
-0.901620
-0.092645
0.135107
0.990419
0.316514
-0.215882
-0.029283
0.722355
0.452895
-0.719477
0.678733
-0.393247
0.364856
-0.750156
0.775468
0.536926
-0.650101
-0.176764
-0.692720
-0.924984
-0.982797
0.750711
0.431664
-0.161018
0.142623
-0.410389
-0.095088
-0.749727
0.791495
-0.126161
0.469862
0.889875
0.781194
-0.395032
0.880294
0.097708
0.389086
-0.148989
-0.179937
-0.158019
0.131534
-0.501204
0.448734
-0.503609
-0.251359
0.224202
-0.966684
0.098540
-0.952562
-0.659404
0.173556
-0.935359
-0.908692
-0.394780
-0.096377
0.233931
0.194831
0.808535
0.484204
-0.013674
-0.317626
-0.045934
-0.123799
-0.536432
0.559034
-0.243505
0.561276
-0.051880
0.607506
-0.618660
0.790101
-0.260960
-0.119864
0.238835
0.235431
0.628777
-0.536963
0.268747
-0.272683
-0.489525
0.609343
0.900873
-0.424884
0.700651
-0.493907
0.478739
-0.065419
0.700924
0.287274
-0.581215
-0.312750
0.969647
0.372851
0.563451
-0.566784
-0.068115
-0.680054
0.994492
0.880005
0.927452
-0.624168
0.670106
-0.333508
0.255968
-0.091058
0.901923
-0.115256
0.371979
0.170670
0.612061
0.882454
-0.219987
0.512934
-0.542430
-0.519336
-0.980973
0.936308
0.415245
0.719951
0.223582
0.834030
-0.592799
0.193229
0.206881
0.970652
0.626445
-0.859466
-0.707634
0.622705
-0.981229
-0.781950
0.996768
0.688878
-0.115458
0.252736
-0.402180
-0.213535
-0.862520
0.969799
0.957135
0.749541
0.852253
-0.262852
0.262475
-0.690178
0.217812
0.281502
-0.753870
-0.366943
0.001454
0.469712
-0.524951
0.416616
-0.329089
0.645012
0.379172
-0.863975
0.662129
0.519300
0.755953
0.672656
0.883989
0.903123
0.521104
-0.222815
0.159826
-0.881796
0.558963
0.297306
-0.911997
0.516099
0.046847
0.940256
-0.746753
-0.690678
-0.749922
0.471059
0.590825
-0.503791
-0.887923
-0.413713
0.994393
-0.551894
-1.059406
-0.237686
-0.462032
0.295951
-0.162790
-1.000317
-0.041697
-0.264704
1.049878
-0.096417
-0.186618
0.409800
0.710602
0.895487
0.528004
0.269566
0.192793
0.616007
-0.214336
-0.760360
0.556263
0.038911
-0.451038
0.804495
-0.499635
-0.838079
-0.674425
-0.512529
0.010370
-0.444714
0.339588
-0.199628
-0.049026
0.361469
-0.962377
0.678156
0.430557
0.031862
-0.482586
0.377722
-0.898507
0.379811
-0.212413
0.812095
0.275297
-0.684409
0.081661
-0.531910
0.931599
0.867325
-0.292270
0.508987
-0.103369
0.235638
0.157745
0.327532
0.683573
0.926816
-0.476515
-0.647738
0.882178
0.396779
-0.050872
-0.046950
-0.573465
-0.262120
-0.657561
-1.026850
-0.861826
0.222288
0.512209
-0.760333
-0.397901
-0.700204
-0.948238
0.877396
-0.384613
0.133423
-0.654514
-0.468811
-0.007011
0.077197
-1.117687
0.806921
-0.339077
0.740339
0.720442
0.813722
0.102823
0.430521
0.976694
-0.208305
-0.479810
-0.509654
0.021968
0.083598
0.671257
-0.868274
0.349540
0.809431
0.354014
-0.138251
-0.950902
0.956113
0.161545
-0.899140
0.833509
0.762980
0.226523
-0.798167
-0.831730
-0.769005
0.489083
-0.187345
-0.560799
0.660362
0.731853
0.568558
0.227123
-0.037681
-0.219077
0.070872
-0.188053
0.266555
0.779908
-0.041757
-0.397119
0.451165
0.089968
0.952421
0.260596
-0.556018
-0.185831
0.309694
-0.599905
0.961762
0.401651
-0.751678
0.619711
-0.362318
-0.485720
-0.828756
0.099667
1.018897
0.175709
0.651071
0.621742
-0.487724
-0.366188
-0.715864
-0.812743
0.093571
0.518871
-0.858571
-0.306459
0.298779
0.099672
0.296422
-0.250056
-0.810360
0.248842
-0.989460
-0.366378
-0.971159
0.311332
0.010503
-1.077428
-0.365139
0.116323
0.429760
0.546315
1.131710
1.732274
-0.230367
0.684633
-0.799667
0.149331
-0.715393
-1.043981
0.713456
-0.052900
0.163192
0.070235
-0.534029
0.304621
0.763776
0.764750
-0.595707
0.060198
-0.485306
-0.406067
-0.725130
-0.497980
0.204342
-0.559779
0.413233
-1.040943
-0.970921
-0.435959
0.427509
-0.359707
1.217557
0.200285
-0.866213
-0.825213
-0.757706
-1.037249
0.422426
-0.016340
-0.200232
0.249189
0.992011
0.962960
-0.680576
-0.542018
0.267581
-0.916800
-0.777268
0.671874
0.124080
-0.283035
-0.725668
0.217327
-0.145735
0.383684
0.866844
0.048482
0.567499
-0.937808
0.884736
0.369514
-0.452005
0.614283
-0.606040
-0.832107
0.620047
-0.036260
-0.119152
0.328356
-0.930098
0.680616
-0.422455
-0.938088
0.643576
-0.103031
-0.480106
-0.088843
-0.039149
-0.277835
-0.397569
-1.141243
0.143975
-0.148072
0.991951
0.122667
-0.989813
-0.264356
0.757316
-0.886210
0.996688
0.662563
0.184817
-1.113779
-0.052192
0.810492
-0.419336
0.015106
-0.103202
0.461511
-0.656538
-0.033300
0.142127
-0.078992
0.028612
-0.222417
0.798659
0.528045
0.685169
-0.471883
-0.943005
-0.455079
0.174777
0.871020
-0.097219
-0.660377
-0.119507
0.504822
0.998706
-0.704699
0.544310
0.357290
0.686535
-0.274697
0.607126
0.071444
-0.180367
-0.812211
-0.913450
0.716431
0.649301
-0.569987
-0.316869
-0.216692
0.337894
0.699243
0.572972
0.197415
0.196896
0.563920
0.874476
0.324145
0.663587
0.046918
0.618344
-0.328630
0.292678
0.786411
-0.868761
0.090562
-1.012222
0.498776
-0.181273
-0.898840
-0.330875
-0.574147
0.172604
0.488758
-0.386358
0.259155
0.205189
-0.737057
0.718333
0.881189
0.078953
0.124389
0.770415
-0.025280
-0.996047
-0.093534
1.099515
-0.378565
-0.333974
0.586310
-0.090340
0.777945
-0.739805
-0.553785
0.357299
-0.765793
0.736511
0.771919
-0.983179
-0.444762
0.873080
-0.314054
-0.018910
0.045684
-0.825296
0.594732
-0.665995
0.406932
0.850817
1.101182
0.062127
-0.132739
-0.162821
-0.208582
0.503209
0.625811
0.980309
0.414733
0.388726
-0.636861
0.258638
-0.752088
0.662176
0.050637
-0.063378
0.445260
0.345924
-0.326867
0.217179
0.362746
0.228371
0.090259
-0.951308
-0.790539
-0.864057
-0.757527
0.823569
-0.530274
0.282525
0.267429
-0.558458
0.111733
-0.287967
0.457446
0.949386
-0.702826
-0.411222
0.526939
0.335265
-1.191871
0.473943
-0.524778
-0.383059
0.483190
0.525324
0.553563
-0.071550
-0.128751
-0.773304
-0.854371
-0.766005
0.455067
0.235888
-0.717313
0.661840
0.431909
-0.403410
0.622895
1.103741
-0.571146
0.238486
-0.593852
0.215147
0.694050
0.711539
-0.471634
0.831493
-0.706268
-0.945915
0.418995
-0.439200
0.797678
0.863391
0.177741
0.280868
0.388715
-0.268695
-0.790682
-0.740036
-0.041999
-0.645053
-0.506042
-0.586932
0.589691
-0.211849
-0.838646
0.046321
0.376701
0.579037
-0.162276
0.455690
-0.259664
0.062526
-0.521565
-0.525413
-0.318112
0.128343
-0.766102
0.167798
0.282668
0.591841
0.728598
0.080346
0.455232
-0.093661
-0.638786
-0.156052
0.637644
-0.429468
0.103911
-0.404355
-0.074521
0.607809
-0.050830
-0.543230
-0.685126
-0.034583
0.387812
0.566078
-0.488267
-0.797151
-0.002060
0.248181
0.281110
0.426504
0.690936
-0.984008
-0.484032
0.894308
0.183790
0.798636
0.486149
-0.087612
-0.121018
-0.058619
0.818727
0.240195
0.785329
0.456371
0.810727
-0.110760
-0.947984
-0.263794
-0.512890
0.060729
0.252519
-0.138375
-0.852962
-0.268502
-0.481131
-0.220337
-0.014246
0.568216
-0.910808
-0.737313
-0.009456
0.780128
-0.721321
0.506513
0.674436
0.462469
0.305149
0.160585
-0.625144
-0.815870
-0.898034
-0.806417
0.424325
0.887295
0.649954
0.235053
-0.223465
0.701970
0.971258
0.263645
-0.237301
0.223777
-0.874730
-0.090262
0.955275
-0.355861
0.689401
-0.058972
-0.787646
0.778593
0.203716
0.202898
0.558721
0.482395
-0.290589
0.233157
-0.055137
-0.985440
-0.606258
0.319720
-0.801310
-0.504291
0.513303
0.623015
-0.616996
0.163257
-0.141932
0.159539
-0.134773
-0.170674
-0.576816
0.627926
-0.946897
-0.451546
-0.462336
-0.991622
0.192593
-0.772936
-0.050593
0.404947
-0.994343
-0.846878
-0.392154
0.564378
0.635517
0.317257
-0.202465
-0.419620
0.331817
0.191277
0.900100
0.530506
0.686986
0.413402
0.153522
-0.930010
-0.423341
-0.988411
0.229529
0.441885
-0.159085
0.652713
0.069812
-0.105981
-0.798832
0.607475
-0.097603
0.393761
0.834540
0.851804
-0.201292
0.840197
-0.995074
0.406554
0.404575
0.640443
-0.276189
-0.797890
-0.779177
-0.944372
0.393388
-0.879078
0.586134
0.080373
0.534325
-0.260344
0.150363
-0.889017
-0.248755
-0.620108
0.552869
0.592160
-0.967395
-0.377319
-0.513821
-0.766227
-0.769844
0.388576
0.627534
-0.935304
0.240380
-0.573758
0.904893
0.245306
0.832796
0.309468
-0.114251
-0.443393
0.511578
0.106572
-0.387765
-0.095034
0.227494
-0.801631
0.985339
-0.238181
-0.061975
0.135702
-0.127198
0.689270
0.515594
-0.574329
0.281430
0.548199
0.048352
0.767609
0.781972
0.278508
0.156186
0.409505
0.343204
-0.603434
0.835747
0.248096
0.641872
0.668543
-0.442436
-0.472379
-0.774850
-0.930858
0.634192
-0.162615
-0.025892
-0.138313
0.035754
-0.040553
0.623505
0.973779
-0.904851
-0.503692
0.663049
0.610742
-0.078021
-0.055521
0.158941
0.970331
-0.287911
-0.059087
0.248839
0.868274
-0.649582
-0.407957
-0.735160
-0.813835
0.840140
0.906712
0.854708
-0.602296
-0.565668
-0.920142
-0.533154
-0.931475
-0.082757
0.440954
-0.069789
0.952998
-0.599600
-0.446283
0.926777
-0.504451
0.050025
0.589826
-0.893708
0.972004
-0.465695
0.265233
0.942335
0.246394
-0.793855
0.190103
0.113596
-0.444509
0.783218
0.379508
-0.257272
0.623357
0.286220
-0.402564
-0.978939
0.720552
-0.322706
-0.512093
0.789077
0.594538
0.928861
-0.280711
0.547535
-0.670739
0.273005
0.474312
-0.175190
-0.676970
0.064138
-0.068898
-0.829595
0.473814
-0.901111
-0.806544
-0.225321
-0.637748
0.429048
0.960009
-0.011167
0.212655
0.343125
0.705883
-0.160777
-0.374770
-0.700793
-0.143821
-0.654215
-0.023498
0.344086
-0.865138
-0.428961
0.272947
-0.145849
-0.881426
0.602208
-0.872844
0.592886
-0.572982
-0.674443
-0.414772
0.343486
-0.272324
-0.787395
0.368839
-0.240345
0.158569
1.219376
-0.430431
0.239209
-0.170785
0.690513
-0.617641
-0.401269
-0.541987
0.024053
-0.083044
0.314192
0.369839
0.893458
-0.341721
0.504701
-0.535503
0.931225
-0.641148
-0.416928
0.552148
-0.566001
-0.876042
1.059107
0.063493
-0.061303
0.277621
0.831199
0.242743
0.067520
-0.257820
-0.587376
-0.215503
0.138633
0.261265
0.724565
-0.303939
0.647381
-0.636314
0.156044
-0.328565
0.280642
-0.529763
-0.958727
0.174100
0.128515
0.545974
0.638597
0.077758
0.852817
-0.830693
-0.501893
-0.591156
-0.608233
-0.352637
0.504722
0.388655
1.148184
0.237623
-0.569671
-0.311564
0.524565
-0.602029
0.539040
-0.254404
0.756371
0.321118
0.445615
0.403753
0.684804
-0.398341
-0.924813
-0.034554
0.071896
-0.883539
-0.860454
-0.728040
0.591710
0.707429
0.063673
0.408292
0.795475
0.737084
1.170524
-0.302112
-0.287149
0.452431
0.779925
-0.883424
-0.831056
0.699039
-0.057402
0.964070
-0.545084
-0.400450
-0.286400
-0.788713
0.920668
-0.840785
0.615040
0.605473
-0.239126
0.690227
-0.429081
0.885603
0.735963
-0.320087
-0.945734
0.441044
-0.587882
0.043588
0.114324
-0.651370
0.395068
0.403189
0.084887
0.626322
-0.917223
-0.480886
0.746996
-0.426848
-0.538987
-0.142878
-0.460807
-0.084071
0.456672
0.252792
0.127217
0.377341
0.412007
-0.257743
-0.017187
-0.774286
-0.598078
0.533450
-1.013980
-0.904508
-1.078414
-1.386972
0.681521
-0.387710
0.863191
0.038613
0.083992
-0.679240
0.574665
-0.834426
-1.052970
-1.021006
-0.359006
0.865177
-0.408051
0.102008
-0.277701
0.131141
-0.982063
-0.821028
-0.616067
0.145154
0.556312
0.890204
0.856849
-0.357607
1.072051
-0.927895
-0.795304
0.486501
-0.800175
-0.800904
-0.850230
-0.792179
-0.044985
-0.079653
-0.290287
-0.568245
0.719858
-0.288548
-0.521825
0.856701
-0.230017
0.119170
0.721878
0.361931
-0.778822
-0.555823
-0.506927
-0.760885
-0.376851
-0.028730
0.487535
-0.717272
-0.318022
0.257216
0.095791
0.252627
0.610318
-0.282719
-0.207096
-0.861259
-0.014191
-0.837413
-0.884689
-0.771702
0.941371
0.393521
-0.410258
0.799275
-0.818739
0.107626
0.655975
-0.048756
-0.773204
0.377853
-0.686825
-0.552027
0.822030
-0.089916
-0.168913
-0.451544
0.637085
-0.927814
0.062086
-0.434269
0.591293
0.613681
0.525350
0.733498
-0.838117
0.261413
-0.235427
0.253778
-0.823666
0.464734
0.561827
-0.781260
-0.066694
-0.769015
-0.981985
0.114567
0.338611
0.673990
-0.934189
0.565407
0.051844
-0.517177
-0.842621
0.007612
0.197687
-0.213781
0.764779
-0.298616
0.045184
1.306641
1.039700
-0.311648
0.059503
-1.086836
-0.187406
0.378121
0.784424
-0.937556
-0.276914
-0.919395
0.637972
-0.633699
-0.700655
-0.428722
-0.402713
-0.682640
0.685845
0.935898
1.001619
0.855492
0.645303
0.187902
-0.804912
0.649333
0.867432
-0.323019
-0.769736
0.747733
0.130081
0.120235
-0.013645
-0.012753
-0.110865
-0.635456
0.580239
-0.921020
0.866632
0.468575
-0.713983
-0.326906
0.549180
0.923988
0.039395
0.848525
-0.504734
0.636682
-0.823846
-0.838613
0.591951
-0.697177
0.992578
-0.012229
0.144232
-1.354741
0.074405
0.222214
1.243891
0.378339
-0.871828
0.138396
0.572767
0.463521
-0.154668
-0.117132
-1.041530
-0.395577
0.043827
0.908493
-0.927002
0.329843
-0.418412
0.622178
0.253832
0.620983
0.470704
0.624843
0.226034
0.606943
0.946582
-0.465720
0.474588
0.392590
1.010574
0.525058
1.842322
-0.160586
-1.111956
0.108815
0.428894
-0.464234
-0.142543
0.077453
0.957118
0.842036
0.979639
0.998964
-0.553541
0.023466
0.907457
-0.480543
-0.646690
-0.510955
-0.858364
0.482887
-1.015868
0.583427
0.379415
0.065995
-0.280964
-0.419976
-0.832682
0.419033
0.345130
-0.666996
-0.816810
0.196359
-0.219851
-0.543851
-0.670475
0.878346
-0.387109
0.250803
-0.021704
-0.387080
0.092839
-0.042065
-0.388116
0.539298
0.981401
-0.480659
-0.941245
-0.665289
0.007121
-0.800133
0.983168
0.184318
0.597567
0.177674
-0.280973
-0.036087
-0.597217
-0.456660
-0.742976
0.813068
0.144899
-0.864044
-0.244934
0.299625
-0.709091
0.191239
0.272061
-0.095711
-0.557958
-0.749643
0.517209
0.534880
0.208292
-0.870908
0.074178
0.189693
-0.351567
0.192554
0.512216
0.558198
0.228674
0.392432
-0.331671
0.009679
-0.099015
0.363995
-0.889103
0.228531
0.898783
-0.776447
0.000845
-0.348527
-0.546146
0.892601
-0.887626
-0.256301
0.083840
0.384435
0.647988
0.525881
0.634792
0.165197
0.060762
-0.156917
0.294289
-0.865060
-0.927058
0.996809
0.293307
0.572788
0.650867
-0.387189
0.037073
-0.651754
0.724591
0.767077
0.633247
0.862961
0.056254
0.574873
-0.732601
-0.780498
-0.687003
-0.279391
-0.887897
-0.574629
0.464308
0.195942
0.809806
0.112296
-0.278176
0.444597
-0.722507
0.782585
-0.712320
0.571805
0.909489
-0.687580
0.472716
0.103901
0.798162
0.034573
0.705097
-0.172366
0.415385
0.460381
-0.318098
0.117989
0.488799
0.825514
-0.293562
0.755876
-0.954985
0.019434
-0.523515
-0.842882
0.444805
0.940792
0.353060
0.254611
0.053088
-0.925116
-0.300792
0.330581
0.857469
-0.013112
-0.097637
0.774993
0.307344
-0.583132
-0.039610
0.184980
0.530915
-0.253017
-0.913949
0.019737
-0.719176
-0.225098
-0.855325
0.769623
-0.399585
-0.148888
0.525499
-0.354569
0.870547
-0.998017
-0.197451
0.315351
0.942776
-0.844391
-0.430038
-0.004136
-0.769508
0.269170
-0.673555
-0.912039
-0.743942
0.228809
0.862954
0.563402
0.645677
-0.176656
-0.251618
0.176592
0.570327
-0.165567
-0.803671
0.851151
0.609335
-0.658997
0.620774
-0.790250
0.192116
0.146272
-0.144819
0.062662
0.148256
0.657729
-0.621986
0.091032
0.813338
-0.052024
-0.913104
-0.956170
-0.782855
-0.586659
-0.868209
-0.526797
0.642150
0.994745
-0.963394
0.287826
-0.181911
-0.215012
-0.535582
-0.611584
0.619421
-0.339253
-0.760433
0.228756
0.001750
0.860340
0.438506
-0.806134
0.006613
-0.706313
0.256528
-0.845131
0.951416
0.634542
0.245900
0.764754
-0.417482
0.332796
0.808584
-0.200337
0.746137
0.940375
0.272867
0.388287
0.935119
0.309473
-0.323887
-0.246792
-0.905539
0.140531
0.141624
0.713883
0.801278
0.381191
-0.057361
-0.196972
0.241531
-0.618855
-0.003106
-0.751856
-0.325168
-0.746578
-0.596988
-0.373752
0.887964
0.648913
-0.608997
-0.529518
-0.018291
-0.800413
0.270145
-0.272154
-0.860039
-0.456988
-0.883867
-0.924920
0.852484
-0.207754
-0.171712
0.946945
0.932777
0.969912
0.660828
0.734055
0.351103
-0.396533
-0.462917
-0.407366
-0.015388
0.533977
-0.159222
0.659444
0.787399
0.243790
-0.714308
0.675363
-0.107297
-0.323305
-0.854155
0.874412
-0.123718
0.415990
-0.397743
0.016243
0.959002
-0.281610
0.091323
0.811486
0.510636
0.919612
0.758432
0.443413
0.889524
0.419260
0.177468
0.240627
-0.977274
0.714551
0.833261
0.007338
0.248528
-0.325961
-0.333218
0.035927
0.917830
-0.047525
-0.288710
-0.189467
0.629170
-0.142865
-0.315055
-0.494549
-0.726874
0.287202
0.521694
-0.767873
-0.994408
-0.386982
-0.956386
0.516228
-0.467371
0.802046
-0.040359
-0.577846
0.221305
-0.862891
0.662781
0.244032
0.851660
0.496042
-0.748630
0.100188
-0.829918
-0.081848
-0.863885
-0.912088
0.870627
-0.152595
-0.101555
0.499797
0.704540
0.583389
-0.994752
0.977666
-0.129409
0.526942
-0.790207
-0.123817
-0.860041
-0.746593
-0.607588
-0.272592
-0.889728
0.406872
0.094742
0.276758
0.489162
-0.242477
-0.479210
0.340822
-0.746434
-0.227840
-0.558990
-0.576352
0.690312
-0.422875
-0.488440
0.560939
0.424530
0.410004
0.060735
0.129070
-0.006607
0.065983
0.106736
0.863985
-0.350590
0.373014
-0.099947
0.088635
0.744030
0.444980
0.581007
0.800923
-0.174222
-0.284028
0.111696
1.183343
0.472180
0.427828
0.314616
0.511305
-0.804904
0.755626
0.934953
0.885408
-0.667250
-0.553488
0.446347
0.757280
0.856517
-0.492918
-0.113650
-0.150090
0.629550
1.061670
-0.269822
-0.673236
0.552895
0.655171
0.165855
-0.205612
-0.607875
-0.913613
-0.316623
0.226451
-0.121435
0.261357
0.106251
-0.937697
-0.169978
-0.640314
0.573608
0.025118
-0.884689
0.508561
-0.089475
-0.551938
0.955073
-0.643128
-0.794659
0.887107
-0.046763
-0.045302
-0.329827
-0.434290
0.403011
0.605896
0.305925
-0.282113
0.321840
0.959244
0.545553
0.546203
0.832180
0.637079
-0.640019
-0.357587
0.185965
0.532446
-0.326902
-0.984013
0.892132
-0.753294
0.041105
-0.992557
0.755266
0.951630
-0.544495
0.602094
-0.602215
-0.474301
0.305111
0.274387
1.545568
-0.498878
0.976038
0.090941
0.878052
-0.148298
0.644897
-0.216590
0.571412
-0.658121
0.600916
0.330174
-0.715475
-0.708240
-0.868607
0.470490
0.824206
-0.195509
0.486477
0.716339
0.051196
-0.472419
0.723782
-0.105919
-0.507022
-1.033225
-0.526726
0.105575
0.212123
-0.664290
1.283166
-0.082746
-0.203191
1.255051
0.769396
1.203032
0.822434
-0.317207
-1.076515
0.352260
0.167334
0.973651
0.017092
0.451859
-0.734589
0.148485
-0.077652
-0.910382
0.952976
-0.591175
0.805956
0.016273
-0.049827
0.380607
0.756133
0.478972
1.157700
-0.425420
-0.435488
0.135371
0.085147
-0.037974
0.524449
-0.043931
0.659572
-0.604426
-0.899925
0.244023
0.233504
-0.461416
0.011764
-0.599162
-0.487765
-0.971144
0.852696
-0.222353
0.177341
-0.224955
-0.132736
0.142417
0.261016
-0.441843
-0.770200
-0.904252
-0.546642
1.040728
0.515351
0.627363
-0.345265
1.468399
0.428707
-0.167463
1.338049
0.246844
-0.044026
0.334559
-0.825212
0.596377
0.151135
0.408291
-0.865039
-0.837101
0.809129
-0.352804
-0.808245
0.661825
0.424843
0.428093
-0.485984
-0.598346
-0.590705
0.694530
-0.417305
-0.746637
0.599491
0.554005
0.881770
0.014531
-0.130307
-1.188894
0.208499
0.261186
0.257074
-0.160411
0.144387
-0.282626
-0.445279
0.319175
-0.686250
0.705856
-0.272533
-0.551289
0.868755
-0.463404
0.095907
-0.880492
-0.692032
-0.369703
0.266829
-0.227979
-0.449894
0.815506
0.027945
0.991484
0.401643
1.293046
-0.788674
-0.829462
0.498723
-1.046501
0.812792
-0.632254
0.584289
0.483838
0.208942
-0.287456
-0.798788
0.763662
-0.968281
-0.485038
0.469519
-0.240814
-0.036327
0.247574
0.268464
-1.057148
0.192141
0.832199
0.156871
0.559202
-0.053770
-0.104026
0.248849
-0.218437
0.126634
0.343814
-0.203690
-0.728299
-0.627483
0.543760
-0.839283
-0.544211
0.946612
0.712742
0.939627
0.155554
-0.574715
-0.859161
-0.080784
-0.542996
-0.344198
-0.701965
0.188873
0.331813
0.624553
-0.024992
1.144374
0.754272
-1.330015
-0.745452
0.298310
-0.673241
0.461912
-0.104876
0.130957
0.107501
-1.038715
-0.201037
-0.010460
-0.505822
-0.439713
0.086373
-0.050033
-0.493101
-0.200885
-0.110405
0.662452
0.224400
0.064500
-0.509032
0.654087
0.616405
-0.115201
-0.108188
0.406880
-0.791892
-0.377337
0.117152
0.790034
0.324298
0.192309
0.405328
1.196036
0.617691
-0.674673
-1.127594
0.546379
-0.479112
-0.023642
-0.337541
0.015066
0.536645
0.748832
0.965033
-0.956456
-0.452054
-0.111306
0.616964
0.801513
0.902543
-0.767366
0.887698
0.918967
0.017669
-1.119030
-0.641899
1.844398
1.434000
0.661025
0.234282
0.542740
0.548224
0.381775
-0.430074
-1.171638
-0.954956
-0.199348
0.723325
-0.434068
0.777011
-0.614216
0.580998
0.313656
-0.865384
0.546031
0.175101
-0.185474
-0.607087
0.497369
0.010293
0.238450
0.687191
0.639178
1.192666
0.897850
0.258576
0.091496
-1.763059
-0.391087
0.000366
-0.784273
0.039435
0.749483
0.899159
0.925620
0.704385
0.944203
-0.273728
0.427709
-0.489865
-0.496718
0.813493
-0.908867
0.634840
1.021074
0.875518
0.403696
-0.002026
0.183062
-0.374172
0.080914
-1.388830
0.875946
-0.282349
-1.443753
-1.371292
0.413440
0.054576
-0.419611
0.055501
0.561837
0.104614
-0.527278
0.212128
0.003772
-0.601659
-0.083488
-0.052025
0.124613
-0.655778
0.458110
0.627896
-0.825804
0.585548
0.562264
-0.696131
0.246226
0.574744
-0.388088
-0.567673
-0.403541
0.835715
-0.315209
-0.399148
-0.417206
0.528387
-0.638351
-0.961262
-0.337243
0.403138
0.345710
-0.846667
-0.492248
0.818432
0.365461
0.511524
-0.783227
-0.718027
-0.540500
0.341387
-0.373805
1.076329
-0.055078
-0.200497
-0.119223
-0.601153
-0.250733
-0.438290
-0.255572
0.539768
0.137190
0.389049
0.198683
0.350532
-0.717750
-0.818645
0.120658
-0.024501
-0.664838
0.796551
-0.621362
0.680872
0.949884
-0.113610
0.499304
0.315345
-0.602086
0.716077
0.597318
-0.142586
0.120844
-0.818210
-0.276237
-0.988959
-0.122981
-0.872394
-0.540653
0.852262
-0.095477
-0.071752
0.427508
-0.260170
0.412781
-0.035934
-0.835051
0.697225
0.236287
0.351521
-0.327276
0.571449
0.148073
0.051362
0.252321
0.097957
0.937751
-0.248375
-0.586698
-0.664335
-0.532298
-1.009358
0.107118
0.439205
-0.843857
0.906243
0.622811
0.312455
-0.851879
0.996897
0.142834
0.129222
0.492065
-0.312567
0.877756
-0.169937
0.633771
-0.924337
-0.472712
-0.129942
0.427184
0.200012
-0.558493
-0.424743
-0.748627
0.693828
0.673214
-0.810876
-0.554547
-0.913484
-0.475210
-0.086845
-0.902863
0.717869
-0.561679
-0.668729
0.685972
0.990234
0.572828
0.895954
0.983009
-0.288461
0.001075
0.449733
0.373632
-0.121168
-0.720205
0.007403
-0.045506
-0.192917
0.877461
-0.618322
-0.992905
-0.681032
-0.043065
-0.741532
-0.987204
-0.369851
-0.552408
-0.541752
-0.283335
-0.027619
0.371403
-0.186198
-0.309750
0.809725
0.145073
-0.623778
0.799959
-0.282099
-0.727824
0.782968
0.429441
0.273251
0.232700
-0.196928
-0.847917
0.512496
0.810475
0.106577
-0.680421
0.687936
0.488255
-0.673327
-0.993097
-0.554810
-0.414859
-0.980301
0.075339
0.032733
-0.522053
0.792004
-0.994886
0.849351
-0.394194
-0.304636
0.659075
0.750879
0.071587
0.459034
-0.531219
0.343763
0.242002
0.898221
-0.382986
-0.525298
-0.298707
-0.230903
0.987198
-0.488232
0.875674
-0.693224
-0.800296
0.363929
-0.366551
-0.793393
0.809120
0.218590
-0.773694
-0.115541
-0.748678
-0.295747
-0.323538
-0.743564
-0.446396
0.282268
-0.048199
-0.787321
0.033148
-0.976613
0.671714
0.501928
0.367150
-0.086285
0.400149
0.984164
0.388417
-0.898557
-0.246739
0.375615
-0.386789
-0.371065
0.682391
-0.187085
0.992865
-0.684160
0.019522
0.801984
0.534430
0.245828
-0.313557
0.785753
0.950081
0.362905
-0.957811
-0.496315
-0.354826
-0.006010
-0.283636
0.678321
0.017377
-0.611922
0.180250
-0.615473
0.301793
-0.419601
-0.631309
-0.309789
-0.318158
0.121953
-0.934174
0.295053
0.750888
0.748217
-0.892032
0.743752
-0.935943
0.127489
0.545736
0.598487
-0.626683
-0.767821
0.384240
-0.676603
0.595084
0.426429
-0.172918
-0.759742
-0.579581
0.543446
0.918579
0.437796
0.931524
0.098829
0.822323
0.233317
0.679228
-0.808985
0.923527
-0.638930
0.312968
0.989353
0.656123
0.063855
0.737570
0.764090
-0.192393
0.801627
-0.108421
-0.646656
0.400114
0.264896
-0.414477
-0.215646
0.588293
-0.819393
-0.789217
-0.584625
-0.579136
-0.368799
0.958821
-0.660557
-0.931002
0.890345
0.438272
0.891321
0.123662
0.117500
-0.917664
0.047189
0.478569
0.395303
0.036543
0.134692
-0.540841
-0.225888
-0.101218
0.266766
-0.424261
0.790361
0.620110
0.975853
0.055257
-0.794367
-0.239793
-0.356450
-0.613761
-0.029011
0.058926
-0.192896
0.602191
0.017747
0.146547
0.684384
-0.078712
-0.401985
0.562510
-0.968246
0.702319
0.644845
0.078944
0.180888
0.040149
-0.884514
-0.684420
0.499308
-0.110401
0.214362
-0.233926
0.465338
0.004724
-0.613816
0.441191
-0.940019
-0.408184
-0.798602
-0.296469
-0.021944
0.185740
0.775810
0.802684
-0.205919
-0.188053
-0.061427
-0.545697
0.696832
0.522157
-1.032214
0.770162
0.268956
0.704072
-0.200168
-0.600267
-0.306730
-0.085519
-0.284687
-0.807422
0.804080
0.929676
-0.041348
0.269417
-0.065601
0.344836
-0.289392
-0.005620
0.936652
-0.074641
0.701458
-0.045547
-0.878588
0.527055
-0.191074
-0.038858
-0.654497
0.391378
-0.003474
0.525894
0.252654
0.365839
0.514504
-0.603990
-0.033865
-0.552087
-0.233322
0.659406
0.362394
0.481992
0.851984
0.166473
0.411667
-0.189364
-0.564109
-0.653933
-0.713525
0.267853
0.460904
-0.699582
-0.615967
0.305903
0.574805
0.179533
0.019913
1.151201
0.225144
-0.238133
0.555963
-0.758461
-0.213541
-0.615552
0.639743
-0.682916
-0.146682
-0.414244
-0.235004
0.619996
-0.754838
-0.872610
0.101988
-0.902854
0.293864
-0.486345
0.027002
0.851109
0.001388
0.108715
0.283610
-0.240036
1.284937
0.843969
0.519683
-0.770623
-0.090058
0.498309
0.767466
-0.633437
-0.274201
0.142565
-0.766065
0.144714
0.693552
-0.994246
0.461797
-0.453130
-0.408490
-0.773206
-0.833134
-0.163328
-0.645816
0.268854
0.055017
0.638400
0.771963
0.785559
0.445661
0.356548
1.065596
0.331630
0.422746
-0.931965
0.001662
-0.934933
-0.641682
0.173926
1.078429
-0.852027
-0.655305
-0.705274
0.298521
-0.267869
0.439440
-0.007927
-0.262115
-0.098762
0.538942
0.329395
0.128032
0.705809
-0.843738
0.472568
-0.018323
-0.075961
0.235435
0.466737
0.952683
0.117369
0.105802
0.345182
0.195970
-0.211891
1.059865
1.345384
-0.416379
-0.904836
-0.792713
-0.859094
-0.779658
-0.436593
-0.564368
0.518863
0.295538
0.875072
-0.489064
-0.966577
-0.223690
-0.950122
0.353013
0.912254
0.653224
0.379109
0.753862
0.633475
0.120749
-0.048352
0.732237
0.943518
0.437856
-0.201452
0.697420
1.234550
0.395806
0.268103
0.525587
0.451454
0.452150
0.955356
0.592360
0.672492
-0.481237
-0.972008
0.191355
0.814301
0.903064
0.702291
0.851368
-0.312714
0.650448
0.048831
0.045669
0.743316
0.083765
1.475483
0.244048
1.312310
0.011739
0.612530
0.060267
0.980647
-0.111201
-0.869223
0.258951
0.741377
0.678176
0.036935
0.192831
0.130325
-0.007709
-0.214809
-0.197183
0.511054
-0.186818
0.994172
0.329000
-0.385475
0.594742
0.094556
1.207973
0.226079
-0.993126
0.777476
0.243296
0.598027
0.688396
0.185954
-0.281625
-0.063878
0.306732
0.301652
0.930134
0.481730
0.784700
0.247663
0.274448
0.462876
-0.715402
-0.532721
-0.406798
0.276889
0.252470
0.396019
-0.329670
-1.034399
0.287575
-0.864610
-0.267293
-0.303723
0.142889
-0.690351
-1.079429
0.812359
-0.491057
0.998016
0.320381
-0.058760
0.263518
0.187168
-0.627589
0.555549
-0.286056
-0.508174
0.139963
-0.501356
0.739489
-0.585589
0.961520
-0.975914
-0.118310
-0.445278
0.183362
-0.965892
0.959269
-1.259248
-1.179073
-0.258565
-0.737116
-0.508958
-0.584260
0.289699
0.079153
0.021265
0.493098
0.699461
-0.408028
0.809632
0.270801
0.109902
0.235891
0.965688
-0.251989
0.949834
-0.542486
0.887974
-0.551522
-0.802998
-0.697615
-0.699479
-0.896524
0.084023
-0.124448
0.073109
-0.744994
-0.426173
-0.380536
-0.987437
-1.678950
0.449100
-1.103384
-0.466882
-0.579694
0.227185
0.716685
-0.723647
-0.165362
-1.102033
-0.588007
-0.602393
0.242626
0.647884
-0.636705
0.990638
0.597718
-0.179192
0.878611
-1.063281
-0.099648
-0.905702
-0.649337
-0.412533
-0.444556
-0.085096
-1.259772
-1.627989
-0.180861
-0.401289
-0.635093
-0.983123
-1.169431
-0.887731
0.120418
0.234776
-0.753312
-0.279929
0.947298
0.335177
0.025116
-0.640710
0.732784
-0.732258
-0.992826
-0.903921
-0.741620
0.604892
-0.094739
-0.841898
0.670776
0.859272
-0.550763
-0.706098
0.986090
0.631545
1.188798
1.160036
-0.536783
0.124762
-1.009373
-0.526545
-0.516145
-0.532457
0.155418
0.702887
0.978569
0.628942
-0.342285
0.925866
-0.035882
0.682831
-0.714843
-0.303098
0.950573
-0.707669
-0.218646
-0.773582
0.918250
0.671539
-0.382925
0.986201
0.773071
-0.192186
0.691489
-0.040820
-0.163488
-0.224746
-0.382784
0.423261
0.236635
-0.010386
0.134857
0.526289
0.550868
-0.450089
0.239830
0.529437
-0.821147
0.897545
0.455303
0.142971
0.580376
0.740460
0.839873
0.535059
-0.962657
-0.151071
1.048901
1.751113
0.881582
-0.086130
0.958089
1.172800
-0.447926
0.045390
-0.048975
0.709285
-0.796655
0.287419
0.641113
0.366535
-0.382605
0.091197
-0.128182
-0.831738
0.641108
-0.888351
0.697699
0.819961
-0.990806
0.153002
-0.037068
0.589569
0.042468
0.045941
0.352249
0.220824
1.298158
0.536691
0.277925
1.558657
0.211338
-0.482902
0.853273
0.770296
0.385890
-0.598338
-0.396766
0.793160
-0.870717
-0.397071
0.152324
-0.253323
0.694126
-0.975857
-0.085060
0.335235
-0.864209
-0.387361
0.155196
-0.855015
0.765641
-0.864311
0.869753
-0.051966
0.197237
0.251507
0.930448
-0.147946
1.193393
-0.118277
-0.598562
-0.175970
-0.167249
0.868099
-0.635477
-0.748348
-0.528250
0.150606
-0.969045
-0.398967
0.753535
0.183279
0.347710
0.447662
0.207421
-0.737350
-0.217104
0.343213
-0.124711
0.938092
0.491498
-0.157778
-0.742487
0.443047
0.468987
0.296479
-0.602852
0.054341
0.304712
0.764281
0.294671
0.468515
-0.545131
-0.896784
0.369356
-0.187129
-0.652060
0.841107
0.963477
-0.621106
-0.557861
0.717013
0.562173
0.789850
0.164674
-0.230406
-0.947500
0.947571
-0.887193
-0.072211
0.885663
0.601005
0.568718
0.941884
-0.176243
-0.131250
-0.080961
-0.098419
0.754137
-0.747214
-0.305103
0.081142
0.721506
0.149970
0.184359
0.090862
0.962842
0.532298
-0.068031
0.926319
0.911192
0.374108
0.643331
0.473365
0.163958
-0.191994
-0.757040
0.216457
-0.244424
-0.644233
-0.855754
-0.358760
0.956771
0.712964
-0.416876
-0.219472
-0.418286
0.502163
0.682109
-0.664149
0.754949
-0.622993
0.416993
0.476455
0.526977
-0.398648
-0.432683
0.489819
-0.866350
0.499286
0.416137
-0.955157
-0.126606
0.059469
0.518208
-0.962649
0.867474
0.761168
0.253808
-0.376950
-0.883066
0.398054
0.264290
-0.926295
0.111018
0.847414
-0.145766
0.692733
0.349576
-0.463657
-0.971417
0.104526
-0.086650
0.445577
-0.419019
-0.559673
-0.953071
0.148298
0.930145
-0.819421
-0.352416
0.346283
-0.774578
0.520977
-0.594249
0.743630
0.558329
-0.726775
0.504797
-0.187863
-0.103724
0.621731
-0.789809
-0.839435
0.695437
0.321209
-0.992021
-0.450330
0.013942
0.357556
0.086013
0.042525
-0.537919
0.999363
-0.511898
0.043062
-0.560311
-0.464969
-0.808640
-0.630165
-0.284390
-0.161057
0.716117
-0.058968
-0.640080
-0.878132
-0.315339
0.918249
-0.604907
-0.810542
-0.269614
0.291369
0.811190
-0.059423
0.451934
0.506627
-0.738214
0.459913
-0.943703
0.275728
-0.182531
0.142310
-0.681747
0.279550
0.141673
-0.193645
-0.677388
0.581362
0.341386
-0.486028
0.951197
-0.943004
0.352915
0.667314
-0.001972
0.712835
0.789182
0.682689
0.631084
-0.815724
0.872148
-0.638530
0.475645
0.683337
0.302047
-0.072421
0.189964
0.563833
-0.612507
0.246261
-0.160439
0.204961
-0.611429
0.157814
-0.515488
0.530244
0.964170
-0.192876
0.111606
0.305556
0.321095
0.062803
0.362552
-0.325990
-0.269882
-0.639420
-0.613155
-0.480700
-0.956731
-0.982071
-0.296424
0.915417
-0.620601
-0.820779
0.598754
0.681446
0.106800
-0.211282
0.245279
0.494292
-0.965021
-0.915160
-0.300746
-0.576449
0.242654
0.183765
0.953795
0.206824
0.990889
0.065401
-0.487620
0.311984
-0.871795
0.874933
0.985994
-0.141678
-0.764487
-0.627161
0.377622
-0.721218
-0.609232
-0.918802
-0.805801
-0.229833
-0.739581
0.792954
-0.548387
0.367218
-0.418328
0.696892
-0.138489
-0.383348
0.636054
0.415086
-0.105476
0.024386
-0.255470
-0.006003
-0.768790
-0.264581
-0.940601
-0.256410
-0.952597
-0.812397
-0.381477
-0.966603
0.045926
-0.145964
-0.593764
-0.576452
0.132819
-0.202995
-0.495254
0.327018
0.567172
-0.234835
0.119972
-1.132178
-1.018579
0.614955
0.643233
-0.029639
-0.661600
0.504489
-0.438260
0.333591
-0.380604
0.387420
-0.559273
-0.158424
-0.965052
-0.588106
0.496594
-0.917990
-0.400503
-0.884883
-0.884593
0.645423
-0.030846
-0.478356
-0.931029
-0.898028
0.318648
-0.426283
0.428990
-0.265143
0.208634
-0.457790
-0.081680
0.507168
-0.663988
-0.156594
-0.341657
-0.220158
-0.745325
0.266423
1.059899
-0.286520
-0.693121
-0.708984
0.392486
-0.646386
-0.308212
-0.110920
-0.564376
0.291285
0.004198
-0.448969
-0.063292
0.973351
0.072675
0.005679
-0.917225
-0.585795
0.638328
0.591701
0.428781
0.233723
-0.595625
-0.333065
-0.441255
-0.574444
-0.023955
0.136572
0.099515
-0.056973
0.862509
-0.205381
0.567753
-0.806472
0.080076
-0.048313
-0.452858
0.771864
0.840767
-0.017234
0.063150
-0.155036
0.533798
0.999858
-0.167763
-0.370646
0.062834
0.046615
0.167959
-0.087051
-0.235077
-0.401867
0.585621
-0.428929
-0.358805
1.178027
-0.008699
0.338234
-0.286231
0.532386
-0.836610
-0.378021
-0.571929
0.737638
-0.184492
0.508147
-0.310676
0.362650
0.280011
-0.469909
-0.654584
-0.656839
0.403221
0.894645
-0.605500
-0.673575
-0.365098
0.688289
0.389994
0.803427
0.832038
0.467646
0.787141
0.616121
1.083322
-0.765263
0.394415
-0.321473
0.480547
-0.923089
-0.680816
0.652270
-0.301110
-0.252745
0.389908
0.514398
-0.744599
-0.920768
-0.122952
0.535412
-0.369963
0.237895
0.929338
1.127487
0.049025
-0.657208
-0.540157
0.835692
0.633093
0.345291
0.307261
0.754117
-0.068874
-0.033122
0.131456
-0.242297
0.103525
-0.730210
0.377200
-0.481777
-0.653299
0.696384
-0.829506
0.045591
-0.556362
0.560402
-0.440011
-0.300961
0.660348
0.451749
-0.672882
-0.555683
-0.294343
-0.743939
-0.543443
1.029850
-0.391625
-0.277559
0.844382
1.196276
0.822104
-0.565922
0.589844
-0.501008
0.300339
-0.651263
0.111465
-0.706938
-0.381474
-0.511336
-0.188715
-0.034773
-0.814952
-0.018221
-0.989182
-0.371314
-0.456598
-0.414481
0.389622
-0.611070
-0.891554
0.763364
-0.360802
-0.019718
0.947733
-0.082748
-0.090981
-0.933925
0.221545
0.760440
1.090997
-0.186175
-0.728266
0.322984
0.176594
0.445139
0.671721
-0.711941
0.738201
-0.709753
-0.223277
-0.450514
0.255474
-0.038230
0.532486
0.328189
0.652353
-0.790597
0.995552
0.209809
-0.329721
1.327797
0.044256
0.044324
-0.051937
-0.744680
0.486854
0.059524
-0.677564
-0.503314
-0.256722
-0.905742
0.176370
-0.085651
0.402944
-0.647036
-0.640512
0.074664
-0.358977
-0.902312
0.364911
0.417746
-0.303234
-0.330741
-0.522533
-0.727554
1.062894
1.239182
-0.354895
1.047251
0.146552
-0.271670
0.873926
0.646018
0.308182
-0.854043
0.581172
-0.525120
0.032170
0.703746
-0.031343
0.739702
0.769408
-0.854973
-0.345949
0.172352
-0.502008
0.013539
-0.752984
0.139015
0.160819
0.660801
-0.400211
0.895454
-0.594672
0.183664
1.292899
-0.489567
0.164429
-0.744905
1.017136
0.820167
-0.118279
0.428480
0.154105
0.820609
0.424020
-0.290166
-0.567627
-0.485686
-0.623566
0.401030
-0.745983
-0.854158
0.546057
-0.091932
0.318193
-0.914051
0.971199
0.614083
0.261519
0.236308
0.406698
1.023104
0.185719
0.892420
0.096472
0.163997
0.758680
0.571230
0.075031
0.491023
0.390818
0.605204
-0.224810
-0.461083
0.501723
-0.724815
0.226653
0.934096
-0.210501
0.603086
0.335126
0.043516
0.748928
-0.076916
0.995893
-0.034969
-0.054976
1.038280
-0.141055
-0.656022
0.370977
1.128481
1.256626
1.108915
0.397172
-0.302824
-0.375663
-0.182841
-0.784649
0.334670
-0.888945
0.482573
-0.045190
-0.098755
-0.977010
-0.543466
0.176430
0.249643
-0.609370
0.965929
-0.147271
0.725756
0.010631
-0.529310
-0.450430
-0.044010
0.768952
0.679521
0.081142
-0.527405
1.139884
1.013361
-0.502599
0.640975
0.643028
0.410919
-0.935386
0.869770
-0.930660
-0.857771
0.204983
-0.804605
0.602703
-0.840207
0.096640
0.625693
-0.383673
-0.726930
-0.124665
0.006956
-0.759815
0.595874
-0.346347
0.241311
-0.589546
0.573205
-0.518075
1.255209
0.102909
0.440809
-0.123420
-0.125985
-0.019253
-0.618541
-0.970394
-0.771647
0.721071
-0.963394
-0.915706
0.816510
-0.866931
0.289277
-0.988096
0.735771
0.449070
0.108544
0.361464
-0.934604
0.381614
-0.744424
0.105492
0.647647
1.068350
0.981941
0.269911
-0.260482
0.457210
0.340377
-0.398118
-0.732841
-0.776444
-0.427854
-0.544212
-0.207390
-0.087735
-0.455926
0.127621
-0.257457
-0.456601
0.211916
-0.440948
-0.323532
-0.498807
-0.429043
-0.587760
0.950263
0.679501
0.773703
-0.963243
0.024433
-0.953756
0.220507
-0.204566
1.079784
-0.140938
0.516062
-0.708705
-1.070982
-0.499941
-0.592917
-1.024868
-0.353420
0.042198
-0.399668
0.657721
-0.841406
0.112871
-0.214658
-0.098863
0.656270
0.997258
0.460190
-0.667262
-0.501549
-0.968854
-0.255022
-0.551286
0.709930
-0.485282
-0.546857
-0.260950
-0.520332
0.517168
0.477580
-0.470646
-0.558722
0.017536
-0.254259
-0.507455
0.568471
0.354094
-0.445245
-0.614850
-0.506747
0.120744
-0.957128
-0.348153
-0.766385
-0.171786
0.552984
0.889885
-0.174528
0.013174
-0.777377
0.323923
0.044320
-0.027271
0.736347
-0.281322
0.371172
-0.863800
0.485223
-1.026043
0.688585
-0.079174
-0.539383
-0.829667
0.983898
0.293908
-0.281890
0.618103
-0.367957
0.255694
-0.996747
0.125295
-0.623562
-0.953875
0.777142
-0.389947
-0.125661
0.330126
-0.500062
0.699811
-0.656700
-0.277439
0.023734
0.387620
0.690161
-0.203628
-0.857412
0.176442
0.033383
0.669318
0.191907
-0.177222
-0.350459
0.711921
0.057636
-0.365957
0.006434
0.775746
-0.747854
0.638476
0.031440
-0.744601
-0.236229
0.407878
-0.698477
-0.459087
-0.982069
0.175862
0.871040
-0.482132
-0.124327
-0.785660
0.240429
0.899407
0.601960
-0.069410
-0.304221
0.744548
-0.892968
0.729162
0.413866
0.298940
-0.448060
-0.936593
0.010861
0.609576
-0.302550
-0.982705
0.385322
-0.050405
0.655771
-0.583239
0.204994
-0.580458
0.824639
0.506518
-0.039545
0.842570
-0.317620
-0.168505
-0.639562
0.558053
0.045835
0.600867
0.457460
-0.352205
-0.468543
-0.846761
-0.607657
-0.361510
0.882401
0.806209
0.937429
-0.565659
0.869615
-0.051710
-0.956083
-0.432935
-0.034415
0.429239
0.516660
-0.378644
0.846000
-0.278346
0.040897
0.670639
-0.771828
-0.998647
0.513209
-0.089448
-0.167152
0.873647
-0.531396
0.878683
0.474515
0.926064
-0.473522
-0.994028
-0.920697
-0.081180
-0.355539
0.961705
-0.274971
-0.418109
-0.603954
-0.405356
0.530181
-0.560037
0.161709
-0.504234
0.869202
-0.321631
0.117122
0.715202
0.400024
-0.841981
0.385841
0.628196
-0.840628
-0.100950
-0.461253
-0.007781
-0.227303
0.007351
-0.129098
-0.752788
-0.066585
0.397380
-0.746816
0.012719
-0.683800
-0.102355
-0.025577
0.041229
0.479536
0.370469
0.635873
0.009717
0.810432
-0.202418
0.505483
0.679634
0.475951
-0.377396
0.394836
-0.124025
-0.219377
-0.219323
-0.495830
-0.060005
0.679727
0.042917
0.932214
-0.547576
-0.949731
-0.196884
-0.300364
-0.016316
-0.799504
-0.047180
0.996403
-0.483304
0.850465
-0.029174
0.557924
0.330001
-0.658705
0.193797
-0.660282
-0.848272
0.991379
0.845200
0.831362
0.467330
-0.532195
0.226198
-0.656696
0.248428
-0.993125
-0.152525
-0.811577
0.686602
0.890392
-0.879362
-0.860974
0.940661
-0.076246
-0.161338
-0.075655
0.124250
0.791482
-0.079253
0.640945
0.641947
0.891573
0.198870
-0.028052
-0.767131
-0.607333
0.311665
-0.615403
-0.615955
0.156866
-0.784041
0.851375
0.624670
0.442157
-0.805321
-0.126901
0.449032
0.042154
0.061522
0.135633
-0.067455
0.182160
0.274659
-0.126794
-0.894086
-0.886679
0.797551
0.230164
0.904803
-0.281702
-0.128891
0.546750
-0.349487
-0.889379
-0.440661
-0.157260
-0.537355
0.830362
0.227337
-0.153309
-0.012772
0.443295
-0.301935
-0.388102
-0.114548
-0.107256
0.484997
-0.665517
0.934898
-0.453481
0.470117
-0.132556
0.728679
-0.255224
0.740650
0.834593
-0.141903
0.604753
0.131310
-0.083493
-0.549803
1.117288
-0.504031
0.034850
-0.825674
-0.037997
0.798427
-0.407591
-0.217372
0.060534
0.315351
0.645937
-0.620259
-0.986753
-0.742165
0.265193
-0.094009
0.742832
0.599677
-0.159111
-0.710648
0.069794
0.708333
-0.981969
0.814569
0.515535
0.982965
-0.119581
0.198290
0.129786
0.649030
0.463138
-0.096595
0.788583
-0.872346
-0.150611
-0.439257
0.797985
0.216034
0.269184
-0.244394
-0.357237
-0.121794
0.135347
-0.343990
0.136042
-0.599459
0.562001
-0.121126
-0.999783
-0.597110
0.168226
0.067133
-0.801956
0.259741
-0.062000
0.659416
0.146997
0.669844
-0.322687
0.973105
-0.027286
0.835969
-0.167722
-0.231998
0.877059
0.568558
0.225068
0.747174
-0.003819
-0.456143
-0.524116
0.638945
0.422063
0.611231
-0.705045
-0.441895
-0.988229
0.856956
0.436979
-0.967192
-0.653333
-0.322890
0.085658
-0.632846
0.851503
1.035369
1.083530
0.010004
0.705210
-0.167367
-0.005009
-0.253048
-0.716251
0.511572
0.151162
-0.951005
0.264709
-0.433749
0.891127
-0.739109
0.110108
-0.632989
0.899835
-0.467829
0.978242
-0.805210
0.090276
1.050922
-0.858556
-0.396386
-0.957065
-0.602811
0.176233
0.211581
-0.068618
0.341375
0.494148
0.042172
1.016168
-0.288860
0.209368
-0.420823
0.038561
0.240182
-0.863025
-0.654289
0.533175
0.401684
-0.088038
0.424302
0.662575
-0.977930
0.791313
0.562410
-0.445759
0.833342
0.846899
0.753059
0.845160
0.897000
-0.749789
1.009020
-0.612709
0.708545
0.331853
0.181108
-0.372665
0.939516
0.418000
0.992197
-0.623475
-0.590564
-0.476719
0.561610
0.872053
-0.339744
0.907321
0.405228
-0.938060
-0.180717
-0.170470
0.724515
-0.158648
-0.315370
0.408806
0.521702
-0.505708
-0.003298
0.004661
-0.714266
0.258600
0.653701
1.349950
0.356083
-0.178285
0.009914
0.778990
-0.353681
-0.439200
0.099203
-0.273318
0.123824
0.703661
0.249963
-0.314566
0.575714
0.910218
-0.407245
-0.019059
0.972158
0.412037
0.832725
0.818554
-0.633077
-0.467010
-0.017624
0.810973
0.057580
-0.298099
0.568021
0.537012
-0.259911
0.475816
-0.722083
0.707382
-0.657506
0.585054
0.685223
0.161355
-0.706420
-0.174863
0.888037
0.417404
-0.471202
0.137999
-0.897161
-0.895489
0.048218
-0.304407
0.107707
0.133910
-0.778836
-0.025669
-0.065249
-0.366950
0.918489
1.566724
-0.331955
-0.585893
0.418879
-0.784156
-0.547934
-0.409446
-0.431903
-1.024385
-0.495366
0.022425
0.644155
-0.905233
-0.821487
0.937735
-0.080096
-0.933450
0.355140
0.448701
0.204549
0.457978
0.616727
-0.651538
-0.746233
-0.358752
0.485317
-0.304048
1.310112
1.877039
0.038107
0.060320
0.854758
-0.153187
0.211904
0.378557
0.338940
-0.925655
-1.052410
0.936655
-0.864762
-0.508062
-0.051452
0.779393
-0.413295
0.127061
0.717129
0.506609
0.193611
0.072268
0.018824
-0.506144
-0.404964
-0.490653
-0.067664
0.106213
0.582413
1.085322
0.065205
-0.636519
0.996124
0.594678
0.813887
0.764976
-0.783459
-0.502196
-0.036553
0.562944
-0.314217
0.052689
0.462172
-0.178979
0.544627
-0.589281
-0.399586
-0.868667
0.537780
-0.664890
0.701455
-0.172913
0.448473
-0.376527
0.300945
0.996234
-0.102622
0.679465
-0.147977
-0.672051
0.420166
0.400376
-0.319907
0.772051
0.294789
-0.533476
0.211804
0.199010
0.028727
-0.751770
-0.153620
0.714509
0.300919
-0.691448
-0.464470
-0.154453
-0.280729
0.153512
0.066305
-0.580697
0.582276
-0.319257
-0.035119
-0.195775
0.069724
-0.708503
-0.156168
0.030695
1.423551
-0.027786
-0.672125
0.708692
0.074674
0.481694
0.209876
-1.084328
0.963896
-0.554246
0.347858
-0.007378
-0.306015
-0.805762
-0.292868
0.994904
-0.497210
0.242662
-0.109940
0.384584
-0.442540
0.988256
0.558772
0.999761
-0.667899
-0.716245
0.033925
1.199313
-0.118197
0.270619
0.056372
-0.347260
-0.028383
-0.500323
-0.924910
0.754269
0.998430
0.308890
0.754368
0.962326
0.754645
0.102226
-0.045052
-0.551370
0.296464
0.662080
-0.506857
0.939525
0.097577
0.478588
0.123289
0.440371
0.140961
-0.796759
-0.269547
0.283391
-0.531414
0.305478
-0.866762
0.520457
0.212441
0.112818
-1.010201
-0.936891
0.632641
-0.875383
0.757677
0.631071
0.433507
0.512045
0.593397
0.188151
-0.385730
-0.451655
0.636781
0.984449
-0.715215
-0.842387
0.636367
0.052212
1.014923
-0.102084
-0.896870
-0.893503
-0.132332
-0.173530
0.939629
-0.797740
0.250560
0.097541
0.799694
-0.464970
-0.703464
0.790822
-0.430045
0.929177
0.915439
-0.672368
0.560249
0.348946
0.839677
0.153646
-0.462903
-0.546053
0.731940
-0.788728
-0.699318
0.855666
-0.248769
-0.826016
0.119577
0.635077
-0.135053
0.012470
-0.912074
-0.965197
-0.004936
-0.871016
-0.743676
-0.778279
0.255967
0.990686
-0.220754
0.552503
0.781508
0.349201
0.481680
0.696948
0.676833
0.041929
0.045893
0.516510
-0.804426
0.615172
1.022876
0.939200
0.783821
-0.554297
0.925813
-0.843726
-0.477162
-0.053055
0.739023
0.320887
-0.649961
0.712289
0.203791
0.180589
0.796857
0.490921
0.448587
0.052824
0.481608
-0.772167
-0.394674
0.263116
0.577034
-0.912994
-0.039936
0.253867
0.128935
-0.994043
-0.224712
0.333740
0.598179
-0.230013
0.256495
0.409616
0.139772
0.066477
0.386976
0.515880
0.894810
-0.040129
-0.324996
-0.866711
-0.299901
0.955060
0.337017
-0.503044
0.445981
-0.214396
0.549780
-0.072411
0.013437
-0.844894
-0.809295
-0.409529
-0.757888
0.150768
0.844338
0.371047
0.156725
-0.385285
-0.304444
-0.254327
0.355549
0.917631
-0.908510
-0.568478
-0.050312
0.448369
0.917305
-0.180690
-0.565197
-0.381129
-0.047401
0.134902
-0.426069
-0.710384
0.631858
-0.980088
0.075221
0.181637
-0.052499
-0.911342
0.336743
0.138205
-0.320871
0.578855
-0.711026
-0.476533
-0.050098
0.445699
0.138181
0.645458
-0.808628
-0.506270
0.563090
-0.717138
-0.074747
-0.487223
0.731231
-0.157443
0.332088
-0.833966
0.461429
-0.715313
0.300936
-0.964641
-0.425697
-0.067207
-0.944729
0.649524
-0.885569
0.002772
0.738182
0.451174
-0.859023
-0.582689
0.030029
-0.570049
-0.059222
0.979931
0.875651
-0.921041
0.625390
-0.932977
-0.427311
0.188479
-0.650115
0.497942
0.701256
-0.918884
-0.659501
0.033344
-0.752850
0.801928
0.318031
0.548086
0.837287
0.892335
-0.519121
0.892558
0.541859
-0.404690
-0.104670
0.280041
-0.953517
0.036308
0.697352
0.076512
0.466259
-0.361871
0.056443
0.341910
-0.282912
-0.318167
0.408933
0.289777
0.870312
0.758818
-0.212281
0.571569
0.839934
0.128218
-0.395087
-0.912916
-0.069855
0.922944
0.635170
-0.232568
0.815279
-0.883951
-0.340009
0.357138
-0.288641
0.555321
-0.362822
-0.242158
-0.408371
-0.665470
0.834354
-0.942112
-0.027341
-0.109203
0.399798
0.689747
0.572630
-0.191270
-0.020476
0.442942
-0.432452
0.767243
0.014511
-0.592518
-0.104539
0.619424
-0.505434
0.825606
0.542368
-0.870264
-0.406961
0.357647
-0.754215
0.253029
-0.285216
-0.042856
-0.191650
0.351963
0.714986
0.399979
0.686493
0.549339
0.457868
-0.340848
-0.559863
-0.142335
-0.651101
-0.987233
0.666396
0.328423
0.455710
-0.766056
0.095666
-0.529779
-0.358573
0.991127
-0.910355
0.135993
0.816733
0.632013
0.265729
-0.590228
-0.010341
0.511515
0.662801
0.704444
-0.531342
-0.528848
0.056406
-0.816356
0.871131
-0.257101
0.732983
0.328999
0.402051
-0.826880
-0.813336
0.750949
-0.814113
0.853060
0.079373
0.641597
-0.912996
-0.824961
-0.888182
-0.271569
-0.833834
-0.798537
0.864424
0.982899
0.833475
0.130153
-0.607329
-0.176866
-0.358332
-0.944528
-0.472422
0.110326
-0.473376
0.583984
0.293970
-0.602245
-0.673117
0.026954
0.726754
0.728934
0.200074
0.913418
0.479883
0.385961
0.766478
-0.440744
0.029871
0.855795
-0.263393
0.139376
-0.418088
-0.099540
0.340839
-0.553664
-0.116640
0.174314
0.576490
0.276031
0.997448
-0.781842
0.331503
-0.474974
0.328484
0.858127
-0.890990
-0.377546
-0.744118
-0.564106
0.649408
0.982635
-0.835173
-0.144637
0.901934
0.701746
-0.686970
0.750824
-0.697765
0.348480
0.601490
0.013707
-0.502946
-0.808480
0.932316
0.846851
-0.445700
-0.277919
-0.082469
-0.879250
0.998111
-0.085021
-0.661092
0.329614
0.440005
0.667392
0.187741
0.549015
-0.710154
0.443623
0.984909
0.945135
0.365522
-0.882693
-0.176431
0.407692
0.922515
0.012660
-0.295760
0.734955
-0.945891
-0.757855
0.243226
-0.274831
-0.543349
-0.208050
-0.567225
0.143040
0.497475
0.350306
0.263790
0.495587
-0.734715
0.602698
-0.174799
0.705290
0.270090
-0.987058
0.281226
0.523811
0.419140
0.212415
0.591984
-0.082102
0.319579
-0.086042
-0.613220
0.461413
0.655057
0.498712
0.306151
0.648500
0.801192
-0.973217
-0.674346
-0.710389
-0.106121
-0.278380
0.432651
-0.608646
-0.928074
-0.303559
0.886941
-0.662789
-0.700861
-0.287858
-1.017751
0.533104
-0.286408
0.253797
0.335967
-0.456041
0.016686
-0.159521
-0.136564
0.779179
0.261319
0.643488
0.374626
-0.769782
-0.411142
-0.817305
0.693483
-0.849582
-0.591338
-0.883483
-0.559971
0.302541
-0.161862
0.872680
0.693895
-0.089937
-0.430879
0.580835
0.207577
-0.194789
-0.771370
0.317396
-0.355621
0.384975
-0.215994
0.855301
0.512173
0.402754
-0.192397
-0.354685
0.489296
0.644804
0.848994
-0.829326
0.317074
0.993377
-0.553884
0.167352
-0.856205
-0.145222
0.283869
-0.416176
-0.842682
-0.877993
-0.543496
0.851213
-0.034550
-0.037424
0.374512
-0.633370
0.972372
0.985330
0.673294
-0.358043
-0.226478
-0.366816
1.763556
1.518186
0.606297
-0.923880
-0.615221
-0.722335
0.098990
0.740768
-0.518193
-0.455989
0.734145
-0.072077
0.711362
0.877940
0.782700
-0.004768
-0.538236
0.940019
0.050618
-0.137967
0.772721
-0.755276
1.033999
0.417123
-0.655359
1.005160
0.179945
1.301953
0.048937
1.748703
-0.171497
-0.346081
0.710778
0.357633
-1.055309
0.841162
0.757638
0.364554
0.581930
-0.760555
0.908565
0.316076
0.167368
0.619928
0.194016
-0.049932
-0.377077
0.599544
-0.130695
0.737071
-0.329691
0.045344
0.726150
-0.070369
1.492946
0.384930
-0.527364
-0.172876
-0.917143
-0.201361
-0.410495
-0.680811
-0.452477
-0.821522
0.893371
-0.247720
-0.980360
0.651009
-0.883165
0.601571
0.890454
-0.974600
-0.082354
0.057822
0.653091
-0.909120
-1.012892
-0.774022
0.961534
-0.159367
0.712810
-0.100734
0.599817
1.502811
-0.256156
0.179140
-1.186163
0.189692
-0.380739
-0.568557
0.771859
-0.117516
-0.045317
-0.667912
0.059568
-0.151946
0.084368
0.079208
-0.500937
0.201203
-0.319221
-0.610483
0.186218
0.564853
0.425256
-0.341885
0.796739
0.946507
0.723198
1.270742
-1.013488
0.196612
1.221031
0.916772
0.475393
0.203154
0.874074
0.196837
0.791249
0.754584
0.677924
0.633641
-0.365720
-0.367393
0.965729
0.693848
0.480661
0.050098
-0.226944
0.979724
-0.789084
0.420263
-0.704654
0.403715
0.410999
1.214814
0.545451
0.002188
0.401817
-0.398344
-0.104858
0.590346
0.366236
-0.356612
1.038192
0.710997
-0.337480
0.012112
-0.207711
-0.369035
-0.272899
-0.529787
-0.735394
0.361381
0.102820
-0.769665
0.055228
-0.377496
0.240047
0.794712
-0.384495
0.540011
0.701158
0.385002
-0.363261
-0.639242
0.023809
-0.121937
0.474514
-0.063876
0.067165
1.025722
1.411252
0.512121
0.274738
0.070572
0.056723
-0.867144
-0.822723
0.849012
-0.236180
-0.095622
-0.680775
0.028426
-0.734241
0.461068
0.221946
0.293298
-0.901933
-0.334075
0.670092
0.036787
-0.678262
-0.607490
-0.161670
0.570612
0.595554
-0.262499
-0.349923
1.411475
-0.211271
0.302897
0.130245
0.784090
-0.268967
-0.405400
0.120252
0.787756
-0.272544
0.297530
0.636767
0.491276
-0.798092
0.955992
-0.563897
-0.586257
0.360845
0.942125
1.293220
0.766088
-0.588594
-0.705838
1.055498
-0.001920
1.233683
1.214362
-0.306234
-0.538098
1.149849
0.901263
0.928726
1.012899
0.190935
0.196678
0.891582
0.921968
0.791278
0.011835
0.709724
-0.481266
-0.690636
0.346491
-1.073589
-0.550413
0.275019
-0.407059
0.270974
0.180672
-0.848605
-0.245479
-1.225021
0.376902
1.180681
-1.103955
-0.533581
0.635858
0.611428
-0.643579
0.110628
0.198727
-0.607268
0.207494
0.148192
0.583667
-0.595828
0.039775
0.505635
-0.804550
-0.948391
0.215359
-0.285816
-0.706595
-0.517295
-0.403088
-0.573375
0.525826
1.056368
0.536466
-1.140893
0.310841
-0.147792
-1.296747
-0.330704
-0.544704
-0.664647
-0.093669
0.257042
-0.916439
0.685871
-0.390963
0.268632
-0.921397
0.816531
-0.583176
0.662270
-0.779297
0.456599
0.167905
-0.583847
0.508208
-0.594576
-0.017395
0.485812
-0.546356
0.673472
-0.483663
-0.389153
0.044199
-0.060523
-0.327536
-0.417260
-0.157845
0.780538
-0.272085
0.368362
-0.443316
-0.939261
-0.065203
-0.316326
0.746610
0.543834
0.952306
0.825213
0.360365
-0.630870
0.487484
0.581068
0.825729
-0.344611
1.004034
0.199801
-0.016013
0.116006
0.263143
1.045185
0.193120
1.148764
-0.046042
-0.972018
-0.526643
-0.840349
-0.221929
0.704799
-0.921103
0.619458
0.284216
-0.300713
0.680197
-0.780986
0.382961
0.426807
0.762848
0.335266
0.252020
0.123213
0.704396
-0.260496
-0.295719
0.510018
0.384192
-0.309199
-0.119114
-0.548233
0.996893
-0.764987
-0.564466
-0.180038
-0.979460
0.239447
-0.110215
-0.463005
0.358043
0.662708
-0.702578
0.468793
0.282166
0.581638
-0.831920
-0.037637
0.800652
0.551041
-0.610829
0.563499
-0.113693
0.641191
-0.313288
-0.409296
-0.619305
0.390993
-0.879172
0.775588
-0.907505
-0.015110
-0.790867
0.921554
0.052071
-0.373554
-0.267298
0.063797
0.836973
0.634373
0.612678
0.195017
0.297081
0.910100
-0.336190
-0.420753
0.491738
-0.168110
0.541611
0.292390
-0.617069
0.930781
-0.144111
0.269239
0.571972
0.542602
0.859942
0.952667
-0.066405
0.980771
0.728255
0.026090
-0.034339
0.937388
-0.052356
-0.982268
-0.436166
0.680346
0.081528
-0.599193
0.314719
-0.305794
0.595824
-0.388200
-0.395694
-0.740366
0.191047
-0.903955
0.091524
-0.267342
0.388435
0.474455
-0.336560
-0.755676
-0.256307
-0.764588
0.786926
-0.396365
-0.811921
-0.279480
-0.415594
0.916334
0.746610
0.550067
0.853722
-0.305746
0.567798
-0.582444
-0.625400
-0.350673
-0.181637
0.689319
0.343533
-0.585813
-0.698882
0.947839
-0.326179
0.492166
-0.956116
0.765344
-0.775176
0.432319
0.239799
-0.111737
0.676643
0.983492
0.123676
0.463568
-0.412872
0.311755
-0.815911
0.171534
0.228089
0.930699
-0.278400
0.081812
-0.375047
-0.710601
0.499368
-0.000447
-0.061275
-0.682269
-0.311129
-0.717742
-0.268081
-0.010010
-0.769902
0.405739
-0.517844
-0.726018
0.171084
-0.293021
0.706301
-0.589117
0.595243
0.382943
-0.605624
-0.281082
-0.153488
-0.018497
-0.969327
0.030601
-0.846963
0.258763
-0.038700
-0.125363
-0.659425
0.586253
0.164036
0.839943
-0.414195
-0.897239
-0.842326
0.274677
-0.614980
-0.110407
-0.735333
-0.384882
-0.704668
-0.253178
-0.110900
0.466416
0.453801
-0.404599
0.877299
0.049044
0.978344
-0.728325
0.767963
-0.175144
0.253178
0.798636
0.855456
0.406215
0.057399
-0.183244
-0.719148
0.397974
-0.596991
0.444888
0.237916
-0.011186
0.547650
0.395590
-0.736510
0.932670
-0.714817
-0.471843
-0.452212
-0.419485
0.274979
0.436887
-0.953069
-0.271219
-0.967712
0.924230
0.777825
-0.989368
-0.804095
0.545788
-0.164512
0.449083
0.344424
-0.309056
-0.144703
-0.598177
0.507700
0.136150
0.799797
0.910709
-0.418962
0.037713
-0.100478
-0.871313
-0.566697
0.163013
-0.938643
-0.281515
0.691170
-0.390856
0.299000
-0.033851
-0.953968
0.345931
0.694930
-0.921680
0.270161
0.472755
-0.911048
0.466065
0.018542
-0.075560
-0.084852
-0.637034
0.615384
0.770446
-0.235211
0.123084
-0.093405
-0.423119
0.046087
0.499928
0.602299
0.933315
0.616320
-0.964399
0.096328
0.677677
-0.245914
-0.212502
-0.713178
-0.946913
0.753647
-0.667146
0.399017
0.448576
-0.588826
-0.330822
-0.078669
-0.499874
-0.864756
0.939873
0.424565
0.050392
-0.679154
0.057956
-0.064531
0.106795
-0.775065
0.750012
0.548684
0.113294
0.284621
0.331122
0.156627
-0.142127
0.296301
-0.773832
-0.490937
-0.975799
0.013966
-0.204115
-0.922713
-0.232388
0.128739
0.476305
-0.783812
0.539912
-0.854517
0.137519
-0.959962
-0.719273
0.095399
0.475869
0.422439
0.542518
-0.333405
-0.654868
-0.302911
-0.508723
0.546995
-0.982719
0.579848
0.417143
0.545379
-0.101815
0.838093
-0.415297
0.221019
-0.565099
-0.391096
-0.765015
0.230786
-0.313809
0.002597
-0.640475
-0.837504
0.218785
0.899437
-0.618967
-0.571672
1.034277
-0.290609
0.629868
0.856550
1.044773
0.064162
0.966408
-0.883281
0.547034
-0.402207
0.896558
0.324418
-0.462860
-0.116048
-0.413965
0.435178
-0.028542
0.241155
-0.343803
0.406359
0.850059
-0.108818
-0.362855
-0.463750
0.893778
-0.003330
-0.159474
0.184588
-0.007115
0.279850
0.672018
0.350564
0.703626
0.039465
-0.630889
0.356192
0.979537
-0.497480
0.856824
-0.044531
-0.170293
0.421269
-0.755757
0.165131
-0.416181
-0.023402
-0.399691
0.555277
-0.782247
0.256506
-0.038364
-0.932188
-0.852313
0.598781
-0.329625
-0.959565
-0.382802
0.411201
0.386221
0.935995
-0.850367
-0.322449
-0.601549
1.270789
1.142461
0.108804
0.898472
0.604192
0.288285
0.058949
-0.767521
0.439591
-0.454547
-0.459618
-0.395277
0.129272
0.516979
0.205032
-0.315451
0.734732
-0.538463
0.646185
0.795804
-0.391806
0.238050
-0.712319
-0.343625
0.831931
0.669358
0.979542
0.131608
-0.075826
-0.087781
1.036854
1.341276
1.328115
-0.193315
0.537975
0.313714
-0.059005
-0.648615
0.415270
-0.619414
-0.103162
0.955651
-0.014691
-0.973890
0.472631
-0.809660
-0.289340
0.200623
-0.377817
-0.587791
-0.003326
0.376147
0.655395
0.294530
1.061991
0.904977
0.717871
1.109772
1.065218
0.895125
0.005104
-0.055212
0.260656
-0.851579
-0.340778
-0.587079
0.292242
0.600216
-0.235694
-0.292489
0.980802
0.661144
-0.336837
-0.033889
0.687255
-1.045783
0.126756
-0.575212
0.392937
0.991942
0.168494
-0.799224
0.146854
0.141949
1.135262
-0.311048
1.017018
-0.184694
-0.099541
