-0.531095
0.049298
-0.912854
-0.850501
-0.858708
0.027784
0.306603
0.545692
-0.779026
-0.930653
0.794389
-0.110668
0.722341
0.845774
0.671530
0.392605
0.322559
0.013964
0.020577
-0.193546
-0.187798
-0.989089
-0.750994
0.407810
-0.818780
0.869330
-0.281670
0.211967
0.261923
0.444055
0.239758
0.730828
-0.506646
0.326911
0.880358
-0.365305
-0.645227
0.187187
-0.818727
-0.422291
0.258157
0.976462
0.466750
-0.019828
0.822415
0.138226
-0.627020
0.144125
-0.848881
0.391976
0.949548
-0.037342
0.402703
-0.801529
-0.629536
0.583923
-0.932199
0.088793
-0.204109
0.329732
-0.467104
-0.964333
0.060642
0.027825
0.363089
-0.056238
0.669217
0.731338
-0.856600
0.857860
-0.690607
0.403824
0.836365
0.784677
-0.599681
0.672116
-0.080593
-0.250329
-0.210965
0.047211
-0.874045
-0.271305
-0.992513
0.528406
-0.072693
-0.622049
0.112300
-0.004798
0.466483
0.908693
-0.671981
1.002186
0.945095
0.395032
0.047079
0.334079
-0.635052
-0.268279
0.061947
-0.503022
-0.412410
0.405764
0.940707
-0.568862
0.142465
-0.758273
0.996743
0.976336
-0.064350
-0.241407
0.013441
0.060464
0.488299
0.021156
-0.411207
-0.584366
0.400854
0.706769
0.419122
-0.124252
0.624525
0.762724
-0.103448
0.577398
0.110949
0.817586
-0.206532
0.456700
-0.343831
0.978231
0.987291
0.180715
0.240068
0.744233
0.436548
-0.732895
0.934414
0.426602
-0.758909
-0.125124
-0.811017
0.256884
0.935624
0.678095
-0.716119
-0.456657
-0.873190
0.728175
-0.701741
0.596976
-0.359535
0.907542
0.230470
0.315780
0.362901
-0.449472
0.627642
-0.443861
1.019984
1.015977
-0.776680
0.710856
-0.050804
0.308420
0.434200
-0.574008
0.602679
0.387972
0.862195
0.848864
-0.736823
-0.946646
0.116173
-0.780562
0.768617
0.463264
-0.168409
0.932773
0.165777
0.019607
0.317642
0.538303
-0.205859
-0.225599
0.293960
-0.609301
0.022687
-0.643070
-0.563501
-0.316965
-0.894330
-0.509864
-0.593034
0.156239
0.876016
0.887253
0.605523
0.488092
0.276024
0.468910
0.339460
0.545712
0.545896
-0.500545
0.802632
0.297054
0.833204
-0.573112
-0.009834
-0.183900
0.353272
-0.544581
-0.476628
-0.851797
-0.153129
0.369299
-0.799225
0.686038
0.627980
-0.342365
-0.454972
-1.031961
0.328650
0.053097
0.178163
0.216958
-0.060149
-0.215813
-0.301357
-0.778044
-0.735324
-0.947143
0.758603
0.739245
-0.547841
0.384065
-0.103834
-0.805415
0.783871
-1.038550
0.015951
0.129638
-0.716940
0.505424
0.332004
0.193798
-0.036140
0.742110
0.216897
-0.036413
-0.299049
0.931840
0.017028
-0.956527
-0.017198
-0.809268
0.253766
0.913810
-0.025865
0.971415
-0.862396
0.226659
-1.006098
0.825358
-0.073257
-0.655601
0.099360
-1.252838
-0.408869
0.178069
-1.015306
-1.161322
-0.478940
-0.596140
0.517258
-0.891231
-1.085875
-0.151172
-0.811739
0.342458
0.916008
-0.092037
0.271119
-0.068036
-0.059674
-0.755788
0.111377
-0.789989
-0.803017
-0.854567
-0.754542
-0.586354
0.382986
-0.949219
-1.127380
-0.956193
-0.373135
0.644614
-0.705370
0.338391
-0.164368
-0.630732
0.404075
0.558962
-0.061852
0.200047
0.959144
0.070058
-0.844153
-0.823014
-0.590470
-0.931054
0.068125
0.649040
-0.061773
-1.029119
0.892447
-0.822549
-0.584492
-0.613008
-0.622986
-0.740137
-0.888075
0.372614
-0.223980
-0.116607
0.876494
0.241299
-0.710446
-0.737184
-0.177048
0.234486
-0.330100
-0.586712
0.024198
0.787868
0.698298
0.008267
-0.144907
0.838221
0.155148
0.203673
0.821453
-0.854737
-0.118799
0.022797
-0.417216
0.230110
0.255317
-0.510023
-0.215023
0.274821
0.339570
0.774065
-0.094815
0.674081
-0.689033
-0.143304
0.054308
-0.455920
0.059144
0.987081
0.928303
0.821001
-0.559033
-0.038383
0.608036
-0.876364
0.932372
-0.591505
0.910076
0.035198
0.656179
1.034129
0.727776
0.089504
0.151491
0.820860
0.565959
1.022693
-0.361092
-0.108520
0.243405
0.427238
-0.660370
-0.823451
0.095641
-0.541166
-0.098375
-0.804427
0.087050
0.992380
-0.808829
0.019910
0.812796
-0.377488
0.952285
0.393249
-0.237102
0.879035
0.808587
-0.163747
0.335240
0.987286
0.063063
-0.200582
-0.546702
0.651529
-0.443505
1.111335
0.473920
-0.248187
-0.176960
-0.232781
-0.920531
-0.101388
-0.222986
0.167541
0.402106
0.690131
0.360116
-0.505262
0.682032
0.547498
0.490069
0.501040
-0.757122
0.504853
-0.114361
-0.009087
0.563012
0.103864
1.086056
-0.150508
-0.360912
-0.367366
0.297281
-0.141722
0.949739
0.516568
-0.069015
0.463383
-0.901851
0.453815
-0.943965
-0.842065
-0.605731
-0.159762
0.318559
0.804809
-0.469028
-0.321494
-0.715443
-0.768576
-0.698592
0.859438
0.734826
-0.492684
0.445263
-0.093711
0.699391
0.030886
0.688051
0.358482
0.423715
0.886065
0.513998
-0.408502
-0.104452
0.505730
0.885810
0.507782
-0.170830
1.002588
0.005884
-0.117032
-0.849956
0.407371
0.724863
0.466471
0.196992
-0.764186
-0.844735
0.552985
-0.448402
-0.511310
0.492110
-0.537990
0.054878
-0.180929
0.034235
-0.620454
0.464227
-0.687014
0.378732
-0.043692
-0.628659
-0.147103
0.213217
-0.104177
-0.810571
0.105039
-0.584825
-0.006031
0.086465
0.422363
0.876662
0.236434
-0.184541
0.548966
-0.353020
-0.987054
0.838582
-0.095151
0.661475
-0.462474
0.369645
-0.067385
-0.409579
-0.863113
0.570971
0.428670
-0.632287
0.116324
0.710755
0.517453
0.720532
0.781636
-0.790362
-0.123008
-0.373941
-0.659674
0.950719
0.035939
0.334296
0.042290
-0.553421
0.158233
-0.801005
0.185705
-0.278653
-0.052367
0.360674
-0.265632
0.815618
-0.184021
-0.017183
0.100178
0.848151
0.630874
0.212392
0.374788
-0.135778
0.339245
-0.706165
-0.566630
-0.257789
0.882488
-0.909671
-0.142107
-0.273712
-0.289861
0.197654
-0.312805
0.753311
-0.486182
0.643950
-0.915044
0.566134
0.807766
0.354227
-0.506480
-0.107354
-0.252688
0.183491
-0.172341
0.757018
-0.701284
0.924926
0.518011
0.722692
-0.013943
-0.180653
-0.461777
-0.752252
-0.031854
-0.163133
-0.107733
-0.173554
-0.075429
0.749770
0.561554
0.647064
-0.055389
-0.799523
0.303746
0.322642
0.694009
0.337333
0.081266
0.846742
0.059977
0.750971
-0.117607
0.889366
0.037783
0.769955
0.670028
0.238115
0.580053
0.113659
-0.075780
-0.482619
0.837434
0.371624
-0.300369
-0.207001
-0.792538
0.593820
0.625759
0.138432
0.329485
0.148376
-0.258849
-0.774765
0.245841
-1.018613
0.656059
0.320998
0.703573
-0.053237
0.232186
-0.201108
-0.184624
-0.721793
-0.207344
0.810254
0.885178
-0.659764
-0.009715
0.436568
0.409657
0.868912
0.926511
0.242198
0.240214
-0.372233
-0.960773
0.446071
-0.812819
0.615672
-0.445167
0.548595
-0.196492
0.318374
0.846031
-0.714313
0.519345
0.644227
0.593070
0.233585
-0.343245
-0.051652
-0.897032
0.419985
0.025701
-0.244136
0.170238
-0.096518
0.088707
-0.854732
-0.667942
-0.502707
-0.985816
-0.740519
0.739135
0.245381
-0.148266
0.725566
-0.334774
0.081986
0.429626
0.324270
-0.228155
-0.596888
-0.265272
-0.376518
-0.416456
-0.855571
-0.870015
-0.912489
0.379272
-0.247461
-0.103495
0.387143
-0.851402
0.940788
-0.840035
0.318134
-0.156283
0.248621
0.463298
0.175845
0.743363
0.467859
0.413835
0.448479
-0.326166
-0.766280
0.174191
0.372758
0.376262
-0.345731
-0.344586
-0.970467
-0.123328
0.247030
-0.490647
0.385431
0.448324
-0.276964
0.476704
-0.188671
0.487744
-0.598200
-0.781294
0.639945
-0.656406
-0.622032
-0.042366
0.187311
0.626589
-0.580130
-0.640894
0.359816
0.873025
0.759418
-0.169545
-0.380543
-0.894224
-0.911629
-0.974033
0.501835
-0.234635
-0.274615
0.578533
0.725081
-0.892159
-0.788118
0.175356
0.588431
-0.043603
-0.326030
-0.587367
-0.552799
0.076321
-0.368839
-0.913093
0.419916
0.009129
0.044541
-0.392775
-0.364606
0.463341
-0.032940
-0.992948
0.362747
-0.232918
-0.136230
0.991983
-0.119523
-0.018748
-0.943049
-0.578711
0.789153
-0.165295
-0.954369
0.544647
-0.037421
-0.731535
-0.271659
-0.445665
0.225565
0.402271
-0.033029
0.672765
-0.521408
0.598132
0.759672
0.898508
-0.392738
-0.195787
-0.494265
0.242980
-0.730314
0.476048
0.251433
0.634195
-0.756063
-0.882661
0.627757
0.128133
0.101470
0.686190
0.550977
-0.106947
-0.475387
0.597286
-0.562286
0.487193
0.865751
0.166056
-0.958472
0.091316
-0.431674
0.008499
-0.235919
0.046955
-0.392667
-0.474875
-0.052841
0.215673
0.329552
0.455200
-0.537447
0.600458
-0.071168
0.710372
0.234997
0.175197
0.827364
-0.140046
-0.700572
-0.072400
-0.454251
0.850171
0.819932
0.069788
0.447411
-0.742353
-0.443019
0.313162
0.423702
-0.401488
-0.595447
0.992148
0.608189
0.172019
0.045616
-0.777342
0.710236
1.008215
0.458053
0.048823
0.461515
0.912784
-0.349913
-0.607571
0.608153
0.856923
0.537852
0.422905
-0.288017
0.833733
-0.655124
0.253334
0.683030
-0.835297
-0.676894
0.130442
-0.577649
-0.119867
-0.555915
0.846884
0.482572
-0.143849
0.854686
0.112730
-0.944334
-0.073362
0.359710
0.779391
-0.064443
-0.193845
-0.190776
-0.637397
-0.349793
0.375645
-0.319690
-0.784246
0.201312
-0.805597
0.620928
0.904266
-0.973696
0.966325
0.157783
0.709361
-0.868970
0.480703
-0.161934
-0.452466
-0.644487
0.276244
-0.607008
0.843766
-0.849730
-0.722873
0.013724
-0.690892
0.345346
-0.547736
1.037836
1.103224
0.059907
-0.319465
-0.670249
0.585951
0.941339
-0.064850
0.764522
0.129076
0.125270
0.387491
0.034269
0.152284
0.353935
-0.809513
-0.148810
0.455068
0.626564
0.653711
-0.996142
-0.970247
0.018314
-0.528313
0.945445
0.299942
-0.002967
0.179819
0.626051
1.085263
0.290110
0.344961
0.904255
1.060060
0.774395
-0.910937
0.559456
0.651954
-0.024666
0.302745
-0.228841
-0.902925
-0.309940
0.796354
0.217494
-1.011405
0.926585
-0.939379
0.499376
0.660147
0.796866
0.477628
0.579985
-0.272286
-0.972961
0.555603
0.941654
-0.218456
-0.505604
0.312912
-0.384240
0.552458
-0.531500
-0.615819
0.466105
-0.946624
-0.710354
-0.087958
0.648924
0.245627
-0.788513
-0.597456
0.294357
-0.152962
-0.823741
-0.422422
-0.025643
-0.741873
-0.337809
-0.702947
0.592215
-0.767249
-1.198354
0.296624
0.069303
-1.023327
0.116481
0.224799
-0.229383
0.651831
-0.414743
0.400591
0.102597
-0.230473
0.448319
-0.674094
-0.287963
0.710761
0.233911
-0.656308
-0.090153
0.405851
-0.235194
-0.672685
-0.575587
0.060986
-0.198792
0.044587
-0.098150
0.256963
0.436629
-0.140854
-1.055627
0.746229
-0.344330
0.371487
0.819495
0.909027
-0.229906
-0.203791
0.601345
0.129953
0.818688
-0.599246
0.759087
0.237433
-0.277049
-0.545313
-0.090534
0.936613
-0.152145
0.984516
0.494191
0.661657
-0.902389
0.526194
-0.651899
-0.152761
-0.181527
0.630049
-0.394764
-0.173440
-0.083400
-0.305188
-0.446395
0.639767
-0.716827
-0.331183
0.700070
-0.064889
0.146077
0.038897
0.929645
-0.063675
0.434469
0.673095
-0.851322
-0.830963
-0.765652
0.222199
-0.770575
0.028377
-0.086613
0.374838
-0.560712
0.064245
0.152619
0.080333
-0.784080
-0.783955
-0.163367
-0.237033
-0.036385
-1.108424
0.772805
0.896144
0.780309
-0.921190
-0.588881
0.330406
-0.077127
0.535830
-0.636407
-0.157507
-0.535481
0.824249
-0.379761
-0.259878
0.979101
-0.324728
0.657044
-0.999004
0.567939
-0.331473
0.497712
-0.912693
-1.270723
-0.449247
0.117840
-0.971587
0.002690
-0.579445
0.318551
-0.505211
-0.342324
0.218014
-0.637885
-0.615259
0.254834
-0.240318
0.710641
-0.826068
-0.707346
-0.895905
0.091985
-0.212546
0.815086
0.510332
0.411331
0.836819
-0.761916
0.055052
0.745199
0.619422
0.507163
0.101031
-1.110777
-1.260038
-0.708494
0.664396
-0.658241
0.776866
-0.591267
0.772540
-0.732186
0.033334
-0.026474
-0.373879
0.416221
-0.774110
0.377432
0.160041
-0.544951
0.636966
0.077728
0.455058
-0.398547
0.204756
-0.011439
0.777000
-0.189045
-0.058596
-0.428260
-0.546449
-0.074262
-0.190460
-0.740893
0.407445
0.040923
-0.064393
0.327256
0.449202
-0.305061
0.693901
0.210150
-0.036478
-0.271951
-0.819640
0.573037
-0.842413
-0.555961
-0.079708
0.182575
-0.093541
-0.072233
-0.260887
-0.562878
0.216108
0.539029
-0.032121
-0.440041
-0.827137
-0.760499
-1.210400
0.202150
0.725114
0.078069
0.832516
0.335995
-0.857184
-0.272673
-0.384561
0.578494
0.422600
-0.688806
-0.213212
-0.629127
0.030977
-0.001014
0.917643
0.148271
0.470301
0.144030
-0.295194
-0.541258
0.793696
-0.012381
-0.769402
-0.624253
-0.781369
0.432776
0.439283
-0.111802
-0.769810
0.744798
-0.558216
-0.886202
-0.180814
-0.810086
0.366637
-0.064102
-0.084178
0.980668
-0.490358
-0.672823
-0.708055
0.321583
-0.300114
0.283835
-0.712335
-0.277466
-0.424220
0.755657
0.813598
0.094704
0.755108
0.024236
0.682175
-0.855802
0.844025
-0.590751
-0.914726
0.735813
0.527669
-0.629760
0.421628
0.826094
-0.642020
-0.796141
-0.985734
0.724151
0.135256
-0.062842
0.742573
0.715840
0.294092
0.967466
-0.106525
0.919450
0.293908
0.254460
-0.159409
0.964752
-0.186844
-0.782546
-0.227527
-0.245361
0.588450
-0.179561
0.166790
0.665388
0.264436
0.180967
0.279865
-0.386675
0.409539
-0.334878
-0.562127
0.767099
-0.136210
-0.531304
0.572246
-0.850376
0.511274
0.276721
0.731976
-0.285888
0.278583
-0.228172
-0.114929
-0.317616
0.801943
0.296915
-0.510163
-0.192664
0.699180
0.307740
0.632398
0.417844
1.073600
-0.341921
-0.099558
0.119896
0.678767
-0.860698
0.729599
0.085975
-0.202636
-0.805908
-0.044640
0.849955
-0.158227
-0.397284
0.979235
-0.681717
0.831769
0.626947
-0.004653
-0.020187
1.020002
0.341310
0.405124
0.917787
-0.299275
0.774243
-0.259599
-0.503756
0.001998
-0.856355
0.628879
-0.199697
-0.369343
-0.516910
0.912327
-0.693091
-0.380268
0.660479
0.484073
0.604377
1.051779
-0.402758
0.510717
-0.130227
-0.040739
0.123790
-0.197801
-0.618872
-0.764058
0.129876
0.011510
-0.780320
-0.504241
-0.683904
1.083604
0.178239
0.944157
-0.464461
0.342356
-0.323590
-0.465590
-0.067330
0.469621
0.163635
0.414764
0.382199
0.502040
-0.860536
0.188392
0.110624
0.760126
0.098400
0.281635
-0.254372
0.500468
0.816454
0.351331
0.707758
0.966047
0.613880
-0.105081
-0.095818
0.712311
0.267793
0.020250
0.505927
-0.832308
-0.229936
0.953231
0.486592
0.442035
-0.513427
-0.585867
-0.105178
0.631946
0.832757
-0.689504
0.154520
0.877701
0.245841
0.868446
0.344723
-0.722040
0.147059
0.913670
0.460096
-0.063274
0.378864
0.221011
-0.181041
-0.208712
0.929268
0.533141
-0.698352
0.025311
-0.546526
0.774934
0.184547
0.220860
0.727578
-0.334480
-0.356353
-0.823555
0.025514
0.484310
0.742112
-0.245935
0.619433
-0.210985
-0.170439
0.309290
0.065877
-0.777093
0.380799
-0.868026
-0.923162
-0.215311
-0.019708
0.283217
0.852988
0.703609
-0.977229
0.726015
0.205635
-0.686376
-0.250045
0.658059
-0.911879
0.930235
-0.142297
0.764233
-0.483095
0.395030
-1.164321
0.424091
-0.205910
0.697296
-0.346715
0.077011
-0.048684
0.390070
-0.926083
0.747660
0.481331
0.461628
-1.033231
0.566819
-0.756040
-0.025842
-0.107789
-0.892166
-0.324396
-0.093193
0.830877
0.880131
0.220289
-0.420091
0.529384
0.277296
-0.539303
-0.683885
-0.059381
-0.144600
0.685135
-0.019048
-0.254826
-0.028923
-0.114235
0.250160
-1.121458
0.780702
-0.249942
-0.831392
0.808931
-0.606450
0.728606
0.849821
-0.986452
0.992642
-0.173629
-0.099065
-0.902756
0.499801
0.807742
0.928121
0.378212
0.023979
-0.500393
-0.102752
-0.704606
-0.063702
0.230255
0.385876
-0.907853
0.230363
-0.452002
-0.098297
-0.690354
0.622729
-0.629383
-0.585828
0.625679
0.255277
-0.341441
0.479491
0.674669
-0.603406
0.329682
0.687072
-0.611578
-0.845062
-0.411993
-0.514334
0.654718
-0.604352
-0.586511
0.033926
0.422560
-0.083212
0.940151
0.754045
0.942607
0.283789
0.215711
-0.911476
-0.420587
0.841886
0.051585
-0.049308
0.524817
0.454901
0.379991
0.160337
-0.285373
-0.959456
-0.360032
-0.610706
-0.562861
0.969650
-0.923634
-0.174439
-0.875412
-0.335627
0.311227
0.779328
0.060122
0.725014
-0.186001
-0.515955
-0.352246
-0.233208
-0.754870
-0.405219
-0.945183
0.469090
-0.312931
-0.362996
0.314163
0.741636
0.588641
-0.160528
0.196962
-0.030402
-0.999968
0.911590
0.010142
-0.359999
-0.699116
0.447281
-0.390351
-0.622756
-0.727165
-0.265776
0.041620
0.584026
-0.486492
-0.898384
0.308864
0.327042
-0.414065
0.957738
-0.906024
-0.169342
-0.448662
-0.850940
-0.700050
0.238685
-0.213822
0.614172
-0.019677
-0.625180
-0.546356
-0.822714
0.344418
-0.546323
-0.911128
-0.645387
0.093644
-0.610326
0.801647
0.702269
-0.234613
-0.927526
-0.566176
0.804013
0.648632
-0.065210
0.894171
-0.046477
-0.737512
-0.526475
-0.099059
-0.645683
0.316480
0.472979
-0.478339
0.627161
-0.285071
0.308411
0.241268
0.695300
0.683232
0.694912
0.872602
0.027811
-0.851476
0.961125
0.380998
0.237419
-0.654021
0.174828
-0.075208
0.095974
0.229297
0.348107
-0.113608
-0.123010
-0.725005
-0.255812
0.768163
-0.484973
0.272956
-0.220928
-0.030165
-0.345466
-0.715215
0.507796
-0.712599
0.001259
-0.183305
0.528852
-0.303268
-0.500147
0.223090
-0.433991
0.522697
0.363868
-0.478076
-0.088518
-0.354333
-0.030908
-0.769128
0.697281
-0.867128
0.463903
-0.020562
-0.124705
-0.862459
0.104452
0.628614
-0.929027
0.845417
0.075639
-0.039666
-0.121549
0.759227
0.251617
-0.615009
-0.954372
-0.747143
0.200787
0.570391
-0.061816
0.685742
-0.228378
0.496159
0.237278
-0.730341
-0.739320
-0.614324
0.047545
0.161949
-0.619813
-0.589555
-0.059356
0.487924
0.127369
0.682711
0.733900
-0.493920
0.604135
-0.988197
-0.531856
-0.275494
-0.023530
0.333821
-0.522242
-0.772263
0.716612
-0.487727
-0.538309
-0.117374
-0.962292
0.361099
-0.378724
0.012358
0.106631
1.001872
0.222836
0.120595
1.034422
0.910982
1.029418
-0.684241
-0.796848
-0.194989
0.756530
0.496640
-0.227380
0.718887
-0.908517
-0.646701
0.676101
-0.490330
0.060098
-0.349540
0.839684
0.519557
-0.159578
0.504336
-1.032276
0.263603
-0.532788
-0.722041
-0.083284
0.198289
0.107044
0.795665
0.055459
-0.685100
0.000997
0.243900
1.188446
-0.180743
0.266711
-0.718416
0.664343
0.103567
0.722240
-0.738961
-0.357153
0.709636
-0.415401
-0.688144
-0.785627
0.620149
-0.074311
-0.990711
0.115337
0.791948
0.653766
0.338541
0.296855
-0.828410
0.419135
1.045931
0.377015
-0.264591
1.040249
-0.475665
-0.107386
-0.298761
0.282018
-0.282419
0.329191
-0.540850
-0.174570
-0.316129
0.264083
-0.618670
-0.094321
0.900713
-0.915887
0.464013
-0.806859
-0.700304
0.142312
0.215692
-0.538301
-0.598627
0.072499
0.986324
0.557868
-0.641482
-0.708580
0.128074
-0.547893
0.570292
0.661900
1.125647
0.579011
1.132666
-0.380916
-0.236097
-0.359977
0.594648
-0.107946
0.276161
-0.762051
-0.852916
0.646943
0.121203
-0.949471
0.766049
-0.291716
-0.601200
-0.813691
0.828089
0.458693
-0.593964
-0.842835
-0.298227
-0.465161
0.579015
-0.264412
-0.328538
-0.247574
0.039606
0.845359
-0.914635
0.046920
0.421291
-0.937509
0.401899
0.949975
-0.425578
-0.032199
-0.167392
0.838362
0.186595
-0.009507
0.555030
-0.532529
0.199428
0.367726
0.014170
0.270478
0.335124
-0.031590
0.040505
0.780851
-0.343958
0.233408
-0.708431
-0.416206
-0.943340
-0.358340
0.081774
0.065113
-0.396233
0.111355
0.982495
0.917127
0.123474
0.370490
0.861445
0.690278
-0.674272
-0.293720
0.592131
0.656192
0.787998
0.079393
0.866393
-0.280812
-0.558481
0.169337
-0.662324
0.653386
0.494156
-0.152210
0.490505
-0.447231
-0.864054
0.456198
-0.103784
-0.786335
-0.724838
-0.998126
0.234535
-0.157870
0.106150
0.213651
-0.242318
-0.776651
-0.428202
-0.384205
0.931718
-0.022125
0.336091
0.443759
-0.631452
-0.042015
-0.324557
-0.340481
1.018675
-0.095731
0.155998
0.805498
-0.418804
-0.105930
-0.403668
0.722196
0.239297
-0.178700
0.392534
-0.768297
0.064540
0.675352
-0.753407
-0.698708
-0.481908
0.350006
0.498985
0.240136
0.519355
-0.949352
0.837022
0.417801
-0.148048
0.077918
0.018767
0.684313
-0.532775
0.572039
0.698819
-1.081954
-0.678657
-0.014118
0.664906
-0.320740
0.839565
-0.520106
-0.336129
0.245209
0.391190
-0.905138
0.498763
-0.540245
0.771931
0.742932
-0.250301
-0.771264
-0.036776
-0.862871
0.445546
-0.440331
-0.756541
0.333415
-0.791041
0.502098
-0.231620
0.070421
-0.326523
-0.236316
-0.479139
-0.463409
-0.239919
-0.094624
0.690519
-0.260928
0.867485
0.738601
0.326613
-0.413504
0.011775
-0.273478
-0.315891
-0.486309
0.179711
-0.601122
-0.888375
0.785309
-0.384320
0.222719
-0.851360
-0.741220
-0.917819
-0.382681
0.673142
-1.010454
0.727664
-0.744271
0.207117
-0.326461
0.221898
-1.039452
0.486095
-0.684756
0.125013
0.379503
0.158803
0.051738
0.153536
-0.502083
0.640498
-0.826973
0.224890
-0.715675
-0.408116
-0.703980
-0.324166
-0.126045
-0.702991
0.414622
-0.783579
-0.556166
0.561132
-0.928920
-0.020970
0.442055
-0.574693
0.005460
-1.060759
0.829132
-1.063342
0.430595
-0.984400
0.579283
0.839854
0.195969
-0.003958
0.008487
-0.749491
-0.846681
0.503111
0.883754
-0.686589
-0.295268
-0.771555
0.037182
0.108932
-0.147935
0.753704
0.283157
-0.767804
-0.951737
-1.003330
-0.706327
-0.526999
0.158562
0.847326
0.015289
-0.658356
0.921597
-0.017286
-0.626107
0.441966
0.060713
0.988818
0.290095
-0.739100
-0.015998
-0.704123
-0.470846
0.197809
0.897341
-0.482974
0.592163
-0.371158
-0.403863
-0.598061
0.567913
0.421745
-0.737042
0.126308
-0.989639
-0.473501
0.209285
-0.609403
0.092060
-0.548572
-0.740952
-0.857817
-0.158923
-0.743441
0.191571
0.249652
0.706677
-0.746489
0.231168
-0.012502
-0.468994
-0.679632
0.457490
0.232940
0.612059
0.357381
0.589476
-0.113696
0.590884
-1.092602
0.145417
0.216680
0.497637
0.557480
-0.507051
0.697695
-0.789638
0.705147
-1.006570
0.249021
-0.816498
-0.684473
0.451589
0.051687
-0.423262
-0.357597
-0.710878
-0.732669
-0.110191
0.579789
0.383927
0.570745
1.020988
-0.106538
-0.302477
0.263753
0.676187
0.772899
0.849476
0.266335
0.788879
0.176417
-0.318044
0.484521
-0.180753
0.094207
0.029498
-0.050998
-0.191568
0.073831
-0.756234
0.008409
0.391143
0.693864
-0.951452
0.944517
-0.679421
-0.628710
-0.728596
0.284962
1.039998
0.761452
-0.047244
0.954500
-0.673210
0.218369
-0.070176
0.905319
0.010632
-0.198564
0.157144
-0.240203
0.906367
0.696567
-0.898932
-0.333667
-0.206362
0.154369
0.636803
0.611026
-0.770738
0.880043
-0.383205
0.609908
0.561177
-0.323784
0.593265
0.931944
0.103200
0.968746
0.356048
0.194302
0.623276
1.038644
-0.147587
0.712764
0.016516
0.447247
0.276573
0.748091
-0.885586
-0.664227
-0.571922
0.989692
-0.966341
-0.462924
-0.334980
-0.167636
0.691653
-0.698931
-0.556416
0.915658
-0.829610
0.053310
0.535181
0.764335
0.768434
0.174394
0.705107
-0.204136
0.002337
-0.142222
0.760246
-0.567811
-0.325675
-0.658644
0.810450
0.463483
0.731206
0.065552
0.180140
0.828649
0.394855
0.607985
0.821441
0.431897
-0.854723
-0.513494
-0.734546
0.834799
-0.218546
-0.297990
0.753538
-0.028988
0.775562
0.311859
-0.261353
0.521601
-0.544631
-0.565378
-0.672208
0.449966
0.282371
-0.942255
0.758128
0.856314
-0.635035
0.551607
0.287715
-0.921369
-0.393921
-0.537152
0.906280
-0.997841
-0.928677
0.727720
0.434056
-0.783867
-0.787162
0.695465
-0.951808
-0.004255
-0.603995
0.795706
0.961865
-0.817718
0.139024
-0.265559
0.709629
0.562289
0.126336
0.999095
-0.051444
-0.661706
-0.987709
-0.326810
-0.840361
-0.639191
-0.784468
0.443548
-0.561619
-0.178324
0.906651
-0.655340
-0.176165
0.977967
-0.927669
-0.742214
-0.805576
-0.713550
0.954799
-0.755241
0.287491
-0.636397
-0.938496
0.260616
-0.463504
0.167646
0.961869
-0.771988
-0.291941
0.068243
-0.786677
0.645041
0.395165
-0.779651
-0.684354
0.553845
-0.418860
-0.468812
-0.002607
0.019520
0.352865
-0.095955
0.364181
-0.823300
-0.117981
0.436561
-0.565410
0.076594
0.723123
-0.609199
0.324756
0.012208
-0.247026
0.384175
-0.725675
0.291588
-0.445828
-0.761360
0.519471
0.263275
0.306866
0.732761
-0.091559
-0.297935
0.953110
0.224087
-0.744090
-0.465750
0.755276
0.253304
0.553785
0.108251
-0.842540
-0.081862
0.284964
0.039477
-0.644518
0.720318
-0.883187
-0.921376
-0.888553
0.442360
0.092041
-0.135469
-0.173525
0.364755
-0.845117
0.379126
0.602760
0.674259
-0.357717
-0.090383
0.407021
0.550724
0.611682
0.360130
-0.225176
0.867596
0.894434
-0.469257
0.122226
0.450000
0.639275
0.281837
-0.627920
-0.070026
-0.673942
-0.269255
-0.346201
-0.553015
-0.187650
-0.235343
0.879666
0.889370
0.616645
-0.300580
0.252218
0.770715
-0.921921
-0.145108
0.444973
-0.279640
0.764509
-0.148006
-0.728856
0.376435
-0.788038
0.047743
0.248237
-0.886114
0.585224
-0.621607
0.574152
0.237224
0.673395
0.959031
-0.821745
1.002669
-0.301027
-0.166962
-0.569903
0.454963
0.539118
-0.728850
0.328720
0.148513
-0.032584
-0.420209
-0.080856
0.045487
0.434680
-0.635892
0.765892
0.200152
0.219361
-0.952015
-0.409060
0.451618
0.119458
0.868379
0.588759
-0.271653
-0.720622
0.191366
0.967026
0.926686
0.107396
-0.896791
0.848226
0.686589
-0.189128
-0.805071
0.096899
-0.676578
-0.550109
-0.581484
0.470960
0.417148
-0.001446
-0.609803
-0.536206
-0.563789
-0.241679
-0.750277
0.669823
1.025619
-0.645873
-0.684627
0.502633
0.467246
-0.820030
0.130186
-0.777874
-0.594079
-0.843422
0.980186
-0.871202
0.114229
0.947665
0.861429
-0.297092
-0.316104
-0.994272
0.775034
0.002993
-0.544021
-0.805687
-0.526258
0.872005
0.192408
-0.133457
-0.644420
0.669038
0.682302
-0.343321
0.353664
0.690598
-0.023663
0.639728
0.181089
-0.688645
0.547266
0.914260
-0.829811
0.705670
0.972294
-0.882488
0.799752
0.023529
0.982538
0.577684
0.666588
-0.362995
0.572686
0.436476
0.639000
-0.975121
0.621180
-0.887345
0.914944
-0.139991
0.032656
-0.686388
-0.481971
-0.323365
-0.128679
0.789493
-0.735637
0.617285
0.088047
0.050038
0.647953
-0.450383
-0.013290
0.945514
-0.597618
0.099916
-0.887545
-0.861238
-0.979784
-0.984723
0.680012
0.673260
-0.355558
0.237255
0.089528
-0.721255
0.278638
-0.250521
-0.573858
0.196054
0.510522
0.308610
0.353465
-1.031186
0.923294
-0.820856
0.650399
-0.915622
0.741453
-0.229146
0.181467
0.552386
0.545212
-0.527935
0.708312
0.957204
0.466472
0.716665
-0.949386
0.473006
0.720058
0.705265
0.112556
-0.648916
-0.037050
-0.735080
-0.316919
-0.787693
-0.157770
-0.087213
0.317794
-0.540041
-0.636466
-0.188517
-0.433378
-0.567178
0.063735
-0.806477
-0.561059
-0.166485
0.176527
0.948661
-0.346661
-0.209854
-0.651217
-0.734540
-0.297358
0.806193
0.967216
-0.278944
0.232186
0.668568
-0.547685
-0.591021
-0.933854
0.343287
-0.514783
-0.401613
0.588547
0.520660
0.694168
0.066032
-0.784580
-0.731599
-1.038051
-0.344882
-0.478470
-0.032913
0.063428
0.317634
-0.889711
-0.645980
0.239411
-0.307943
0.102898
0.581030
-0.057968
0.776825
0.347006
-0.099356
-0.479948
-0.368356
-0.462579
-0.135578
-0.050353
-0.350618
-0.591733
0.665910
0.380417
-0.903206
0.359929
0.248056
0.231105
0.485501
0.373445
0.250510
-0.531102
-0.619305
-0.383755
0.714153
0.700657
-0.305257
-0.951443
-0.065719
0.376821
0.132111
-0.510659
-0.678388
-0.055451
0.853695
0.132615
0.395118
-0.389728
0.971645
-0.435617
0.649674
-0.402337
-0.076586
0.316777
-0.922700
0.155640
-0.269241
0.309252
-0.456105
-0.373369
0.225523
-0.772579
0.287005
0.608241
-0.178933
-0.004569
0.308087
0.510710
0.032822
-0.773418
-0.084066
-0.788470
-0.275609
0.131727
0.184311
-0.099873
-0.286973
-0.238721
0.289557
-0.581951
0.062620
-0.177474
0.070933
-0.827966
-0.729279
0.152238
0.472675
0.372914
-0.059810
-0.616423
-0.865253
-0.852718
-0.434702
0.416787
0.757219
0.384393
-0.595243
0.054279
-0.074759
0.485280
0.306090
0.788122
0.815324
-0.608966
0.295430
-0.062317
-0.187629
0.504784
0.305114
-1.037056
-0.974221
-0.371072
-0.091976
0.083416
-0.068168
0.442743
-0.418068
-0.345786
-0.119166
0.475360
-0.020281
0.008589
0.623941
0.545834
-0.577680
0.378051
-0.043152
-0.120818
-0.510324
0.910058
-0.503012
0.992378
0.782048
0.997206
0.831819
-0.380674
-0.380006
-0.461977
-0.743663
-0.811751
-0.374002
-0.703653
-0.084864
0.685022
0.546629
0.975018
0.128920
-0.940374
-0.439807
0.994108
0.532309
0.541304
0.003403
0.156532
0.113029
0.477643
-0.403689
-0.899161
-0.586673
0.065708
0.830161
-0.531875
-0.325693
0.415413
-0.599006
-0.509200
-0.852313
0.253529
0.227123
-0.493006
0.531124
0.938930
-0.183117
-0.552639
0.558124
-0.728555
-0.654446
-0.333969
-0.672855
-0.092046
-0.337221
0.869622
-0.501162
0.742337
0.077301
0.580527
0.108637
0.478732
0.379334
0.186573
-0.602663
0.255057
0.737021
0.182879
-0.084025
-0.532752
0.958937
0.197356
0.779851
0.204706
0.598894
0.193407
0.015030
-0.693241
0.565318
-0.444599
-0.424225
0.912563
0.227738
-0.070169
-0.096992
1.000353
-0.135316
0.328223
0.544622
0.697004
-0.311571
-0.448215
0.221858
-0.784841
0.856139
0.840939
0.815150
0.990902
0.280335
-0.188005
-0.515657
0.181663
0.821748
-0.947227
-0.799058
0.277989
0.160558
0.195988
0.580537
-0.272106
0.761546
-0.801927
-0.264136
0.114916
0.217281
0.617622
0.001824
0.918809
-0.225453
-0.593488
0.544381
0.433523
0.008631
-0.001836
0.965697
0.155846
-0.040169
0.780385
0.111326
1.096962
-0.663153
0.310446
0.043753
0.983625
0.267407
0.221675
0.257150
-0.570154
-0.567422
-0.121430
0.239174
-0.692612
0.167554
1.011056
0.377474
-0.732354
0.361092
1.000522
0.848481
0.955890
-0.489055
0.665058
0.679082
0.637761
-0.410124
0.488522
-0.402564
0.302026
-0.015801
0.428124
0.173602
0.164283
-0.347340
-0.803109
0.145595
0.922143
0.435266
-0.561460
-0.590985
0.924929
0.362597
0.661590
-0.800909
-0.594728
0.362407
0.140886
-0.700703
-0.370798
0.371731
-0.571244
-0.257050
0.760566
0.791264
1.064192
0.043393
-0.926739
0.325946
0.448593
0.217926
-0.805723
-0.185306
-0.623856
0.357203
0.469142
-0.415002
-0.471156
0.427407
1.047995
-0.031350
0.794727
0.878213
-0.828647
0.214043
0.793584
-0.611050
-0.357096
0.175007
-0.138377
0.212582
-0.738176
-0.089352
0.597178
0.682180
-0.541456
0.544218
-0.355039
-0.549551
-0.202225
-0.943113
0.660171
-0.008679
-0.127807
-0.959188
-0.640504
-0.635599
-0.357279
-0.122811
0.720558
-0.450083
0.648028
0.321612
-0.687916
0.799640
-0.291575
-0.661520
-0.684812
0.247152
0.263604
-0.050760
-0.715801
0.353556
0.750518
0.861151
0.036246
-0.816679
0.373998
0.661951
-0.371162
-0.828429
0.718578
-0.711781
0.161481
-0.410972
-0.682673
0.482178
-0.133945
-0.169870
-0.810404
-0.538162
0.361484
-0.978237
-0.891692
0.933206
-1.040583
-0.256065
-0.812538
-0.717052
-0.978484
0.445868
0.229138
-0.659269
-0.162297
-0.013726
-0.806257
0.865012
0.165580
0.567692
0.526947
0.793276
0.737846
0.240468
-0.938927
-0.150191
0.748122
-0.703163
-0.726565
-0.384128
0.204915
-0.306464
0.371885
-0.182602
-0.169600
0.474470
-0.193783
-0.101063
-0.659572
0.054779
0.208965
-0.600166
-0.461898
-0.550311
-0.259152
0.373657
0.434315
-0.065414
0.238669
-0.400105
-0.497907
-0.235919
-0.612100
-0.774361
-1.017074
-0.567524
0.078786
0.777962
-0.166765
0.519902
-0.415713
-0.793094
-0.686103
-0.991437
0.090047
0.217421
0.567653
0.948216
-0.857845
0.928649
0.022192
0.358631
-0.670212
0.560631
0.808366
0.070635
-0.065712
0.242681
-0.994785
-0.827144
0.842267
-0.493195
-0.063006
-0.764951
-0.253840
-0.051262
-0.285079
0.890870
-0.209797
0.595533
0.443956
0.403847
0.825296
0.779180
0.444780
-0.060934
0.009512
0.017941
-0.107619
0.156845
-0.052660
0.914555
-0.484495
0.277128
0.475186
-0.676129
-0.652237
-0.590526
0.566552
-0.647016
-0.417568
0.409129
-0.139517
0.521021
0.646026
0.609874
-0.528591
-0.639338
0.502263
0.268699
0.961766
-0.047736
-0.320443
0.792795
-0.264258
-0.875122
-0.267222
0.748043
0.143459
0.625159
-0.095112
-0.909201
0.539714
0.420393
0.367923
0.014890
0.744089
0.715330
0.423675
0.309468
-0.933122
-0.996189
-0.282954
-0.072247
0.526807
-0.635059
-0.459073
1.000126
-0.274403
-0.959546
0.267238
-0.312105
-0.006931
0.947120
-0.518828
0.728950
-0.927999
0.213950
0.476993
0.215460
-0.160905
-0.618112
0.305971
-0.621241
0.800332
-0.328445
0.389398
0.542528
-0.613549
-0.187109
-0.152039
-0.549909
-0.183799
0.558180
0.360460
-0.676769
0.910201
0.899912
-0.665246
-0.342601
0.958867
0.614816
0.356848
-0.039480
0.566283
0.839424
-0.310513
0.638284
0.053355
-0.833539
-0.146768
0.893486
-0.452608
-0.840434
-0.725513
-0.640641
-0.165767
0.662059
0.905886
0.244926
-0.499529
-0.254136
0.643982
0.248631
-0.734496
0.022175
0.617812
-0.768856
-0.037563
-1.011096
-0.069383
-0.038635
0.631094
-0.696777
0.924571
0.197793
-0.857303
-0.385646
-0.160269
0.201922
-0.203614
0.716529
0.126032
0.360564
0.879213
0.404609
0.754634
-0.228674
0.072059
0.578772
0.884087
0.486020
-0.665104
0.596940
-0.200670
-0.388168
-0.410008
-0.586522
-0.097111
0.648650
-0.511492
0.883156
-0.378255
-0.879395
-0.813307
-0.451060
0.330591
-0.639169
0.223145
-0.753230
0.627276
1.044263
0.944782
-0.273866
0.390855
0.802692
1.020231
-0.003355
-0.501714
0.104288
-0.402270
-0.673130
-0.519111
-0.236624
0.746429
0.188725
0.443070
-0.485775
0.795091
-0.541749
-0.804397
-0.712025
-0.658195
-0.175942
-0.560712
-0.407704
0.466609
0.877295
0.041279
-0.308698
0.998570
-0.518848
-0.418413
0.861001
0.101621
0.749994
0.455946
0.010518
-0.340317
0.744370
0.913046
0.124900
-1.052727
-0.678483
-1.032739
0.923423
0.787299
0.587145
-0.501035
0.594695
-0.952188
-0.291186
0.922788
-0.533957
0.649330
-0.530760
0.105891
-0.001453
-0.953508
0.796365
0.495334
1.119184
-0.610021
1.007245
0.689574
0.157794
0.536939
-0.004894
-0.901364
-0.754595
-0.251469
-1.060673
0.380573
-0.118298
-0.451683
0.560885
-0.111968
-0.644847
0.150578
0.406163
0.995005
0.284763
-0.786725
0.977758
0.675038
0.565952
-0.973414
-0.526451
-0.416430
-0.580111
-0.341203
1.203514
-0.745720
-0.463773
0.771590
0.721653
0.617038
0.353634
-0.339080
0.581591
0.501498
0.493704
0.769221
0.108748
-0.521606
-0.657398
-0.327865
0.383842
-0.262913
0.880490
-0.153991
-0.292690
-0.050025
-0.363304
-0.737041
-0.531813
-0.560578
-0.213429
0.426470
0.233847
-0.016923
0.529540
-0.043405
-0.073436
0.871836
-0.445648
-0.541595
0.331347
0.758094
0.100753
0.059655
0.447866
-0.297607
-0.149092
-0.441948
0.193298
0.213085
0.248869
-0.426220
0.834445
-0.156855
-0.005267
-0.758006
-1.147713
-0.995492
0.017351
-0.143429
-0.238277
0.756062
0.906676
0.675146
-0.468733
0.217798
-0.690889
0.213254
-0.021008
-0.269707
0.552942
-0.714180
-0.440466
-0.274730
0.357384
-0.991853
0.434359
-0.791281
-0.442994
-0.425232
0.277362
0.551402
-0.111392
0.042473
-0.417216
-0.789341
0.688690
-0.007409
-0.292792
-0.087517
0.649703
0.317142
-0.364675
0.415222
-0.310761
-0.076535
-0.441804
-0.093596
0.946172
0.356527
0.572907
0.516397
0.645249
-0.867270
-0.757337
-0.016903
-0.890859
0.606041
0.071273
-0.479900
-0.872446
-0.560968
-0.785813
0.087297
0.723748
0.357448
0.892108
0.636937
-0.831016
-0.506322
-0.348270
0.845972
0.681318
0.126800
0.232800
-0.667758
0.850521
0.555892
0.100870
0.780387
-0.088494
-0.325857
0.295490
-0.467497
-0.227668
0.474940
0.464552
-0.150942
0.134816
-0.341152
0.407468
0.229053
0.266884
-0.843368
-0.183816
0.032023
0.229026
-0.321166
-0.033828
0.716264
0.314314
0.656671
0.620160
-0.003387
-0.379076
-0.358317
0.183473
-0.552559
-0.805685
-0.715143
-0.772096
0.094557
-0.056565
0.501669
0.629165
0.730580
0.037939
0.153190
-0.390745
-0.798442
1.016739
-0.595738
0.641386
0.126806
-0.737233
-0.488934
-0.439726
0.937675
0.491327
0.711582
0.793128
-0.164202
0.251613
0.236419
0.702447
0.845217
0.869629
-0.114457
-0.706082
-0.927484
0.199769
-0.435827
0.230033
-0.809700
-0.908568
-0.161049
0.859042
0.119720
-0.892125
-0.403518
0.248978
-1.098731
-0.119694
0.074802
0.385508
0.431043
0.850248
-0.845928
0.547388
0.368698
0.733862
0.153977
-0.930013
-0.057007
-0.623492
0.773208
-0.203737
-0.719321
-0.251188
0.199925
-0.560745
0.916898
0.642212
0.487027
0.905049
0.539630
-0.842781
0.618595
-0.443542
-0.636589
-0.417489
-0.741205
-0.501370
0.439539
0.384854
0.966595
-0.024278
0.158688
0.893602
-0.709825
-0.623869
0.565527
0.428600
-0.553945
-0.474541
0.869710
-0.656962
0.456729
-0.792395
-0.051243
-0.604811
-0.639796
-0.361225
0.829566
0.583707
-0.673273
0.405876
-0.755827
-0.259738
-0.437757
-0.322494
0.063039
-0.310803
0.104109
-0.542945
0.858942
-0.248591
0.172870
-0.136660
-0.421503
0.451276
0.240883
-0.830662
-0.049999
0.824659
-0.176814
-0.160994
0.963017
1.002130
-0.170834
-0.198574
-0.750271
-0.082287
0.231353
-0.804855
0.048948
-0.649780
1.096356
0.260668
-0.188222
-0.468999
0.800561
0.686180
-0.106736
-0.462872
0.881169
-0.391372
0.231072
0.046863
0.476922
0.845047
-0.424184
-0.159908
1.111829
0.505095
-0.529751
-0.247775
-0.770689
-0.619051
-0.497738
-0.337254
-0.100605
-0.202870
0.974213
-0.295186
0.332885
-0.022231
-0.151815
0.327336
1.094557
0.382123
0.489171
0.532310
-0.169613
-0.743497
-0.977736
-0.294800
-0.130556
0.291147
0.835667
-0.525130
0.222411
-0.604964
0.158956
0.135226
0.729792
0.422322
0.462599
0.493060
0.554333
-0.884394
-0.442001
-0.079329
0.162097
-0.519171
0.467240
-0.574477
0.329378
1.046001
0.415482
0.121473
0.244955
-0.199815
-0.381467
-0.929736
0.059860
-0.327595
-0.152572
1.054562
1.075177
-0.284223
-0.582432
0.040544
-0.229293
0.220085
0.823229
-0.747612
-0.397524
0.557234
-0.822002
-0.422322
0.834995
-0.369364
0.332790
-0.058938
0.004002
-0.394195
0.109069
-0.877533
-0.472116
-0.545970
0.221720
0.768888
0.257597
0.862986
0.889652
-0.578343
-0.328637
-0.150217
-0.562387
-0.520645
0.176644
-0.514403
0.276365
0.792672
0.685803
0.293437
-0.620197
-0.413902
-0.071504
-0.574049
0.023228
-0.277951
-0.027774
-0.744584
0.524614
0.856810
-0.209155
-0.401738
0.967898
0.317189
0.054825
0.202129
0.113374
-0.635048
0.143141
0.109980
-0.211334
0.620529
0.583985
-0.159055
0.838440
-0.404727
0.267578
0.211233
-0.397633
0.127399
-0.489721
-0.112278
0.653074
0.427880
0.276210
-0.349649
-0.892694
-0.788229
-0.119323
0.617374
-0.936060
0.671782
-0.783768
-0.964396
-0.002187
0.283492
0.256132
-0.870914
0.645937
-0.697842
0.013005
-0.822824
0.704935
-0.524805
-0.028298
0.571593
0.177128
-0.639676
-0.173794
0.764139
0.481623
0.378414
-0.303830
0.168409
-0.180994
0.980510
0.818189
-0.078049
-0.810344
-0.301400
-0.460670
-0.746427
-0.629429
-0.243968
-0.712440
0.355547
-0.989875
0.463667
0.366558
0.527220
0.686615
-0.637598
0.726371
0.464350
-0.069505
-0.202432
0.131016
-0.840900
0.191793
-0.976002
0.994634
-0.279618
0.425524
-0.298591
0.893027
-0.755672
-0.319663
0.710273
0.166279
-0.130008
-0.591160
0.705499
0.123847
-0.219758
-0.543357
0.391738
-0.893376
-0.553520
-0.109891
0.554947
-0.934450
-0.338205
-0.998426
0.864223
-0.810556
-0.023357
-0.302157
0.362685
0.172005
0.911945
0.398927
0.170504
-0.365370
-0.174517
0.871528
-0.472828
0.069810
-0.448135
-0.762555
-0.763907
0.421912
-0.353353
0.942010
-0.455983
0.422596
-0.599674
0.952964
0.563679
-0.114729
-0.130121
0.137356
-0.033192
0.544403
0.144939
-0.163632
0.739028
-0.874306
0.537021
0.102511
0.297898
0.449063
-0.498550
-0.531598
-0.916307
0.326932
-0.660070
-0.389135
-0.603257
-0.108206
-0.151689
-0.367169
-0.686349
0.494629
-0.425476
-0.140903
-0.079770
-0.023192
-0.186436
-0.515614
0.862493
0.683942
0.621577
-0.171019
0.228450
-0.233737
0.665400
-0.032448
-0.107975
0.202435
-0.929937
-0.810077
-0.348502
-0.428487
-0.341675
-0.264808
0.898457
-0.001674
0.346179
-0.703910
0.890890
-0.804774
-0.071593
-0.796345
0.689336
0.503742
0.063847
-0.387756
-0.518133
0.876220
0.093404
-0.658261
0.560302
-0.284837
0.170799
-0.211249
0.481425
-0.163801
0.756303
-0.626550
-0.961366
0.826366
-0.436624
-0.310022
-0.602081
0.222038
0.427026
-0.700740
-0.775203
-0.219901
-0.392951
-0.873372
-0.018244
0.539306
-0.669877
-0.335730
0.029992
0.377575
0.259021
0.498946
0.250597
-0.645117
0.840729
-0.187622
0.072735
0.014017
0.601912
-0.445881
0.850216
0.358222
-0.072415
0.888609
0.185510
0.493728
-0.411438
0.602652
-0.244376
-0.937891
0.945618
0.025434
-0.115849
-0.426646
0.134145
0.812842
1.051065
0.400452
-0.584675
0.007423
-0.280488
0.645024
-0.501737
0.975273
-0.983852
-0.643950
-0.201177
0.090354
0.370540
-0.599233
0.644526
0.221701
0.766372
-0.404394
0.155967
0.020415
-0.821378
0.844162
-0.280640
-0.003307
0.934310
-0.379602
0.848921
-0.382977
0.026206
-0.098581
-0.648741
-0.059165
-0.888821
-0.420511
0.844653
-0.182606
-0.740233
-0.610309
-0.174627
-0.716004
-0.253362
0.624484
0.375438
-0.877757
-0.949360
0.074222
0.438587
0.910328
0.753221
-0.339295
-0.030101
0.915474
-0.595534
0.449522
-0.449916
0.920747
0.729937
-0.761401
-0.569692
-0.388196
-0.118262
-0.540194
0.345866
-0.038068
0.100908
0.272659
0.835180
0.380173
0.665300
-0.338426
0.669541
-0.567729
-0.659739
0.143431
-0.309271
-0.492410
-0.734866
1.048969
-0.703644
0.833565
-0.499364
-0.086786
0.196267
-0.718157
-1.073701
0.647500
-0.703612
0.727161
0.790535
-0.532933
-0.822008
-0.295934
0.064443
0.660687
0.753176
-0.801181
-0.058383
0.590082
0.590926
-0.351695
-0.657640
0.389452
0.219398
-0.220111
-0.484192
0.692208
-0.020295
-0.554846
0.501168
-0.064004
0.731665
0.350145
0.426501
0.106675
-0.833089
0.807158
-0.103110
-0.697134
0.432736
-0.190765
0.011433
0.837463
0.647138
-0.877646
0.508527
0.404031
-0.663882
-0.494874
0.096209
1.062201
0.268686
0.441696
0.249675
-0.850246
0.811939
0.422306
0.667030
-0.284074
0.671739
-0.210640
0.358986
0.645361
-0.237415
0.261267
-0.090789
-0.226730
-0.011173
-1.040477
0.366007
-0.262812
-0.049458
-0.555627
-0.417226
-0.397965
-0.419325
-0.862895
-0.911363
0.002392
-0.359318
-0.031531
-0.318480
0.466701
-0.903520
0.782523
0.664024
-0.887768
0.390544
0.265117
-0.376442
0.107267
-0.673220
-0.900047
-0.244868
-0.077327
0.332131
0.799971
-0.993872
-0.318121
0.972089
0.451880
0.424035
-0.073316
0.906628
-0.972339
0.547914
-0.512376
-0.982206
0.297824
0.069852
-0.670200
-0.840613
-1.166671
-0.926163
-0.202903
-0.841765
0.974314
-0.174884
0.430572
0.165489
0.291372
-0.524368
0.386738
0.419543
0.330075
-0.402770
0.084137
0.324496
-0.333949
0.769117
0.298473
-0.875080
0.193270
-0.800473
-1.060591
0.003473
0.447943
-0.836405
-0.146933
-0.272957
0.324582
0.588846
0.740877
1.041213
-0.770075
-0.455496
-0.983071
-0.939142
0.243052
0.447398
0.158710
-0.460760
0.940642
-0.236579
-0.785405
0.412727
0.393627
0.300461
-0.262041
-0.941524
0.052650
-1.024071
-0.977372
-0.979735
-0.990473
-1.096889
-0.064686
0.329872
-0.956134
-0.612139
0.208991
-0.489770
-0.362317
-0.073966
-0.602728
-0.159630
0.589085
-0.501051
-0.189882
-0.267622
0.889516
-0.861582
0.481359
0.942930
-0.090499
0.695220
0.356083
-0.702349
-0.032295
-0.999147
-0.839771
-1.196694
-1.034007
-0.686722
-1.117274
-1.153489
-0.737127
0.555343
-0.622881
0.338629
-0.620093
0.469740
0.792017
0.190462
-0.260110
-0.624767
-1.018811
-0.842675
-0.220267
-0.063295
0.084770
-0.219202
0.070522
-0.438068
-0.276569
0.974692
-0.771641
-1.026317
-0.918509
0.032011
-0.958027
-0.517189
0.089564
-0.900093
0.054158
0.671744
-0.222759
0.859785
0.307086
-0.067800
0.251693
0.966512
-0.234320
0.241584
0.127994
0.314102
0.506144
0.224590
0.646699
-0.609779
-0.846824
-0.277844
0.168956
0.216978
0.257943
0.793872
0.050417
0.399673
0.912083
0.433031
-0.187211
-0.711365
-0.650568
-0.623857
-0.387494
0.326855
0.737292
0.123990
0.224919
0.201310
-0.731216
-0.379226
0.130757
-0.148672
0.740639
-0.665889
-0.709966
0.310151
0.537389
0.923025
0.697547
0.680656
-0.367987
-0.210115
-0.168395
0.895727
-0.222609
-0.823722
0.581469
-0.064312
0.811185
-0.523748
-0.004185
0.782934
-0.503271
0.417249
0.089963
-0.795876
-0.422607
-0.578724
0.349054
-0.355036
-0.123080
-0.513685
0.525728
-0.401303
-0.232356
0.797430
0.906550
-0.697547
0.717441
0.568311
0.977871
-0.586348
-0.439174
0.028123
-0.516721
0.436880
0.227873
0.914032
1.064658
-0.235333
-0.779001
-0.033223
-0.596460
-0.463925
-0.647628
0.600171
-0.363297
-0.314087
0.800645
0.888773
0.239574
-0.437744
-0.713472
-0.258881
0.157907
0.063016
-0.447043
0.065999
0.380318
-0.664121
-0.251528
0.523137
-0.095504
0.451904
-0.463117
0.096131
-0.468803
0.464982
-0.136141
-0.534814
0.960338
-0.140469
0.423268
-0.501099
0.280823
0.515688
0.838054
0.702970
0.979181
0.445598
0.481242
0.193640
-0.994716
0.783050
0.966242
0.195495
-0.165618
-0.493776
-0.697972
-0.626072
-0.000396
0.143496
0.647253
0.443075
-0.811271
0.966729
-0.540001
-0.434871
0.154810
0.096517
-0.006948
0.241039
0.875659
1.163651
0.435532
-0.152447
0.379592
0.042429
-0.568126
0.329456
-0.514263
0.937347
-0.416362
-0.444771
0.712510
-0.500323
0.723835
-0.390338
0.047689
0.938636
-0.346909
0.661494
-0.136249
-0.668696
0.123236
-0.097458
-0.901770
0.398629
0.432269
0.299210
-0.565994
-0.770173
-0.764037
0.965573
-0.916677
0.451590
-0.291406
0.439137
-0.505261
0.167153
-0.168366
0.068995
0.167207
0.421014
0.604132
-0.218953
0.695131
0.021763
0.116489
-0.387882
-0.046317
0.861964
-0.663544
0.827865
-0.791119
0.447808
-0.261619
-0.718989
-0.235101
1.027294
0.333259
-0.082943
-0.984487
0.413719
-0.184819
-0.912647
-0.131538
0.544793
0.576433
0.440834
-0.205016
-0.491660
-0.423078
0.823652
0.522503
0.617472
-0.813531
0.051962
-0.354540
0.477704
-1.070339
0.891419
0.631459
-0.597202
0.783991
0.789001
0.740995
-0.571900
0.929340
-0.646436
-0.668916
0.196535
0.242321
-0.659000
-0.388562
-0.936121
-0.550240
0.519864
0.664800
1.114685
0.028847
-0.663470
-0.830948
-0.061872
0.626754
0.476865
-0.359196
-0.797950
0.066755
0.823894
-0.930661
0.160966
0.817153
0.691422
0.523504
0.598358
0.473800
0.240765
0.998640
0.388940
0.588147
-0.671374
-0.413581
-0.167902
-0.326061
0.212259
-0.073938
0.153355
-0.261196
-0.544438
-0.071974
0.342001
-0.425451
0.161183
-0.470399
-0.444598
0.030417
0.548230
0.008674
-0.742445
0.517240
0.169233
0.473609
0.398960
-0.085545
0.031207
0.013599
-0.612095
-0.729271
0.012078
0.776863
0.858920
0.340933
-0.630115
-0.292183
-0.956421
0.598276
0.574053
0.050459
-0.824464
-0.986988
-0.890340
0.653403
-0.308161
0.389522
-0.657276
0.383358
-0.430200
-0.959524
-0.487856
-0.101395
0.615031
0.730755
-0.589809
0.034757
-0.350738
0.441207
-0.951943
0.037167
0.711935
0.060179
-0.182767
0.581738
-0.578323
0.199229
-0.732999
-0.593990
-0.273270
0.829661
0.505021
-0.058066
0.868668
0.666142
-0.307242
-0.360837
0.137376
0.102495
-0.918396
0.747070
0.169916
-0.382006
-0.338538
-0.207703
-0.649366
0.071537
0.826912
-0.000104
-0.487256
0.874976
-0.962897
-0.775174
-0.064513
-0.147846
0.798364
0.339423
-0.970258
-0.942416
0.748912
-0.236828
0.894942
0.269239
0.729107
0.777954
-0.051993
-0.576462
-0.577749
-0.908703
0.531747
-0.492722
0.838522
-0.298121
0.125296
-0.500019
0.494175
0.475930
0.571518
0.321088
-0.524174
-0.915738
0.196057
-0.487111
-0.691058
-0.868838
0.363964
-0.895523
0.467341
0.391525
-0.839913
0.214215
-0.846848
-0.946802
-0.519200
0.878652
0.830344
0.427896
-0.697704
-0.747160
0.519193
0.834043
-0.239882
0.357715
-0.464079
0.885415
0.857696
-0.969903
0.361353
0.429301
0.351295
0.837473
0.513466
-0.453245
-0.650274
0.823011
-0.320660
0.714703
0.927005
-0.852956
0.106054
-0.913552
0.360005
0.258634
-0.859802
0.840667
0.137208
0.970475
0.268419
0.439492
-0.776685
-0.212388
0.273535
-0.016557
-0.854625
0.809455
-0.131130
-0.997324
0.839343
-0.770527
0.431103
0.189013
-0.930249
-0.047265
0.748166
-0.569296
-0.220826
-0.575833
-0.866141
-0.302785
-0.439154
0.235314
-0.219880
0.919521
-0.505609
-0.078126
0.762227
0.632577
-0.107480
0.030556
0.072069
0.115855
0.818304
-0.654704
-0.900278
0.963066
-0.842309
-0.026881
0.979567
1.015355
0.238637
0.460622
0.264143
0.343677
-0.591177
-0.032779
0.710035
0.127218
0.340976
0.811254
0.799193
0.890197
0.041542
-0.416191
0.822127
0.546359
0.511537
0.585351
0.179339
-0.595939
-0.383828
-0.746108
0.529255
-0.544173
-0.356119
0.698054
-0.487074
-0.098155
-0.226098
-0.445968
-0.102244
0.890347
0.830450
0.982925
0.112611
-0.831511
-0.125572
-0.295762
0.151811
-0.876812
-0.507703
0.001541
-0.909177
0.599612
0.616941
0.919881
0.147012
0.128703
0.507486
-0.662299
0.566396
-0.810851
-0.314136
0.187740
-0.292437
0.345664
-0.120272
0.135232
1.040538
0.311609
0.371363
-0.242061
0.099312
0.094616
-0.443431
-1.040809
0.013559
0.291199
-0.307933
-0.659771
0.638373
0.374873
0.434088
0.752601
-0.020796
0.051512
0.682408
-0.842503
-0.758967
0.271804
-0.436558
0.830609
0.430020
0.175005
-0.053173
1.040613
-0.647838
0.566178
-0.031323
-0.692767
-0.188368
-0.850535
-0.279509
0.574189
0.011128
0.217759
0.674696
-0.700407
-0.158291
-0.341221
-0.203507
-0.472340
-0.955195
-0.767473
-0.701670
0.070850
0.362466
1.047746
0.228316
0.523382
0.211582
0.739740
0.407312
-0.287073
-0.113063
1.175155
-0.446381
0.082134
0.539730
0.229062
0.026462
-0.944186
0.126732
0.662500
0.686601
-0.672272
0.149338
0.640486
-0.193099
-0.942350
-0.686399
0.609054
-0.388983
-0.584928
0.914694
-0.049135
0.435029
0.133468
-0.146413
-0.328280
-0.160735
1.217548
-0.653544
1.029429
-0.305018
0.083479
0.991446
-0.035472
0.822146
0.175571
0.775609
-0.453577
0.066102
-0.111582
-0.695896
-0.052589
0.382747
0.534955
-0.394146
-0.800701
0.624360
-0.021800
0.863648
-0.772948
0.254318
0.542701
-0.006693
-0.291940
-0.133736
0.961167
0.299178
0.504997
1.053659
0.622669
0.462464
-0.427510
-0.657503
-0.086882
-0.075241
0.719441
0.843445
-0.442086
-0.762464
0.005155
0.566362
-0.386647
0.967864
-0.041392
-0.824422
-0.378542
0.182986
0.737610
0.390712
-0.240861
0.767227
-0.299926
-0.466146
-0.060449
0.406964
0.375119
-0.058252
-0.149510
0.003430
-0.001519
1.161598
0.868763
-0.083691
-0.920394
-0.436823
0.658100
0.688436
-0.601582
-0.727261
0.967763
0.411376
0.847419
-0.396877
0.407014
-0.197201
-0.304814
0.843709
0.756111
-0.701110
0.271618
-0.291271
-0.735286
-0.916517
0.364525
0.378775
0.804285
0.069078
-0.514806
-0.548889
0.538144
-0.112306
-0.773078
0.190624
0.633432
-0.833424
0.690702
0.296449
0.872390
-0.906306
0.575324
0.854084
0.514500
0.409626
-0.631252
-0.207374
-0.934989
-0.057096
-0.445000
-1.134512
0.344733
-0.975587
-0.174151
-1.027059
-0.384126
-0.360827
0.555971
-0.732501
0.259718
0.570240
-0.644122
-0.386805
-0.655672
-0.519030
0.742305
0.954408
-0.354047
0.435159
0.254905
-0.473917
0.526243
-0.202158
-0.704134
-0.052188
-0.873717
-0.451910
0.559391
-0.932636
0.612495
-0.572944
-0.687502
0.438995
0.066494
0.626596
0.659951
0.540769
0.987008
-0.085108
0.559286
0.155448
-0.557425
0.883771
0.737013
-0.237459
-0.645416
0.479478
-0.280046
0.004770
-0.093294
0.925485
0.426726
-0.661059
-0.333179
0.632592
0.130383
-0.282052
-0.604136
0.089832
0.219384
-0.550433
-0.897150
1.020771
-0.802505
0.102724
0.507747
0.663721
-0.465061
0.498440
-0.397604
-0.882134
-0.345197
0.029457
0.987014
-0.612182
0.793040
-0.658326
0.867417
-0.527441
0.259172
-0.294139
-0.608888
-0.292544
0.029995
0.084804
-0.407945
-0.492182
-0.925076
0.249838
-0.948649
0.793505
1.052678
-0.830422
0.729318
-0.871433
0.222691
0.255488
0.819874
0.782914
-0.252506
-0.600214
0.878662
0.395458
0.430782
0.871942
0.800043
0.218843
-0.819167
0.625469
0.687866
0.489106
-0.611807
-0.822953
-0.649455
0.465020
0.203278
-0.002382
-0.591955
0.939434
-0.306737
-0.533826
0.539871
-0.395957
-0.456822
0.221439
-0.317303
0.718468
-0.583895
-0.555304
0.460866
0.152675
-0.153931
0.355130
-0.417697
-0.691068
0.226415
-0.641906
0.501197
0.439449
1.043955
0.310602
0.020068
-0.679336
0.202610
0.273768
-0.783307
0.128032
-0.270135
-0.447167
-0.225438
0.197528
-0.178529
-0.820606
0.645919
0.212438
0.275627
-0.768005
-0.127765
0.678317
-0.320923
-0.645150
-0.122692
0.574918
0.720997
0.441291
0.852438
-0.014003
0.902649
0.528248
-0.536004
0.690848
-0.631608
0.247055
-0.728668
1.132146
-0.175810
-0.672322
-0.015008
0.287382
-0.378786
0.539135
-0.744036
0.231572
0.573642
0.802602
-0.615134
-0.160670
-0.960679
0.284666
-0.431204
-0.235302
0.639420
0.417753
-0.674824
0.430540
0.011718
-0.672131
-0.649260
-0.559711
0.204799
-0.541231
-0.730221
0.964969
0.827934
-0.671963
0.845952
-0.581108
-0.549852
-0.379694
0.483200
-0.116753
-0.955220
0.664885
-0.933431
0.609454
0.471901
-0.519779
-0.491968
0.576705
0.758579
0.012012
-0.720608
0.456248
-0.428269
-0.293446
-0.305626
-0.016551
-0.609834
-0.274533
0.565974
0.847943
0.202161
0.633542
0.629200
-0.116964
0.859960
0.342064
0.145636
-0.805399
0.894693
-0.424321
0.044097
0.932358
-0.755912
0.134408
0.587707
0.776868
0.624373
1.040328
0.282528
0.425192
0.189438
0.657248
-0.321030
0.227093
0.821819
0.113229
-0.666211
-0.645900
0.832656
0.767101
-0.899239
-0.012213
0.391493
0.672334
0.791306
0.198326
-0.016984
-0.098018
0.373749
-0.126466
0.481190
-0.565636
-0.162506
0.769212
0.601866
-0.550064
0.579604
0.317712
-0.361833
-0.069367
-0.522677
0.252645
-1.008327
-0.167740
-0.526252
0.850811
-1.011989
-0.194323
-0.787814
0.886090
-0.358423
-0.667399
-0.136908
-0.990514
0.988397
-0.362761
0.199618
-0.029967
0.541191
-0.419002
0.862995
0.048682
0.048742
-0.217723
-0.043141
-0.191722
0.304287
-0.609704
0.668073
0.259966
-0.346650
0.769460
-0.527621
-0.245104
-0.189140
0.111976
-0.265274
-0.058430
-0.963225
0.011200
-0.143600
-0.323295
0.338522
0.713585
-0.315412
0.327109
-0.648645
0.886419
-0.694462
0.911207
-0.490010
-0.747225
0.095335
0.670512
0.002775
0.773786
0.977165
0.726583
0.718464
0.499103
0.076223
-0.432873
0.495078
0.705141
0.430656
-0.565290
-0.077879
-0.776525
0.414688
-0.028809
0.239451
-0.728841
0.648084
-0.421926
0.984790
-0.667135
0.907728
-0.649605
-0.742690
-0.714195
-0.643925
-0.182976
-0.533562
0.229603
-0.809231
0.175880
-0.188787
-0.852227
-0.023911
-0.378778
0.684576
-0.957776
0.177905
0.219378
0.786250
-0.368174
0.673523
-0.282982
-0.139582
0.088571
0.688218
-0.900278
0.359730
0.336302
-0.322573
0.349656
0.688000
-0.381160
0.727837
0.929258
-0.187093
0.921121
-0.412843
0.163808
0.070179
-0.273830
-0.688726
0.847661
-0.210697
0.185174
-0.607889
-0.553211
0.222890
0.569382
0.666945
0.010110
-0.797539
0.340277
0.727080
0.062801
-0.571152
0.415298
0.162592
0.788843
-0.247865
0.841619
0.135250
-0.577381
-0.574030
-0.184299
-0.691744
0.213261
-0.275195
-0.126847
-0.654780
0.762489
0.553100
-0.399456
0.569945
-0.674398
0.779638
0.960419
-0.228517
0.001826
0.529600
-0.561604
-0.988072
0.732061
0.778673
0.739008
-0.205138
-0.792478
0.154307
0.957385
0.996100
0.905907
0.797704
0.129152
-0.673478
-0.778893
0.942261
-0.367091
0.429600
-0.339012
0.499640
0.766507
-0.582081
0.049917
-0.635257
0.987607
0.375493
-0.855755
0.947991
-0.853024
0.146071
0.477591
-0.414628
0.157999
0.209649
-0.635975
-0.103179
-0.995833
-0.428913
-0.949922
0.959872
-0.434007
0.955422
0.758110
0.694980
-0.717563
0.980654
0.639263
-0.084158
0.410825
-0.700030
-0.583937
0.176635
-0.282033
0.466165
0.541455
-0.294423
-0.158341
0.685699
-0.346432
-0.011372
-0.168188
-0.868892
0.573941
0.988660
0.338245
0.933410
-0.122094
0.333025
-0.502046
-0.075619
0.289859
0.060075
-0.118964
0.053104
-0.244578
0.160245
0.031128
-0.598159
-0.911319
-0.546533
-0.288567
-0.488387
0.634636
0.431192
0.978033
0.175801
-0.863231
-0.180325
-0.138400
-0.209684
0.808007
0.692140
-0.081443
0.374231
0.667880
-0.763306
0.288373
-0.470133
0.562956
0.783551
0.463002
-0.136323
-0.151902
-0.662365
0.930688
0.649796
0.563130
0.018087
-0.912296
0.675809
0.486763
-0.192382
-0.810287
0.121097
-0.761011
-0.832238
-0.703087
-0.623748
-0.013337
0.159134
0.162700
-0.219740
-0.171159
-0.912194
-0.794683
-0.424936
-0.635679
0.459286
0.010819
0.836006
0.220077
-0.468018
-0.200583
-0.798688
0.007495
-0.155844
0.903050
-0.406963
0.883565
-0.987593
-0.724514
0.369930
-0.180438
-0.534544
-0.508816
0.059546
-0.369223
-0.222033
0.397926
0.539430
0.833193
-0.451828
-0.559765
-0.147823
-0.292767
-0.438069
0.185427
-0.143762
-1.028456
-0.696295
-0.156053
0.275870
-0.021191
0.801246
0.598437
-0.958411
-0.281842
0.573006
-0.337174
-0.394944
0.586195
-0.061066
0.975458
-0.594747
0.397900
-0.559326
0.357136
-1.128254
0.064409
-0.194739
0.674210
0.335044
0.770105
-0.528012
1.324171
-0.542147
-0.155184
0.403868
0.171411
-0.345436
0.656604
-0.883055
-0.922185
-0.236033
-0.921900
0.840195
-0.116821
-0.189976
0.414970
0.546005
0.414804
-0.001548
-0.526750
0.338476
0.250473
0.662308
0.654211
-0.113627
1.128805
0.561367
1.370361
1.331810
0.023325
0.887758
1.072387
-0.440601
0.583611
-0.588582
0.643603
-0.400463
-0.018131
0.344060
-0.105352
0.274575
-0.774856
-0.010843
0.114242
0.106791
0.796734
-0.476959
-0.365873
0.165873
0.394216
-0.044088
-0.519485
0.028484
0.438433
0.028413
1.365930
0.550962
1.047183
0.954380
-0.148100
1.032948
-0.006144
-0.639159
-0.753183
-0.761194
-0.550625
0.789550
-0.014284
0.619437
0.236491
0.885560
-0.108162
0.459293
-0.127922
-0.995693
-0.429882
-0.324592
-0.514670
0.134524
0.775534
-0.756341
-0.245854
-0.242109
0.202706
0.699034
0.141931
-0.090444
-0.556631
-0.415074
-0.450278
0.018186
-0.603381
0.157397
0.040475
-0.417779
0.545458
0.629597
-0.575819
-0.470902
0.243379
0.657840
-0.588323
-0.851871
0.159902
0.349372
-0.777911
0.661523
0.822668
-0.182734
-0.017659
0.668234
-0.259606
0.487053
-0.623501
0.563791
-0.447956
0.366561
-0.229327
0.166097
0.779892
-0.102518
0.908146
-0.774130
-0.790732
0.029604
-0.173629
0.754234
-0.353511
0.248244
-0.714850
0.923906
-0.014105
-0.171463
-0.784451
-0.949130
0.789270
-0.925445
0.400053
0.600489
-0.132825
-0.165304
0.780981
0.360205
0.812211
-0.657140
0.611056
-0.201056
0.442754
0.945807
0.653779
0.282381
-0.073519
0.574226
0.509414
0.134451
-0.406442
-0.665537
-0.100541
0.286599
0.673467
0.320123
0.347137
-0.529393
0.544069
-0.226060
-1.020379
0.471433
0.372964
-0.487801
0.811644
-0.914905
-0.097441
0.784394
1.059703
-0.012130
0.777506
0.229439
0.445836
0.222392
0.175072
0.078895
-0.498770
-0.896792
-0.347476
-0.987817
0.248502
0.285462
-0.612118
-0.798270
-0.339755
0.875620
-0.076199
0.051573
-1.161977
-0.166962
-0.153505
0.216255
0.140756
-0.841950
0.148547
-0.110832
-0.520763
-0.826803
-0.567477
-0.840036
-0.111039
-0.785239
0.414009
-0.648762
0.452285
-0.399556
0.433128
0.956132
-0.289676
-0.898477
0.934917
0.881785
0.369705
-0.733360
-1.240617
0.233087
-1.278824
0.051579
0.444465
-0.122190
-0.327435
-0.845086
0.339834
0.335210
-0.723987
-0.301595
-0.711149
-0.377472
-0.186438
-0.171809
-0.080159
0.804040
0.092801
-0.649016
-0.845259
-0.455943
-0.055734
0.591412
-0.566603
0.463332
0.571333
-0.610644
0.385628
-0.278345
-0.510286
0.521401
-0.182053
-0.020155
-0.145393
-0.989367
0.271578
0.170017
-0.742021
0.071926
-0.052928
-0.322458
-1.052120
0.491230
0.552199
-0.067560
-0.598968
-0.507764
-0.264662
0.494464
-0.165014
-0.118893
-1.026235
0.613808
-0.669665
-0.527680
0.365515
-0.836979
0.059269
0.051975
0.013523
0.419041
-0.655113
0.678491
-0.608301
0.347227
-1.040405
-0.791517
0.112954
-0.481846
0.587081
-0.592310
0.487772
0.720008
0.977229
0.055163
-0.348749
-0.621594
0.542779
0.370241
0.798442
-0.753981
-0.875661
0.801374
-0.805276
-0.158901
-0.465848
0.633046
-0.293656
0.069975
-0.542037
-1.143147
-0.137373
0.088371
0.838081
0.859703
0.011651
-0.905190
-0.654011
-0.572646
-0.165944
-0.934736
-0.119523
-0.676343
0.782388
-0.143097
0.373792
-0.578884
0.174637
-0.183113
0.665210
0.020815
0.338451
-0.815991
0.057163
0.403335
-0.372694
0.211143
0.063102
0.598972
-0.329813
0.657744
0.741982
-0.876191
0.195100
0.752285
-0.911429
-0.664118
0.946786
-0.509341
-0.216911
-0.219752
-0.445813
0.662490
0.097754
-0.673508
-0.510659
-0.575575
-0.286273
0.725639
0.434896
-0.380047
-0.179557
-0.387157
-0.499432
0.687252
-0.812849
0.400023
0.193038
0.254442
0.270603
-0.664673
0.232015
0.092725
-0.603061
-0.609500
-0.157519
-0.514257
-0.265070
-0.205716
-0.024059
0.516956
0.571103
0.522425
0.169932
-0.316981
0.900398
0.755755
0.237138
-0.321398
0.386439
-0.531896
0.051372
-0.823055
0.169362
0.779378
-0.888201
0.416720
0.436466
0.653196
-0.015441
-0.217588
0.831073
-0.930062
0.808553
-0.792051
-0.536101
-0.343515
-0.305540
0.198600
0.451643
0.669493
-0.265722
0.072356
0.274358
0.984029
0.792864
0.110384
0.584614
-0.188119
0.543202
-0.064526
0.290011
-0.089269
0.390993
-0.342584
-0.177040
0.660302
-0.656213
-0.653868
0.139522
0.147447
0.036052
-0.055709
0.213208
-0.154633
0.153267
0.677002
0.503102
0.852639
-0.085037
0.021769
0.602845
0.671233
1.025933
-0.226874
0.575049
0.691686
0.736487
0.033547
-0.528101
0.582858
-0.708909
0.939191
-0.644027
0.537343
-0.213864
0.319553
0.096928
-0.024565
0.566577
-0.804406
-0.892798
-0.401953
0.140472
0.320331
0.442775
-0.697950
0.035371
0.018596
-0.776911
0.927456
0.931284
0.745839
0.573211
0.886249
-0.568273
-0.044557
0.493442
-0.663762
-0.754250
-0.941288
0.566555
-0.817288
-0.842442
-0.863099
0.698205
-0.195085
0.341006
-0.263165
0.761744
-0.096059
-0.067292
0.868623
0.500255
-0.926090
0.206264
-0.015618
-0.590302
-0.776117
0.951892
-0.345601
-0.818550
0.812761
-0.738994
0.500470
0.572541
-0.289959
-0.282969
0.267315
-0.316878
-0.449042
0.401968
-0.580767
-0.289383
0.413981
-0.560781
-0.657215
-0.792866
0.779942
0.079775
0.968932
-0.317108
-0.987283
0.847324
-0.797917
-0.893454
0.067321
0.225105
-0.376595
0.387402
0.174661
0.169115
0.409911
-0.099226
0.362671
0.120928
-0.323342
0.768217
0.350791
0.752442
-0.582351
0.799589
0.023101
-0.249232
-0.536672
-0.567084
0.189858
-0.193850
-0.359950
-0.030200
0.888890
-0.384573
0.660567
0.908209
-0.536835
0.871015
1.026275
0.523375
0.062291
-0.430844
-0.195469
1.066423
0.510112
1.078477
-0.108263
-0.410783
-0.198994
0.297332
-0.792422
-0.961531
-0.025174
-0.411908
0.823772
0.997040
0.338718
-0.712881
-0.570044
-0.471424
0.093257
0.069928
0.498218
-0.021035
0.678396
0.151715
-0.121304
-0.872471
-0.006903
-0.134980
0.602739
0.962635
0.298514
-0.711027
0.960284
-0.297826
-0.748289
-0.240839
0.222675
0.011001
-0.963415
0.424628
0.048097
0.011343
-0.987283
-0.128131
0.008383
0.351434
0.158988
0.438338
0.880010
-0.747743
-0.491656
0.378386
0.231451
-0.812723
-0.469559
-0.890945
-0.687026
0.522060
-0.029272
0.912581
0.484500
-0.730944
-0.799815
0.439708
-0.034990
-0.550055
-0.801821
-0.812404
0.460936
-0.765237
0.612224
-0.490968
0.246106
0.624941
0.380899
-0.745471
-0.023844
-0.461162
0.690160
-0.147627
-0.213256
-0.804289
-0.769810
-0.978558
-0.615261
-0.243114
-0.871467
-0.303692
-0.717598
0.100011
-0.387655
0.771375
0.372247
-0.185831
0.211484
-0.662554
0.264120
0.409662
-0.474958
-0.274944
0.644419
-0.862786
0.233913
-0.109000
0.761296
-0.390582
0.127480
-0.288397
0.111748
-0.216475
0.532125
0.887761
-0.020622
0.753585
0.879383
0.340371
-0.459512
-0.919898
-0.878402
-0.123708
0.202408
-0.258397
-0.346816
-0.421289
0.557039
0.865490
-0.083467
-0.178840
0.275139
0.441105
0.545707
-0.081471
0.572969
-0.233502
0.780788
0.297084
0.336683
-0.118991
-0.973291
-0.501414
0.712258
0.567233
-0.616935
-0.272588
0.439703
-0.535092
-0.721019
-0.892668
-0.438452
-0.626488
-0.029818
0.773947
0.130316
0.635527
-0.643171
-0.311770
0.501028
0.273427
0.510834
-0.222041
-0.277223
0.061473
0.691962
-0.715441
0.805482
0.474176
0.586271
0.221820
-0.528041
0.679276
0.742455
-0.708632
0.456598
-0.634116
0.126328
-0.123753
-0.322165
0.280011
-0.043253
0.307324
0.730957
0.973933
0.095218
-0.135082
0.609644
0.453361
0.560045
0.126623
-0.231725
0.116923
0.934812
0.489588
-0.836447
0.591315
0.707909
0.929498
0.096672
0.474321
0.399740
0.796423
0.328158
0.081410
0.789741
-0.595864
0.125612
-0.241570
0.289095
0.959484
-0.772872
-0.642223
0.309061
0.968528
-0.667280
-0.593676
-0.153814
0.986374
0.939867
-0.512792
0.147101
-0.335769
0.459070
-0.094576
-1.032650
0.483854
-0.471464
0.835482
0.717010
0.808629
0.195058
-0.299240
0.093471
-0.856755
0.572524
-0.175311
-0.425880
-0.144211
0.830903
-0.955680
-0.090000
-0.911542
-0.594585
-0.777153
-0.921999
-0.201279
-0.286690
-0.030303
-0.265162
-0.490705
0.182029
0.590226
-0.096053
-0.335059
-0.290465
0.245026
-0.479621
0.309645
-0.183797
0.734701
-0.222585
0.950666
-0.484938
0.882679
-0.932577
-0.873222
-0.089084
-0.146577
0.113000
-0.213354
-0.097617
-0.971760
-0.103028
0.359810
-0.700890
-0.067966
-1.005434
-0.224733
0.697114
-0.399791
0.265936
0.184979
-0.298322
-0.276675
1.127194
0.404587
0.629568
-0.795039
-0.573699
-0.572642
1.004183
0.130352
-0.804190
-0.641445
0.073771
-0.534148
-0.350221
-0.959993
0.323862
0.770147
-0.156109
-0.746701
0.771374
0.579681
0.315792
-1.130110
-0.489457
0.469973
-0.046354
-0.386452
-0.523240
-0.556148
0.814417
0.149758
-0.052480
0.490869
0.990250
-0.722218
0.588745
-0.758043
-0.591242
0.355637
0.337702
-0.243129
0.888486
-0.531858
0.228316
-0.457150
-0.489095
-0.456812
-0.792927
0.069985
-0.540531
-1.129319
-0.130758
-0.745430
-0.854059
0.585062
0.753841
-0.068520
-0.717165
-0.514018
0.480324
0.770466
0.040052
1.007829
0.158087
-0.074858
-0.955687
-0.485246
0.039614
-0.512588
0.990823
-0.581367
0.248466
0.880236
-0.130272
-0.561546
-0.723466
0.080587
-0.352279
-0.571770
-0.464742
0.736535
-0.259237
0.480892
-1.215785
-0.332493
0.398286
1.070616
0.960956
0.585051
-0.736535
0.237599
0.288210
0.197288
0.124444
-0.721726
0.928164
0.084763
-0.157103
-0.009470
0.573981
-0.171114
0.385782
-0.222058
-0.440009
-1.020410
-0.083302
-0.157776
0.566378
-0.695920
0.717196
-0.849959
-1.245536
-0.616895
-0.917470
-0.820147
0.487958
0.587511
-0.764294
0.498585
0.147015
-0.584429
-0.258524
-0.613149
0.450444
0.727585
-0.337998
0.383000
-0.187292
0.499601
-0.639092
-0.620451
-0.755691
0.536036
-0.086295
-0.116193
-0.883284
-0.423167
-0.843957
0.517781
-0.512410
-1.271711
-1.028546
-0.228584
-0.434612
-0.697750
0.135054
-0.795559
0.891130
0.363306
0.792685
0.105482
0.689819
-0.583430
0.471719
0.138317
-0.855857
-0.865420
-0.451059
0.028025
0.631000
-0.226796
0.146326
0.856456
-0.256098
-0.336289
-0.003244
-0.496813
-0.325047
-0.201081
-0.778431
0.640345
0.125428
-0.341083
-0.230949
0.810334
-0.052819
0.953142
-0.793887
-0.016108
0.291833
0.923978
-0.929967
-0.025380
-0.659140
0.549683
-0.821545
-0.369364
0.760572
-0.350762
0.363445
0.281714
0.586900
-0.215729
0.156917
-1.037805
-0.068951
-0.987719
-0.243983
-0.714716
0.504477
0.456135
-0.794780
-0.346717
-0.908085
0.065327
-0.277971
0.177921
0.006195
-0.132905
-0.855682
-0.713187
-0.208078
-0.773962
0.340790
0.328223
0.929834
0.470494
0.620734
0.478894
-0.880784
0.018401
-0.433172
0.218414
0.463385
-1.142632
0.728433
0.288312
-0.545052
-0.297639
0.472903
0.841414
-0.830847
0.830444
-0.319628
-0.709296
-0.140014
0.350365
0.447034
0.854830
-0.780880
0.601193
-0.763532
0.267429
1.082493
0.580891
-0.818593
0.551649
-0.207883
0.693681
-0.163887
-0.454120
-0.459042
0.622793
-0.534933
-0.169626
0.835071
-0.986420
0.719300
-0.813754
-0.184420
0.425787
-0.935426
-0.112872
0.172516
-0.321078
0.143194
-0.979884
-0.971456
-0.402623
0.958332
-0.443195
-0.437230
-0.723335
0.254743
0.900838
0.435450
0.435181
0.554646
-0.807772
0.037533
-0.473308
0.069006
0.940894
-0.800481
0.201503
-0.390764
-0.787732
0.496948
-0.447879
-0.718948
-0.892270
0.781880
-0.785640
-0.067625
-0.064939
-0.110801
-0.917362
0.050117
0.230076
0.036844
0.024056
0.156537
-0.151400
0.002898
-0.371559
-0.011976
-0.680346
0.743335
-0.668376
-0.599002
-0.149081
-0.160039
0.384485
-0.024676
0.391763
-0.072771
0.658367
0.379403
-0.883370
0.890724
0.457690
-0.871907
0.647822
0.668823
0.081355
-0.301854
-0.168802
0.423457
0.686621
0.443153
0.815214
-0.439844
-0.093015
-0.172501
0.239590
-0.073715
0.338646
0.318639
-0.229240
0.838211
0.955161
0.912423
-0.009496
0.549351
-0.179186
-0.890325
-0.888533
-0.860673
0.266559
-0.862807
-0.983689
-0.273597
-0.706791
0.750641
-0.403557
0.517143
-0.633618
-0.055634
-0.520074
0.881391
-0.322168
-0.502208
-0.739591
0.000505
-0.207958
0.282841
-0.855698
-0.531673
-0.067801
0.059856
-0.578335
-0.115243
-0.168220
0.117056
-0.885385
0.384058
0.058487
-0.830048
0.519087
-0.672152
-0.673335
0.578728
0.156204
-0.292709
0.290277
0.407129
0.831552
0.495080
-0.436523
-0.480481
0.285857
-0.237943
-0.468345
0.268885
0.788892
0.550236
-0.191532
1.051110
1.004342
0.609580
-0.037500
-0.778023
-0.712433
0.631532
0.254065
-0.625677
0.013420
-0.687021
-0.450761
-0.473011
-0.362174
-0.122563
-0.886337
0.626677
0.276892
0.123881
-0.030755
0.173850
-0.458529
0.301746
0.430232
0.689009
-0.816340
-0.698005
0.337953
-0.781159
0.855837
-0.965355
-0.836990
0.777377
0.576168
0.070418
0.971408
0.854288
-0.298428
0.225178
-0.775422
0.703093
0.513369
-0.241941
-0.745380
-0.819496
0.574386
-0.800562
0.670845
-0.189761
0.350238
-0.213082
-0.790940
-0.854552
-0.610918
-1.014031
-0.795487
-0.199721
-0.667225
0.522376
0.001866
-0.800907
0.582438
0.174008
0.974348
0.156353
-0.755573
0.945759
0.007974
-0.060242
0.164463
0.237875
-0.332859
-0.284879
-1.006087
-0.158576
-0.220802
0.515598
0.124905
-0.328870
-0.377082
-0.281558
0.635106
-0.023244
0.053541
-0.804495
0.080035
0.324213
0.050227
0.463949
-0.112747
-0.930960
0.664403
-0.530358
0.242945
0.638751
0.625995
0.487557
0.585828
-0.360768
-0.562763
-0.239780
0.876468
0.081606
0.441851
0.874228
-0.999108
-0.652822
0.516501
0.208192
0.079193
-0.802038
-0.974360
-0.179416
0.256735
0.133448
0.060218
-0.629161
-0.525546
-0.884479
0.835609
0.361696
-0.815493
0.500012
0.831338
0.427465
0.138812
0.457250
-0.085863
-0.277215
-0.905795
0.346333
0.476017
0.968364
-0.555419
-0.051948
0.861227
-0.552811
0.294637
0.381788
0.672005
-0.610052
0.591240
0.704550
0.218696
-0.144710
-0.159247
-0.720451
0.226143
0.315205
-0.604931
0.061752
-0.323100
-0.420423
-0.438236
-0.491762
-0.992971
0.700528
0.965572
-0.078147
-0.576201
-0.940404
-0.729812
0.902833
-0.970599
-0.287397
-0.153194
0.887286
0.157999
-0.859309
0.269643
-0.169980
-0.469267
-0.138931
-0.464822
0.749573
0.716359
0.375931
-0.970878
-0.057498
-0.308864
-0.575807
-0.995729
0.368508
0.004683
-0.432753
0.877153
0.011887
-0.731239
0.845152
0.934102
-0.309222
0.901658
-0.796131
-0.405047
0.932036
-0.083761
0.440407
0.818340
-0.926634
0.580652
0.087717
-0.096680
-0.888616
0.948786
0.438498
0.860957
0.665156
-0.185576
0.890110
-0.392185
0.507450
-0.682231
-0.380739
-0.115589
0.333895
0.197060
-0.228398
-0.650102
0.466224
-0.380491
-0.706380
-0.838176
-0.485569
-0.521879
-0.264159
-0.571007
0.382391
-0.831310
-0.758217
0.452556
0.748579
0.329689
-0.643898
0.859963
0.278498
0.794587
0.720997
-0.054680
-0.385944
0.620621
0.570611
-0.853463
0.970705
-0.781450
0.050222
0.309419
0.412792
0.819190
0.653388
-0.135545
-0.605034
0.876196
-0.055106
-0.164330
-0.694906
0.653072
0.248804
0.677630
0.816532
0.488769
0.130069
0.564851
-0.181544
0.486087
0.425364
-0.897424
0.295789
0.174746
0.092731
0.966330
-0.157129
-0.317549
-0.931332
-0.304420
-0.277266
-0.034271
0.941163
-0.853257
-0.202547
0.544990
-0.090339
0.081297
0.350194
0.817446
0.893210
0.630476
0.450075
0.129980
0.306159
0.266635
-0.381038
-0.564429
-0.168271
0.450224
0.953664
-0.685762
0.620185
0.314297
0.491657
-0.380672
0.066575
-0.939287
0.060145
0.040452
-0.144560
0.962397
-0.846495
-0.178285
-0.934263
-0.157041
-0.711990
-0.072276
0.898267
0.601435
-0.297239
0.764446
0.223454
-0.848203
-0.105281
-0.469984
0.426492
0.536368
0.017182
-0.661408
0.051631
-0.014698
-0.443175
-0.539923
-1.012182
0.720359
-0.147658
0.044503
-0.949642
-0.719163
-0.643432
-0.047345
-0.823451
-0.615543
0.696080
-0.795365
0.224696
0.953630
0.070916
0.074336
0.531941
0.767165
-0.161676
-0.237812
0.940014
0.780899
0.360100
0.442199
0.351240
-0.676252
0.582243
-0.872108
-0.033229
-1.166782
-0.608349
-0.021242
-1.110448
0.736766
-0.522293
-0.883134
0.975285
-0.291395
0.013897
-0.828285
0.126055
-0.320129
-0.709654
-0.738443
-0.412414
0.349079
0.337375
-0.866666
0.145464
-0.782728
-0.082989
0.098608
0.991404
-0.789750
-0.661962
0.065220
-0.720199
0.755532
0.114245
0.391114
-1.019851
-0.991033
-0.189677
-0.926692
0.770889
0.235295
-0.802839
0.827381
0.977912
0.146637
0.869104
-0.038388
0.748318
-0.861204
0.227053
-0.646415
0.512646
-0.434225
-0.555138
-0.388751
-0.225323
0.322134
0.566889
-0.407328
0.468608
-1.034224
0.683977
0.853331
0.989482
0.159423
0.467832
-0.960245
0.197225
-0.692076
-0.845615
0.007575
0.506793
-0.758669
-0.326768
0.318161
0.288855
-0.481282
-0.714868
0.056797
-0.327196
0.472334
0.311402
-0.896516
-0.939462
0.816873
-0.274491
-0.162441
0.281956
-0.558648
0.359715
-0.377613
-0.517638
0.271781
-0.440046
-0.664066
-0.662201
1.029169
-0.606094
0.492481
-0.745675
-0.548312
-0.598278
0.656139
-0.376491
0.062081
-0.020831
0.925357
0.574423
0.192825
-0.143494
-0.809205
-0.229098
-0.601891
-0.527947
-0.013679
-0.661821
0.170205
0.475974
0.227945
0.566982
0.086572
0.959554
0.830373
-0.863813
-0.523897
-0.803543
-0.519962
-0.513423
-0.411876
0.976998
-0.270275
0.022056
-0.623112
-0.611521
0.647074
0.416268
0.288740
0.464659
-0.000254
-0.314656
-0.350033
0.423251
0.547631
-0.051305
0.562063
-1.046142
-0.187486
-0.217822
0.844397
-0.624628
-0.761661
-0.308821
-0.799381
-0.922504
-0.101866
-0.279273
-0.663289
0.433809
0.238887
-0.071833
0.412870
0.970556
0.947776
0.756648
-0.716951
0.521627
0.198622
0.813072
0.299298
-0.617397
-0.592411
0.645283
0.313121
0.403196
-0.701100
0.151354
1.006339
0.627851
0.912361
0.586324
0.734317
-0.910992
-0.671795
0.968060
-0.794289
0.269219
-0.281751
-0.454070
-0.294925
0.960406
0.467470
-0.917750
0.862235
0.346165
0.853477
-0.667590
0.101453
0.194564
1.020625
-0.838011
0.244870
-0.870010
0.705944
-0.027780
-0.766067
-0.472392
1.075834
0.887687
0.817618
0.862749
0.451965
0.517123
0.931893
0.790486
0.507036
-0.859774
0.061801
-0.771542
-0.317400
0.735844
-0.893942
-0.924314
0.800860
-0.887809
0.610121
0.792987
-0.581763
-0.367120
-0.119508
-0.714038
-0.294879
-0.587700
-0.042168
-0.197165
0.236445
-0.213582
-0.003486
0.180379
-0.424745
-0.286042
-0.011808
-0.978832
-0.765733
-0.080581
0.813578
0.743151
0.058154
-0.142541
0.897015
0.663566
-0.450551
-0.914149
0.863270
-0.537002
-0.764900
0.493810
-0.718728
-0.439277
-0.987560
0.327219
0.265463
0.017686
0.587199
0.835416
0.550479
-0.269229
-0.506686
-0.585535
0.850042
0.054524
0.117102
-0.163925
0.077607
0.353512
0.758352
-0.113273
0.067959
-0.219751
0.700024
-0.011717
-0.510132
-0.655218
0.207674
-0.527806
-0.103562
0.383549
0.861587
0.337002
-0.636676
-0.823163
-0.469350
0.257115
-0.018037
-0.956796
-0.038210
-0.598908
-0.265872
0.446266
-0.185610
-0.414156
-0.497783
0.933924
0.431079
0.589290
0.295717
0.210313
-0.521069
-0.645053
0.963578
-0.748153
0.500018
-0.371839
-0.329034
-0.388616
-0.017292
0.724454
-0.605408
0.106472
-0.144920
-0.694089
0.069677
0.319775
0.454504
0.947156
0.356169
-0.567329
-0.639745
-0.905930
0.879726
0.177953
-0.308476
-0.599510
0.147356
-0.812952
1.035548
-0.558519
0.338532
-0.446957
-0.093665
0.409560
-0.238881
-0.739762
0.856092
0.504507
0.105156
-0.040945
-0.089785
-0.007010
0.823435
0.710992
0.251348
-0.147427
0.053667
-0.268822
-0.192305
-0.587010
0.164099
0.170340
-0.481155
0.062974
-0.609935
0.274319
0.518014
0.534934
0.396852
0.545217
1.021734
-0.240173
0.975216
-0.277826
0.908005
-0.348166
-0.030453
0.736393
0.805179
0.644824
-0.506440
-0.302635
-0.347217
-0.662977
-0.568903
0.914721
0.185271
0.485260
-0.353847
0.994504
0.905525
0.824490
0.189082
-0.528168
-0.062005
0.573192
0.656855
-0.630368
0.057859
0.015507
0.784408
-0.148827
0.441132
0.507486
0.452374
0.313757
0.934994
-0.842413
-0.074364
0.770587
0.879884
0.462181
-0.518562
-0.468865
0.793776
-0.087406
-0.553986
-0.019791
-0.598076
0.101487
-0.013641
-0.669637
-0.041996
-0.815568
-0.242050
0.799243
0.659099
-0.679161
-0.971105
-0.502119
0.029933
0.607056
0.373136
-0.384151
0.139571
-0.273301
0.863295
0.138224
-0.012255
-0.140241
-0.057312
-0.124057
-0.675044
0.426066
0.407250
-0.880929
-0.659610
0.858743
0.106802
-0.245744
-0.024143
-0.874693
0.103332
0.913855
-0.757893
0.743548
0.549523
0.706148
-1.092544
0.575333
-0.554021
0.197313
0.293146
0.750194
0.761982
-0.506904
-0.414371
0.732113
0.692011
0.601824
-0.399836
-0.363864
-0.522225
-0.074767
-0.937296
0.886437
0.046788
-0.590634
0.753323
-0.829645
0.188424
-0.247414
-0.683642
-0.702220
-0.395143
-0.581669
0.905917
-0.846316
-0.712897
0.908598
0.715038
-0.383932
0.076502
0.082902
-0.514820
-0.043399
0.643784
0.107229
-0.303783
0.336273
-0.290994
0.296388
0.972491
0.187003
-0.778424
-0.963541
0.082158
0.285645
-0.534489
-0.144539
0.478406
0.648668
0.516032
0.591268
0.736167
-0.947114
-0.955116
0.610079
-0.895654
-0.767797
0.537474
0.913431
-0.034556
-0.288277
0.048898
0.477812
0.672039
-0.307060
-0.415023
-0.631744
-0.970787
0.293838
0.664422
-0.997732
-0.514256
0.896624
-0.951903
0.570070
0.184412
-0.486412
-0.622573
-0.453887
-0.948819
0.872715
-0.805502
0.778155
0.857124
-0.813080
0.419698
-0.961228
-0.503202
0.012816
0.974491
0.472631
0.725390
0.023362
-0.049590
0.397429
0.716303
0.535386
0.765691
0.745569
-0.170250
0.432018
0.751318
0.316101
0.319827
0.787113
-0.133551
-0.527260
-0.738434
0.231592
0.031519
-0.699986
0.082662
0.204063
-0.913234
-0.036544
0.414685
0.521255
0.003536
0.912906
-0.465913
-0.021973
0.385537
-0.740522
-0.998611
-0.664054
0.656907
0.717691
0.871333
0.422592
0.463207
-0.299298
-0.147087
0.210323
-0.989212
-0.830612
-0.006285
-0.126458
-0.362577
0.248787
-0.901103
0.664132
0.548407
0.180559
-0.131828
0.635412
-0.856672
-0.717302
0.156668
0.146864
-0.804396
0.690755
-0.875110
0.581138
0.950218
-0.873782
0.916979
0.605510
0.842528
0.787524
0.027016
0.304281
-0.514448
0.879543
-0.484263
-0.501479
-0.949205
0.510446
0.373017
-0.310681
-0.240002
0.472391
-0.646413
-0.691568
-0.347044
0.221760
0.943844
-0.203717
0.504457
0.100510
0.943149
0.699999
-0.208818
-0.932481
0.279278
-0.265308
-0.816640
0.173886
-0.678967
-0.999153
-0.059959
0.328901
0.298119
0.438455
0.225733
0.824654
0.949227
0.296535
0.363541
0.344552
-0.998637
-0.865984
-0.178305
-0.643913
-0.557317
0.474637
0.577847
-0.613479
-0.729124
0.081784
0.486084
-0.788553
-0.226081
-0.735745
-0.747075
-0.995628
-0.056950
-0.631650
0.129561
0.234521
-0.606490
-0.872493
-0.402583
0.696840
0.592012
-1.063432
0.684407
0.680050
0.310915
0.092738
0.049334
0.323296
0.231643
0.871138
0.679461
0.674324
0.345800
0.258548
-0.937960
0.619113
-0.657570
0.547944
0.812019
0.088042
0.781177
-0.968322
0.048064
-0.323632
-0.589089
-0.766588
-1.037054
-0.154664
-0.538264
-0.190641
-0.113338
-0.611022
-0.045232
-0.317234
-0.878862
-0.709169
0.784730
0.169976
0.613334
0.016301
0.041484
0.302201
-0.281293
-0.560456
-0.380469
-0.174129
-0.921153
-0.047438
-0.639323
0.819843
-1.034699
-0.999903
0.745296
-0.017947
-0.239173
-0.658281
0.429875
0.036901
0.559216
-0.690370
-0.862491
-0.396918
-0.235897
0.118150
0.292033
-0.118546
0.406417
0.077349
-0.938570
0.051199
-0.834734
0.194897
-0.557070
-0.056364
0.630724
-0.017096
0.577579
0.422039
0.622933
0.598981
0.054522
0.565097
0.837653
0.197831
-0.121707
-0.151441
0.778299
-0.383444
-0.853563
0.469678
-0.034629
-0.728375
-0.953241
0.707431
0.382371
0.340895
-0.390388
-0.154683
-0.486237
-0.210230
0.982668
-0.298856
0.908746
-0.774024
0.260351
0.110028
-0.141741
-0.308073
-0.403541
-0.266926
-0.270529
-0.862110
-0.409179
-0.317204
0.359057
0.558128
0.648195
0.140601
-0.906374
0.679358
-0.479559
0.013488
0.939327
-0.428004
-0.250713
0.381367
1.001987
0.444639
-0.707030
-0.514067
1.048697
0.937057
-0.211536
0.664725
-0.881261
-0.730174
0.130770
0.312048
0.171706
0.753924
0.888310
0.735624
0.767705
-0.554160
-0.620824
-0.027447
0.752755
0.793580
0.960047
0.785489
0.462362
-0.515249
-0.178425
0.444099
0.112724
0.594199
-0.190181
0.004427
-0.159446
-0.198231
0.267245
-0.121323
-0.011634
-0.605279
-0.128845
0.160048
-0.526705
0.502668
0.950992
0.293529
0.095675
0.725607
-0.097224
-0.371695
0.853171
0.011553
0.432837
0.539839
-0.205952
0.398503
0.338592
-0.728102
0.873101
-0.887520
0.620988
-0.155355
0.644120
-0.623464
0.940644
-0.292443
0.487846
0.428707
0.569895
1.228562
0.465416
0.894056
-0.120465
0.515549
0.147287
-0.396816
-0.338934
-0.937820
-0.877677
0.386776
-0.425975
0.923870
-0.608849
-0.987403
0.466340
0.166682
0.350782
-0.292435
0.327939
0.215844
0.010302
0.240351
-0.562296
-0.114401
0.753023
-0.698419
0.259135
-0.091626
0.459494
-0.469489
-0.278406
-0.603029
0.951126
0.289767
0.828355
0.075290
0.884511
-0.530996
0.091484
0.977675
0.850615
0.666949
0.896039
-0.791821
0.605202
0.245636
0.316122
0.102640
-0.633722
0.110888
-0.382853
0.301165
1.125729
-0.359489
0.749881
0.654608
-0.117732
-0.091609
-0.891730
0.650536
-0.184903
-0.446232
-0.922272
-0.104322
0.992148
-0.996549
0.996946
0.870916
-0.530827
0.088858
0.843054
-0.712397
-0.322379
0.631553
-0.537892
-0.499722
0.295034
1.110848
0.554222
0.305847
-0.169029
0.801529
-0.598042
0.006260
-0.367380
1.087764
-0.877214
-0.176588
-0.476695
-0.864933
-0.431567
0.486014
-0.129925
-0.211884
-0.539855
-0.126808
-0.210473
-0.543976
-0.259533
0.238980
0.483259
-0.518565
0.457954
-0.731433
-0.664335
-0.941975
-0.432193
0.315648
-0.997533
-0.804814
-0.143747
0.184634
-0.677287
0.124778
0.637215
-0.631306
-0.008101
0.818950
0.217709
0.568771
-0.924945
0.918327
0.143843
-0.038503
-0.296573
0.604722
0.839505
0.488549
-0.985070
-0.523676
-0.402599
0.447133
-0.027222
-0.948985
0.556104
0.248452
-0.708178
-0.405765
0.087431
-0.144184
0.140802
0.799177
0.477843
-0.089331
-0.210021
0.184509
0.212204
0.720692
0.045063
-0.472071
0.375310
0.145007
-0.553375
-0.477598
-0.879532
0.167219
-0.909609
0.831234
-0.545970
-1.080918
-0.829156
0.015497
0.394799
0.427353
0.545185
0.606190
0.252958
-0.552293
-0.342737
-0.664463
-0.242886
0.163747
0.907393
-0.780752
-1.024042
-0.415406
0.401474
0.264756
-0.609593
-0.516987
0.798563
0.767848
0.649244
-0.725987
-0.721866
0.651072
0.211627
-0.872887
0.347416
-1.285755
-0.718524
-0.998537
0.334492
-0.678509
0.867589
0.271159
-0.749522
0.109392
0.266056
-0.660585
0.251517
-0.979126
0.442925
0.086036
-0.745936
0.519341
0.770456
0.699928
-0.208137
-0.832913
-0.789251
-0.385672
0.919144
0.760811
-0.301811
-0.984235
0.283451
-1.063672
-0.663336
0.019594
-0.814180
0.145231
0.358747
0.664865
0.490268
0.132378
-0.323558
0.508887
-0.690132
-0.924722
0.873949
0.589332
-0.817401
0.488205
-0.187755
-0.508490
0.016378
-0.407714
-0.776701
0.825334
-0.271366
-0.675363
-0.704125
-0.493530
-1.024402
0.000926
-0.400480
0.475645
0.284445
0.324482
-0.245375
0.525687
-0.546138
-0.858338
0.237306
-0.871725
0.557097
-0.850463
0.760650
-0.999402
-0.587874
0.864299
0.739555
-0.349074
0.362094
-0.440041
0.161008
-0.609469
0.112203
0.257794
-0.915822
0.721719
0.525239
-0.613652
-0.720403
0.569543
0.492113
0.139561
0.323234
0.009116
-0.321719
-0.598071
-0.125939
0.487292
-0.135032
-0.642668
0.753009
-0.435345
-0.289913
0.729607
-0.310028
0.164414
0.601533
-0.565734
0.822181
-0.032722
-0.040746
-0.115530
0.229964
-0.990072
-0.792970
0.417517
0.813907
0.744700
-1.122331
-0.677795
0.665238
0.753042
0.877877
0.487817
0.201335
-0.161742
-0.951203
-0.830837
-0.613246
0.001161
-0.315291
-0.690771
0.658337
0.423267
-0.955923
-0.648800
-0.409722
0.643306
-0.227777
-0.620856
-0.423868
0.760324
0.440908
1.069287
0.973473
0.735290
0.615800
0.998050
0.738659
0.678930
-0.430235
0.671943
0.578132
-0.639704
0.024598
-0.292201
0.192334
0.141851
-0.012885
0.685927
-0.802373
0.690801
0.997229
0.856884
0.118016
-0.952692
-0.776991
0.737515
0.760071
0.122009
-0.666987
-0.436954
0.013284
0.811595
-0.338916
-0.017177
0.428675
0.986850
-0.268931
-0.090970
0.352298
-0.123250
-0.711653
-0.182561
0.236349
0.373134
0.590854
-0.519573
-0.461882
-0.411527
-0.833350
-0.263234
-0.717476
-0.826402
-0.382799
0.454718
-0.666315
-0.013249
0.312898
1.071800
0.947231
0.443780
-0.517659
-0.236099
-0.136298
-0.435597
0.232830
0.812537
-0.876971
0.573685
-0.478800
0.455650
-0.496091
-0.133609
-0.687626
0.766051
-0.749745
0.907921
-0.753482
-0.211564
-0.502500
-0.580898
0.544538
-0.175813
-0.323376
-0.748452
-0.722117
-0.185954
-0.062444
0.354929
-0.222532
-0.244192
-0.485582
-0.118129
0.204970
0.095381
0.226510
-0.720497
-0.120500
0.438516
0.962880
0.466040
-0.079570
-0.520014
-0.663008
0.234831
-0.753964
-0.412754
0.142751
-0.506207
0.380875
0.657733
-0.057509
-0.055437
-0.557599
0.484960
0.028828
-0.370486
-0.699232
0.926424
0.867361
-0.045211
-0.364864
-0.690756
0.775277
0.795053
0.425170
0.094035
-0.827413
-0.645782
-0.455415
-0.859652
0.821080
0.465305
-0.379668
-0.841929
-0.299865
-0.133505
-0.254361
0.843086
0.358597
-0.879005
0.482009
-0.732740
0.021623
0.898077
0.752589
-0.956452
-0.512306
-0.980305
0.972343
-0.668414
-0.047872
-0.422443
-0.362037
-0.247603
-0.592093
-0.918138
0.847109
-0.419343
-0.563870
-0.608321
-0.278995
-0.742790
0.856984
0.341336
-0.584719
-0.442881
-0.792296
0.160599
-0.599995
0.566625
0.281536
0.882032
0.831256
-0.697792
0.778881
0.578679
-0.661561
-0.740451
0.591080
-0.697966
-0.411851
-0.457338
-0.117057
0.228663
0.294962
0.290744
0.310525
0.142071
0.871400
0.746655
0.533750
-0.407595
-0.996142
0.390304
0.932700
-0.582478
0.946985
-0.860081
0.576610
-0.653801
0.707072
-0.139481
-0.771114
0.537818
0.161874
-0.992283
0.117789
0.501886
-0.731680
-0.290904
0.803962
-0.143528
0.251758
-0.313095
-0.914865
-0.453280
0.977649
0.395660
0.688789
0.849047
0.142236
0.221546
-0.560726
0.139150
-0.395180
-0.637881
0.548644
-0.453661
-0.494940
0.134255
-0.106024
-0.796053
-1.012212
0.125714
0.758144
0.167571
0.147437
-0.117710
-0.328288
0.415934
0.591161
-0.524269
-0.727551
-0.157081
0.162636
-0.642416
0.389619
0.140156
0.752680
0.075696
-0.017432
-0.118731
-0.718113
0.404905
-0.987746
-0.108832
0.785436
0.584360
0.440000
-0.716251
-0.284887
-0.642588
-0.473407
-0.255535
0.517641
-0.692147
0.926201
-0.330011
0.193365
-0.399942
-0.913142
-0.215393
0.075830
-0.640678
0.627531
-0.761704
-0.283398
0.013956
0.365960
-0.553688
-0.935685
-0.664017
0.327947
-0.643067
0.761980
0.351436
0.244072
0.541811
-0.036062
-0.251561
0.895321
0.750791
0.163907
-0.520468
-0.469542
-0.304735
-0.212948
-0.546237
0.364639
0.979641
0.053549
0.451503
-0.235692
-0.872091
0.813468
-0.609732
-0.647142
-0.507830
0.353400
0.670595
-0.078142
0.432074
-0.934979
-0.686612
0.834785
0.855227
0.736274
0.188878
0.510787
-0.192586
1.019598
0.481227
-0.412473
0.185292
0.925079
0.077994
0.862363
-0.293106
0.530657
0.227030
-0.315904
-0.415219
-0.318720
0.445249
-0.310121
-0.558843
0.765866
0.005256
-0.043566
0.222551
-0.144843
-0.929998
-0.190979
0.023788
-0.504689
-0.236384
-0.040875
-0.764743
0.940925
-0.548639
0.003958
0.908944
0.833074
0.488123
0.035825
0.741253
-0.435845
-0.101532
-0.552225
-0.907354
-0.877639
0.124019
-0.345325
-0.239232
-0.449725
0.386386
0.313025
-0.497207
-0.404372
-0.542804
0.821405
0.452294
-0.496864
-0.392872
-0.606247
-0.192398
0.175965
0.177295
-0.073154
0.010155
0.492369
0.789932
-0.171111
0.296108
0.274019
0.865414
0.039793
0.830631
-0.243710
0.471646
0.913490
-0.136390
-0.371710
-0.336270
0.772597
0.319757
-0.865429
0.106264
0.740225
-0.426223
0.368887
0.381443
0.828338
0.644083
0.778592
-0.947890
-0.645054
-0.125441
0.148408
0.181527
0.803139
-0.399004
-0.038818
-0.366569
0.900149
-0.775691
-0.521492
-0.080431
-0.945523
0.244324
-0.561965
-0.942025
-0.781366
0.104849
-0.326587
0.897238
-0.673815
-0.326959
-0.175720
0.868003
0.101716
-0.882818
0.169703
-0.168474
0.692056
-0.059432
-0.080082
-0.941440
0.782598
-0.971135
0.229673
0.587112
-0.367187
-0.816193
-0.803313
-0.493057
-0.583458
-0.294426
0.477951
-0.470047
1.005401
0.903999
-0.448197
-0.799776
0.005182
0.143045
0.923200
0.139546
0.738200
-0.232175
-0.018606
-0.288240
-0.227259
-0.799320
0.726926
-0.367353
0.181639
-0.376829
-0.316489
-0.036030
-0.346904
0.907284
-0.472548
0.247684
-0.928597
-0.242266
0.840321
-0.407899
0.551773
0.340005
0.118299
0.576303
0.254102
0.556287
0.558201
-0.926107
-0.329491
0.525055
0.151210
-0.787823
-0.872618
-0.786654
0.226238
0.203117
-0.475379
-0.046580
0.829625
0.705408
0.578735
-0.494758
-0.354189
-0.826370
-0.623455
0.221100
0.606627
-0.323594
1.130209
0.462476
0.232886
0.659247
-0.254469
-0.825784
-0.025739
0.794048
0.675708
-0.489975
0.731469
-0.929532
-1.187315
-0.055038
-0.355234
-0.670999
0.335731
0.891764
0.530472
0.860249
-0.151839
0.351416
0.526044
-0.655395
0.790159
-0.760300
-0.213925
-0.529332
0.627923
-0.642568
0.055148
0.667925
0.648602
1.013333
0.026440
-0.813910
1.063095
0.869586
0.750503
0.398364
-0.907482
0.492148
0.830734
-0.670194
-0.332447
-0.493800
-0.340670
-0.996801
-0.596707
-0.820021
0.809914
0.146002
0.440474
0.400179
0.749074
0.543326
0.779355
-0.539377
0.915440
0.314576
-0.369917
-0.293368
-0.264663
1.117866
-0.435952
0.509298
-1.025420
-0.773061
0.058953
0.710148
0.963299
0.578070
0.445076
0.832551
0.909316
-0.886835
-0.655490
-0.442649
-0.962240
-0.383642
-0.358780
0.932476
1.003839
-0.641030
0.447673
0.719591
0.854492
0.199691
1.052379
0.592090
-0.599759
-0.373048
-0.886433
-0.239488
-0.696495
-0.758536
-1.007294
-0.698175
-0.188526
0.452597
-0.762378
-0.180573
0.033593
0.683575
-0.343178
-0.073437
0.702467
-0.146175
0.395008
0.871853
0.739224
-0.703507
0.923028
0.786057
-0.304168
0.411326
0.445466
-0.561744
-0.416452
0.490607
0.818909
-0.474128
0.606910
0.554213
0.128165
-0.942104
-0.823739
0.480172
-0.455893
0.027894
-0.063946
-0.217544
0.851247
0.949282
-0.623052
-0.642020
-0.205338
-0.763951
0.514662
-0.549756
-0.792277
0.292122
-0.212934
-0.832981
0.007163
0.377267
0.514684
-0.610900
0.570892
0.638786
0.418322
0.152172
-0.825707
0.282108
0.084346
0.590501
0.464307
0.290450
0.072192
-0.990942
-0.677429
-1.009648
-0.295382
-0.971492
0.830558
0.169645
-0.377055
-0.164117
0.447851
-0.884588
0.311054
0.719981
0.405274
-0.938443
0.824756
-0.670099
0.213927
-0.024213
-0.601071
-0.297924
-0.226646
-0.871744
-0.817804
0.149284
0.486578
0.290706
-0.258468
-0.048470
-0.415683
0.800556
-0.110975
-0.220403
0.666153
0.611930
-0.068938
0.639328
-0.188093
0.574786
-0.384163
-0.490637
0.856374
-1.014505
-0.793454
0.221545
-1.078530
0.827236
0.419915
0.193878
0.052626
-0.879057
-0.863520
0.931004
-0.720767
-0.663675
0.083004
0.765914
0.628482
0.816503
-0.329741
-0.877283
0.519990
0.540160
-0.043604
0.273734
0.223688
-0.972771
0.200983
-0.608305
0.846269
0.896951
-0.109015
0.716684
0.877454
0.080486
-0.002434
0.948886
0.127000
-0.398555
0.250224
-0.803362
-0.279951
0.395328
-0.870269
-0.000551
0.732807
0.209639
-0.264160
0.312256
-0.028947
0.388752
0.447589
-0.460438
0.029981
-0.380378
-0.866375
-0.429908
-0.198662
0.341696
-0.039212
-0.288111
0.323823
0.950571
-0.455768
0.313006
0.125293
0.581572
0.263590
-0.762205
-0.820763
-0.483043
-0.564800
-0.100266
0.914965
-0.434524
0.890206
0.623119
0.749854
-0.363297
-0.008170
-0.177324
-0.799077
-0.315929
0.600706
0.369565
0.279877
0.649917
0.915864
-0.870961
0.054419
-0.080592
-0.139182
-0.624129
-0.145445
0.375407
0.666957
0.975816
-0.038369
-0.066683
-0.786185
0.141311
0.452945
-0.345970
-0.952208
0.365365
0.216584
0.959731
0.080113
0.132898
-0.208136
-0.784813
0.976308
-0.125893
-0.318764
0.382333
-0.870486
0.882959
-0.033952
0.962065
0.928133
0.948822
-0.172016
-0.247253
-0.688563
0.687572
-0.865325
0.981645
0.663394
0.096176
-0.083782
0.878652
-0.758000
-0.624592
-0.456741
-0.676255
0.812222
0.874851
-0.589681
-0.080391
-0.117964
-0.053473
-0.160029
-0.391208
0.607642
0.358771
0.856519
0.629697
0.153724
-0.241741
0.549201
0.056696
-0.299439
-0.618642
0.813942
0.014656
-0.931074
0.948623
-0.002936
0.732223
0.045091
0.913117
0.616854
0.316089
-0.652473
-0.766616
0.653728
-0.922045
0.927569
0.814083
-0.227716
-0.367282
-0.391551
0.494326
0.154702
-0.833652
-0.193781
-0.019560
0.776006
0.949203
0.736512
0.326504
0.007308
-0.561898
0.707858
-0.178750
0.452758
0.776783
-0.230007
-0.550176
0.511652
0.823961
-0.620921
0.144015
0.121173
-0.343395
0.268334
-0.332203
-0.347375
0.136186
-0.566237
0.380589
0.739466
0.027355
-0.137533
-0.116752
0.185515
0.665831
0.862706
-0.038699
0.614560
0.599219
-0.712195
-0.378132
-0.962678
0.995666
0.443152
0.490201
0.772703
-0.786870
0.940262
0.283013
-0.970946
-0.698896
-0.598074
0.126487
-0.061831
0.656163
0.781768
0.577751
-0.215043
-0.787313
-0.042873
-0.477336
0.238438
0.818881
0.405685
-0.576104
0.484709
0.268392
0.385197
0.099269
-0.132389
0.673002
0.721137
-0.095067
0.668665
0.164255
-0.604987
0.441114
0.377239
-0.665747
-0.277113
0.405013
-0.366386
0.122853
-0.470324
0.569898
-0.222574
-0.689346
0.147304
0.562269
-0.476577
-0.895568
-0.915125
0.761846
0.923313
0.490560
-0.814259
0.408022
-0.241048
0.570938
-0.492698
0.627124
0.244977
-0.769930
-0.467218
-0.086002
0.397060
-0.067639
-0.643359
-0.229321
0.261410
0.077787
-0.822420
0.896603
-0.798761
-0.294669
0.464226
-0.023335
0.015265
-0.388523
-0.461066
0.538688
-0.284092
-0.376192
0.300533
-0.360779
-0.885622
0.486275
-0.952712
-0.125709
0.060818
-0.437066
-0.490091
-0.677662
-0.184056
0.073025
0.249143
-0.805680
0.967072
0.580697
-0.030218
0.243725
-0.340873
0.126278
0.115567
-0.155110
0.825827
-0.422967
0.819766
-0.159619
0.188472
-0.641301
-0.620932
0.904379
-0.017377
0.679936
-0.454866
0.101388
0.175934
-0.390357
0.998719
-0.724657
0.219905
-0.447978
-0.419792
0.950335
0.510587
0.767481
-0.835806
0.525955
0.348226
0.065439
-0.315012
0.953188
-0.827091
0.789882
-0.207845
0.995181
-0.632290
-0.387793
-0.164440
0.556179
-0.029083
0.216778
0.467990
0.971282
-0.066303
-0.933793
0.133898
-0.810672
-0.261027
0.123203
-0.708847
0.671515
0.441222
-0.183353
0.717553
0.034476
-0.430369
0.773854
-0.553542
0.838759
-0.188165
0.123926
0.799303
-0.007134
-0.079909
-0.407307
-0.012485
0.287774
0.205174
0.828810
-0.132192
-0.778047
0.107480
-0.597664
-0.742488
1.067588
-0.605563
0.179903
0.904346
-0.152131
-0.763842
-0.642862
-0.305560
0.700257
0.083327
-0.672475
-0.330168
0.607704
-0.925830
0.134476
0.485230
-0.090010
-0.736788
0.279258
0.900049
0.182906
0.871851
-0.105574
-0.505796
0.121903
-0.221476
0.412562
0.357935
0.810278
0.601226
0.311085
0.666447
1.012124
-0.287510
0.817145
-0.083876
-0.199630
0.950707
0.482655
-0.561465
-0.016169
0.766661
0.142357
-0.328825
0.878365
-0.730924
-0.862725
-0.218699
-0.469868
0.412284
-0.321138
0.719151
0.302464
0.608822
-0.747638
-0.588656
-0.744263
0.422930
0.600007
-0.875380
0.283528
0.135030
0.746852
0.037449
0.526904
0.346564
0.836492
-0.736295
0.214591
0.274841
-0.245065
-0.638739
0.143725
0.909283
0.016213
0.015025
-0.827539
0.145128
0.783517
-0.304631
-0.428660
-0.509189
-0.549012
0.829486
-1.056445
-0.492465
-0.768436
-0.618641
-0.891386
0.768835
-0.770207
0.071192
-0.318581
-1.039329
-0.812901
-0.710569
0.266430
-0.991273
-0.328312
-0.232752
0.510796
0.499918
0.127899
-0.349277
0.404137
-0.865090
0.647444
0.558945
0.286180
0.467913
-0.688830
0.766545
0.792366
-0.397825
0.628353
0.835242
0.138966
0.770420
-0.833495
0.239060
0.571516
-0.481233
-0.443149
-0.501901
-0.459927
-0.214613
-0.037049
-0.835702
0.103523
0.763501
-0.056867
-0.387134
0.257661
-0.933988
0.247359
-0.353936
-0.793803
-0.042857
-0.733764
0.413264
-0.723466
-0.574579
0.208655
-0.822383
0.164814
0.060132
-0.699460
-0.479449
-0.095642
-0.503831
-1.039600
-0.262846
0.156279
-0.416443
0.408185
-0.967986
0.664453
-0.477333
-0.782376
-0.231013
-0.719792
0.154804
0.367467
0.520243
0.221708
-0.335212
-0.787120
0.380181
0.520403
-0.628481
-0.170305
0.913177
0.089247
-0.504911
-0.501094
-0.559863
0.442255
-0.412127
-0.135161
-0.559035
0.202220
-0.116121
0.312030
-0.395891
0.685787
-0.152335
-0.346085
0.352386
0.367391
-0.132661
-0.891068
0.620817
-0.985675
0.496456
0.193938
0.268782
-0.846312
0.346207
-0.314274
0.835385
1.148750
0.985664
1.033627
0.142820
-0.923860
-0.973247
0.220980
0.411168
-0.365097
-0.865741
0.963801
0.998764
0.146661
0.345963
-0.394497
-0.166584
-0.808099
0.258429
-0.829791
0.520426
-0.898748
-0.718723
0.197747
-0.806888
0.826139
-0.542932
0.578873
1.276843
1.227093
-0.466150
0.986738
0.879574
0.813738
0.395151
-0.365106
0.762296
0.425134
0.932962
0.310188
-0.798333
-0.861335
0.294595
-0.809128
0.284895
-0.360072
-0.202082
-0.901204
-0.217438
-0.988288
-0.766587
-0.660081
-0.801040
-0.338883
0.765606
-0.320096
-0.129817
-0.531347
1.112173
-0.388589
0.945140
0.862679
-0.927412
0.576477
0.671311
0.498708
-0.671241
0.593113
0.085327
-0.690273
-0.108001
0.271306
-0.550348
-0.812375
0.464098
0.714409
-0.237877
-0.813916
0.721717
0.533306
-0.758631
-0.838573
-0.749798
-0.159221
0.155660
1.009979
0.071596
0.299383
0.709563
-0.429227
0.570148
0.577199
-0.500060
0.663672
0.234187
-0.681445
0.345944
0.612551
0.877691
-0.585834
0.927154
-0.227944
0.690559
-0.639545
-0.126029
0.028828
-1.045207
0.618136
0.286638
0.890656
0.550365
0.933805
-0.664312
0.676881
-0.692293
-0.136737
0.084847
0.010097
-0.889407
-0.053702
0.659783
0.631382
-0.503419
-0.713943
0.483317
0.778152
-0.442013
-0.183709
0.396411
-0.561305
0.239643
0.309301
0.104184
-0.238512
0.527186
-0.982104
-1.055478
0.707306
0.936179
0.511165
0.805074
0.414478
0.191495
0.799928
-0.185480
0.420938
-0.124807
-0.820779
-0.526109
-0.192440
-0.030394
-0.793790
-0.397539
0.497829
-0.546834
-0.919101
0.280519
0.016601
-0.083654
-0.319162
0.358448
-1.015076
0.824244
-0.499757
-0.078919
0.557671
-0.292356
0.024043
0.423767
-0.304202
-0.458580
0.249362
-0.801523
0.879947
0.304511
0.145431
0.177746
0.907339
0.126904
0.664786
-0.179958
-0.888418
0.858335
0.426934
0.614360
-0.680144
0.532305
-0.085234
0.294617
-0.684767
0.417139
-0.391882
-0.644594
0.388204
0.257714
0.437900
0.171048
-0.788794
-0.276599
-0.140302
0.138871
0.400738
-0.811859
0.232077
0.032328
0.213646
-0.778750
-0.795900
0.157436
0.347415
0.874911
0.987572
0.463835
0.739023
0.440050
0.113100
-0.926843
-0.082639
0.898445
0.221166
0.119886
0.307148
-1.051524
0.720565
0.055135
0.583673
0.522420
-0.500525
0.919988
-0.766383
0.258985
-0.137067
0.387655
0.225313
1.002423
-0.593804
-0.564255
-0.786489
-0.381568
0.601702
0.563004
-0.502899
0.609895
0.057624
-0.728217
0.062739
-0.861144
-0.774179
0.768969
-1.120674
0.446895
0.116344
0.549955
0.779518
0.136832
-0.232143
0.411230
-0.383510
0.185127
0.197322
-0.333557
-0.706463
-0.982988
-0.949753
0.512991
-0.982330
-0.537506
0.954226
-0.768301
0.084575
0.571272
0.820648
0.600085
0.197128
-0.105856
0.861908
-0.833162
-0.112085
-0.982827
-0.981248
-0.073961
0.661544
0.302828
-0.353941
0.559559
-0.498127
0.394036
-0.116747
-0.016915
-0.509012
-0.932478
0.663538
-0.201949
-0.902525
0.717089
-0.686275
-0.884584
-0.817858
-0.723359
-0.636860
0.270539
0.835969
-0.826921
-0.101998
0.071751
0.100542
-0.243557
0.170504
0.912363
-0.242868
0.274188
-0.002556
-0.486487
-0.437329
0.531324
0.941575
-0.047639
-0.109955
-0.163843
0.958052
0.401736
-0.085223
0.622563
-0.799684
0.012314
0.341159
-0.483145
0.128678
0.512247
-0.231254
0.458386
-0.222875
-0.347179
0.722534
0.763125
0.714246
-0.261747
-0.568872
-0.172813
-0.439305
-0.002323
0.899536
0.371433
0.403552
-0.592821
-0.106058
0.355279
0.373809
0.793554
-0.808196
0.330895
0.195623
0.106623
-0.046422
0.395667
-0.884146
-0.718239
0.885912
0.208509
0.778022
-0.312592
-0.246053
-0.370692
0.332001
-0.613632
-0.737482
-0.109310
-0.075483
-0.528866
0.578837
0.400977
0.435374
0.458315
-0.240777
-0.175704
0.860508
0.649067
-0.824289
0.233072
0.442519
-0.632409
-0.436034
-0.361858
0.473587
0.514897
-0.973914
0.579725
0.794542
0.936994
-0.167273
0.608901
-0.385128
0.547134
-0.784814
0.922508
0.889703
-0.585051
-0.194865
-0.178107
-0.113631
-0.624747
-0.793471
-0.696971
0.824488
-0.038735
0.125600
0.684696
-0.389659
0.301350
-0.082232
-0.947140
0.668894
0.481565
-0.309349
0.142426
-0.002094
-0.276092
-0.265990
-0.192847
-0.332893
0.572565
-0.570794
0.300677
0.133399
-0.354889
0.237913
0.036200
0.071077
-0.954016
0.854493
0.950743
-0.581830
-0.939452
-0.746280
-0.757343
0.021834
0.379320
0.927353
0.632175
-0.319330
-0.154879
0.685035
-0.650389
-0.673146
-0.623963
0.492765
0.326012
0.101107
-0.771258
-0.864610
0.770245
0.805190
-0.431577
0.075429
-0.057366
0.216372
-0.685531
0.979541
-0.713433
-0.639828
0.834034
-0.762690
-0.221658
0.894582
-0.508970
0.020999
-0.083584
0.870353
-0.051657
-0.451513
-0.449041
0.793447
-0.765288
-0.096051
-0.875270
-0.386042
-0.605488
0.446003
0.711274
-0.378388
0.581999
0.482163
-0.571531
-0.848934
-0.443408
0.370247
0.366858
-0.129063
0.349830
0.653429
0.231109
0.183864
0.890739
-0.990549
0.078446
-0.618149
0.030454
0.996076
-0.746254
0.981333
-0.448602
-0.182103
0.782899
-0.216484
0.708157
0.892570
0.390770
-0.889583
0.360846
0.123471
-0.252730
-0.062292
-0.408291
0.156136
0.075649
0.136342
-0.482651
-0.561640
-0.994030
0.867401
-0.908211
0.237047
0.051266
0.982800
0.246535
-0.868822
-0.634688
-0.717353
-0.860157
-0.354364
-0.722540
-0.341697
0.396576
-0.974532
0.461360
0.178499
1.010636
-0.058566
0.312538
0.328065
0.977232
0.974503
-0.798900
-0.483420
0.088742
0.253014
0.642973
0.604964
0.690468
0.648809
0.472038
0.779792
-0.121091
-0.490996
0.737982
-0.907908
-0.384805
-0.921432
-0.682531
-0.350988
-0.381480
-0.419873
0.405974
-0.813933
-0.242155
-0.016793
0.389047
-0.284083
0.820432
-0.409996
0.931590
0.679569
-0.547767
-0.947079
-0.839723
0.536359
0.306357
0.803203
0.139268
-0.014347
0.419927
-0.444595
-0.308055
-0.771398
0.009024
-0.615775
-0.745721
0.534405
-0.548811
-0.295228
-0.625260
0.186705
0.388437
-1.027291
0.600203
-0.691644
0.012364
-0.022168
-0.067756
-0.332135
0.388707
-0.273134
-0.719087
0.829708
-0.219119
-0.558869
0.360341
-0.941754
-0.808611
-0.588936
-0.056823
0.509969
-0.058405
0.711467
-1.077260
-0.794140
-0.620266
-0.499680
-0.932801
-0.026125
0.266548
-0.416699
-0.505361
-0.065929
-0.306932
-0.835111
0.222998
0.561844
-0.042604
-0.975823
-0.832934
-0.665376
-0.250434
-0.553532
-0.843616
0.489915
-0.185103
0.412703
0.455937
-0.040270
-1.065435
-0.310647
-0.122175
0.175318
-0.515356
-0.209866
0.442761
0.073640
0.408401
0.445340
-1.020831
-0.328666
-0.905537
-0.394891
0.724016
-0.270474
-0.365567
-0.144344
-0.745505
0.586328
-0.122576
-0.581850
0.908904
0.578650
-0.216254
-1.040082
0.014214
0.688411
0.656348
-0.128177
-0.040756
0.573099
0.282354
0.503933
-0.282444
-0.930534
-0.408162
-0.883061
-0.194522
0.822384
0.679759
0.104659
-0.266247
0.786160
0.619627
-0.615280
-0.503696
-0.751000
0.239812
-0.252222
0.825115
-0.923284
0.100553
0.652530
0.669258
-0.902513
0.969527
0.046071
0.884414
0.476220
0.620865
-0.455790
-0.036636
0.080952
-0.644397
0.743353
0.003389
-0.106452
-0.841265
-0.758973
-0.051966
0.871789
0.280511
0.614551
0.628000
-0.107367
-0.993564
-0.874213
0.132960
0.222478
-0.161974
-0.077474
0.399753
-0.768459
-0.037099
0.327373
-0.700944
-0.258012
-0.886016
0.722978
-1.154699
0.604641
-0.492160
0.012587
-0.233548
-0.043954
0.087058
-0.945672
0.920743
0.222779
-0.763598
-0.165745
0.067836
0.523087
-0.535701
-0.300407
-0.585169
-0.534002
-0.169178
0.598894
0.860757
0.940529
-0.210283
0.376969
1.041405
0.516546
-0.730770
0.589518
0.603424
-0.876669
0.638512
0.813884
0.864502
-0.714298
0.043620
-0.273129
0.196756
-0.925742
