0.093310
0.778729
1.268169
0.959960
1.060580
-1.273854
1.193156
0.979611
2.565389
-0.263239
0.408737
-0.203709
-1.032439
0.609928
-1.133066
-0.750598
0.751117
2.417271
1.017779
0.034677
1.468482
0.998737
1.207535
0.442421
-0.277825
1.892161
1.789906
-0.820837
0.934492
-0.162726
-0.070578
2.112571
1.691446
0.529216
1.035866
1.400644
-0.134732
1.641809
-1.058806
-0.382364
0.120547
0.865378
1.018199
-0.763560
1.858651
0.690551
1.181297
-0.536419
-0.397733
-0.208286
1.375537
-0.161378
-0.959828
0.749517
1.995861
0.703625
-1.249732
-0.210283
-0.147789
2.195804
2.190949
1.512199
0.070093
0.993903
1.223669
1.815653
1.321293
0.538525
2.303965
0.350835
-0.528625
0.661779
0.608674
-1.045495
0.212212
-0.600889
1.119774
-0.559960
-0.497937
0.095129
0.077093
0.734805
0.539045
0.896271
2.031545
0.422197
1.168061
-1.360870
1.260874
1.091691
1.419165
0.390459
1.491284
0.560115
1.766851
0.088093
1.179621
0.878940
0.396703
0.969762
1.323436
1.920247
1.644289
-0.784577
-1.244862
-0.470156
0.041168
0.375689
-0.187808
0.888273
1.441117
0.895089
0.995232
-1.894213
1.352652
0.883387
0.819680
-0.225137
0.187340
1.655939
2.256099
0.068796
-0.107459
-0.103224
-0.445937
-0.416771
-0.329642
-1.524715
0.792409
0.108677
0.825000
1.917645
0.333285
1.757451
1.925652
-0.203461
0.518499
-0.633863
-0.329095
2.107788
0.847731
1.893870
0.772543
1.116041
-0.711103
-0.034933
0.082129
0.477854
2.263567
-0.835514
0.024507
1.835163
2.209141
0.943961
-0.341322
-0.569487
0.277227
0.299408
-0.824336
0.739833
1.038746
2.001253
0.070440
0.558343
-0.862568
0.336898
1.977090
2.076911
0.385718
1.185048
0.899878
1.119376
0.761040
-1.156227
1.477105
1.244449
0.607397
-0.214602
0.833052
0.058686
2.310804
1.160806
0.240453
1.173035
-0.183070
-0.275925
-0.100495
-0.067768
-0.590735
0.713021
-1.017003
-0.229895
1.302708
1.200131
0.540304
-0.810083
0.425472
0.898939
0.269316
-0.775833
1.286975
0.419076
1.186086
1.723967
1.384130
1.807848
0.347096
1.399818
1.727950
-0.269001
-0.429571
-1.183286
0.846569
-1.660799
-0.113743
1.343485
1.662675
0.959602
0.389986
0.661438
2.408354
0.738852
-0.245697
1.012685
1.575993
0.648945
1.124378
-0.180544
1.547557
1.623137
-0.249337
0.212931
1.088844
-0.455036
-0.602580
-0.969184
0.869331
-0.872614
2.217093
1.465957
0.735310
1.197588
2.042861
-0.406343
0.203479
-0.427207
0.475793
0.760789
-0.087902
-0.811897
0.960009
0.977893
0.910969
-0.490059
0.653038
-1.146180
0.923374
1.312866
-0.796690
1.014974
0.683041
1.635783
1.607036
1.643489
1.819935
2.190380
0.143829
-0.454737
-0.323178
-0.518067
0.605335
-1.465480
0.954180
-0.703305
-0.324589
-0.539757
0.016641
2.022187
-0.215655
-0.393755
0.164956
1.473437
0.725625
2.039827
2.182267
-0.187754
0.738892
-0.088309
0.281866
0.974440
0.948462
2.512313
1.731311
0.723368
0.184304
-0.810607
0.971648
-1.179095
0.657253
-0.555647
